tree
version=v3
num_class=1
num_tree_per_iteration=1
label_index=0
max_feature_idx=22
objective=quantile
feature_names=brand category-1 category-2 category-3 colour fabric_type ftp_acrylic ftp_cotton ftp_elastane ftp_linen ftp_other ftp_polyamide ftp_polyester ftp_polypropylene ftp_silk ftp_viscose ftp_wool gender label made_in season size unspsc_code
feature_infos=3:0:5:16:9:12:1:13:6:4:8:2:11:10:15:7:14 2:0:3:4:1:5 8:11:6:16:12:3:14:13:7:17:4:15:0:18:1:5:2:10:9:21:20:19 37:31:45:40:29:11:19:33:26:1:16:9:44:3:30:25:35:10:24:12:7:46:6:4:15:18:32:17:13:0:8:38:2:47:23:43:41:34:14:20:5:22:36:42:28:21:27:39 17:3:22:10:34:1:32:15:16:5:30:24:36:12:25:40:27:2:31:35:38:4:33:39:6:28:26:0:20:14:23:8:11:37:18:13:29:9:21:7:19 1:0 [1:69] [1:100] [1:69] [1:100] [1:69] [1:100] [1:100] [1:69] [1:100] [1:69] [1:100] 3:5:1:0:6:2:4:-1 none 5:8:33:31:22:32:35:27:17:1:19:20:11:14:30:26:12:24:10:2:34:16:28:29:0:4:3:21:25:7:13:15:18:23:6:9 2:3:1:0:-1 2:4:3:5:1:0 none
tree_sizes=25803 25768 25069 25431 25114 25275 25304 25515 25519 25864 25679 25759 26166 25497 25852 25696 25755 25114 26434 25726 25882 26270 25556 26384 25273 26488 25649 25993 26356 25730 26028 26117 26171 25596 27047 26228 26312 26101 26589 25736 26245 26702 25949 26471 26419 26166 26234 26883 25982 26300 26611 26753 26319 26036 26151 26412 26601 26577 26253 26651 27096 26231 26528 26117 26456 26499 26524 27149 26047 26171 26697 26652 26575 26806 26823 26687 26556 27028 27014 26108 26831 26947 26951 26831 26251 26280 26366 26365 26500 26746 26876 26425 26461 26924 26208 26616 26912 26818 26748 26696

Tree=0
num_leaves=300
num_cat=128
split_feature=2 2 1 17 2 2 2 5 17 2 2 11 14 2 1 17 6 11 2 5 4 4 4 4 14 4 4 4 17 4 11 5 4 11 14 4 4 4 5 4 4 6 6 6 2 11 11 4 14 2 5 2 6 4 4 6 4 4 11 4 4 4 6 11 11 6 4 6 6 4 14 4 14 14 14 11 5 5 2 4 11 11 6 4 11 4 4 4 4 4 14 4 14 14 14 11 11 5 6 2 14 11 14 14 4 5 11 4 6 6 4 14 14 11 14 4 5 14 4 17 6 6 14 4 5 2 4 11 11 6 4 4 6 4 11 14 6 6 14 11 11 4 11 11 4 14 6 6 14 11 6 4 6 6 6 4 11 4 11 6 17 4 14 14 4 14 14 6 6 4 4 11 11 11 11 11 6 14 6 6 4 11 11 11 17 14 11 14 14 14 6 4 11 11 4 14 4 11 14 6 4 6 11 14 4 14 6 11 14 11 4 4 4 6 4 6 4 6 17 14 14 14 11 5 14 4 11 11 6 17 6 6 11 11 11 17 5 14 4 14 6 6 4 2 4 17 14 14 14 5 11 6 1 4 14 14 11 14 4 6 11 4 4 6 14 2 11 17 4 17 4 4 17 14 4 6 11 11 4 14 6 14 6 6 6 4 14 11 14 6 14 4 2 11 11 4 14 11 14
split_gain=1085.24 84.6959 44.9492 28.5364 18.2756 12.3191 12.242 8.27143 8.27029 7.45391 5.48943 4.44347 3.51561 3.43197 3.37175 3.13339 3.04959 2.92822 4.31973 3.00075 3.02423 2.90228 2.84085 2.74314 2.51406 2.41791 2.36108 2.25616 2.08779 1.98163 1.97973 1.93876 1.92826 1.91462 1.83996 1.83265 1.81931 1.78577 1.7592 1.70733 1.68343 1.62472 1.60184 1.52218 1.42084 1.31689 1.29915 1.28824 1.28577 1.23154 2.07009 2.76646 1.23579 1.17746 1.17664 1.15854 1.14886 1.13714 1.1234 1.48093 1.10425 1.07731 1.0799 1.0633 1.04989 1.01304 0.996077 0.991234 0.986251 2.17251 0.996812 0.978431 0.965943 1.17771 1.19522 0.963371 0.988142 0.946306 2.28977 1.86398 1.70376 0.950693 0.943755 0.939881 0.938962 0.936724 0.926671 0.925524 0.918181 0.914366 0.912678 1.09279 0.904625 1.36917 1.1546 1.00076 0.890695 0.886557 0.880884 0.876582 0.876267 0.915794 0.876111 0.869512 0.857861 1.1373 0.85745 1.74871 1.54739 1.21742 2.05201 1.09106 0.854414 0.84778 0.982446 1.14257 1.02863 1.06773 0.990817 0.972734 0.944253 0.830917 1.07436 0.822852 0.816886 2.55386 0.813343 0.950929 0.794679 1.49448 0.790386 0.787503 0.784163 0.853658 0.89432 0.90205 1.20463 0.839945 0.781282 0.77892 0.778384 2.37415 1.14534 0.773833 0.766712 0.766496 0.765517 0.757004 0.754295 0.849917 0.745665 0.741432 1.57643 1.03178 0.739044 0.738616 0.851394 0.728643 0.724472 0.722245 0.717488 1.35599 0.713032 0.709712 1.31225 1.30359 0.693991 0.751111 0.690021 0.951412 0.704398 0.684952 0.754793 0.682319 0.677982 0.677327 0.674734 0.666601 0.664091 0.653739 0.953939 1.87613 0.952534 0.937897 0.650256 0.648159 1.10276 0.633442 0.846749 0.632448 1.19382 0.632176 0.631449 1.01986 0.630376 0.629339 0.628151 0.626048 0.625977 0.622684 1.32499 0.70363 0.614037 0.651539 0.605688 0.789671 0.877581 0.604858 0.602057 0.591624 0.899204 0.590523 0.582909 1.07037 0.581138 0.57994 0.800542 0.616304 0.579888 0.843139 0.801895 0.576118 0.571485 0.563049 0.662686 0.560412 0.560185 0.559718 0.551717 0.551441 0.550987 0.539269 0.535854 0.637789 0.534203 0.531535 0.682781 1.29595 0.720531 0.640882 0.793522 0.70527 0.572438 0.524756 0.520223 0.885374 0.853112 0.518818 0.572344 0.522539 0.518528 0.753917 0.518434 0.510082 0.599127 0.576014 0.50982 0.504179 0.499507 0.509828 0.499139 0.508084 0.492167 0.490928 0.643774 0.490713 0.793624 0.489421 1.65447 0.488005 0.551124 0.520981 0.485236 0.770424 0.798441 0.682927 0.725692 0.484184 0.532326 0.484702 0.478341 0.470315 0.468021 0.465385 0.464528 0.464444 0.463457 0.747683 0.600613 0.459872 1.02249 1.25736 1.05719 0.56726 0.692668 0.569827 0.525546 0.844061 0.631365
threshold=0 1 2 3 4 5 6 7 8 9 10 10.500000000000002 17.500000000000004 11 12 13 17.500000000000004 4.5000000000000009 14 15 16 17 18 19 23.500000000000004 20 21 22 23 24 1.0000000180025095e-35 25 26 54.500000000000007 20.500000000000004 27 28 29 30 31 32 9.5000000000000018 25.500000000000004 17.500000000000004 33 31.500000000000004 1.5000000000000002 34 21.500000000000004 35 36 37 17.500000000000004 38 39 37.500000000000007 40 41 8.5000000000000018 42 43 44 5.5000000000000009 48.500000000000007 18.500000000000004 21.500000000000004 45 3.5000000000000004 2.5000000000000004 46 57.500000000000007 47 2.5000000000000004 14.500000000000002 17.500000000000004 35.500000000000007 48 49 50 51 32.500000000000007 36.500000000000007 27.500000000000004 52 52.500000000000007 53 54 55 56 57 88.500000000000014 58 27.500000000000004 15.500000000000002 13.500000000000002 47.500000000000007 42.500000000000007 59 19.500000000000004 60 93.500000000000014 1.5000000000000002 9.5000000000000018 35.500000000000007 61 62 5.5000000000000009 63 1.5000000000000002 11.500000000000002 64 1.5000000000000002 2.5000000000000004 10.500000000000002 2.5000000000000004 65 66 1.5000000000000002 67 68 3.5000000000000004 15.500000000000002 35.500000000000007 69 70 71 72 32.500000000000007 9.5000000000000018 2.5000000000000004 73 74 9.5000000000000018 75 12.500000000000002 4.5000000000000009 2.5000000000000004 23.500000000000004 80.500000000000014 7.5000000000000009 39.500000000000007 76 98.500000000000014 52.500000000000007 77 86.500000000000014 22.500000000000004 19.500000000000004 7.5000000000000009 17.500000000000004 10.500000000000002 78 33.500000000000007 26.500000000000004 7.5000000000000009 79 8.5000000000000018 80 82.500000000000014 11.500000000000002 81 82 99.500000000000014 48.500000000000007 83 53.500000000000007 74.500000000000014 1.0000000180025095e-35 10.500000000000002 84 85 82.500000000000014 1.5000000000000002 97.500000000000014 42.500000000000007 8.5000000000000018 9.5000000000000018 95.500000000000014 14.500000000000002 11.500000000000002 86 55.500000000000007 59.500000000000007 13.500000000000002 87 7.5000000000000009 6.5000000000000009 12.500000000000002 36.500000000000007 12.500000000000002 4.5000000000000009 88 32.500000000000007 11.500000000000002 89 85.500000000000014 90 1.0000000180025095e-35 75.500000000000014 16.500000000000004 91 19.500000000000004 9.5000000000000018 20.500000000000004 92 56.500000000000007 7.5000000000000009 1.5000000000000002 13.500000000000002 56.500000000000007 93 94 95 2.5000000000000004 96 4.5000000000000009 97 5.5000000000000009 98 11.500000000000002 5.5000000000000009 97.500000000000014 6.5000000000000009 99 16.500000000000004 100 6.5000000000000009 5.5000000000000009 8.5000000000000018 101 1.5000000000000002 11.500000000000002 14.500000000000002 35.500000000000007 5.5000000000000009 102 103 1.5000000000000002 104 1.0000000180025095e-35 5.5000000000000009 5.5000000000000009 105 106 107 108 17.500000000000004 13.500000000000002 34.500000000000007 109 12.500000000000002 22.500000000000004 110 111 1.5000000000000002 11.500000000000002 68.500000000000014 32.500000000000007 112 1.5000000000000002 26.500000000000004 113 114 11.500000000000002 32.500000000000007 115 11.500000000000002 116 117 118 119 120 121 69.500000000000014 122 6.5000000000000009 16.500000000000004 6.5000000000000009 123 69.500000000000014 9.5000000000000018 7.5000000000000009 5.5000000000000009 8.5000000000000018 14.500000000000002 124 8.5000000000000018 7.5000000000000009 6.5000000000000009 4.5000000000000009 14.500000000000002 125 126 28.500000000000004 91.500000000000014 127 1.5000000000000002 3.5000000000000004 7.5000000000000009
decision_type=1 1 1 9 1 1 1 1 9 1 1 10 10 1 1 9 10 10 1 1 1 1 1 1 10 1 1 1 9 1 10 1 1 10 10 1 1 1 1 1 1 10 10 10 1 8 10 1 10 1 1 1 10 1 1 10 1 1 10 1 1 1 10 10 10 10 1 8 10 1 8 1 8 8 8 10 1 1 1 1 10 10 10 1 10 1 1 1 1 1 10 1 8 10 10 8 10 1 10 1 8 10 10 10 1 1 8 1 10 10 1 10 8 10 10 1 1 10 1 9 10 10 8 1 1 1 1 10 8 10 1 1 10 1 10 10 8 10 10 10 10 1 10 10 1 10 10 10 8 10 10 1 10 10 10 1 8 1 10 10 9 1 10 10 1 10 10 10 10 1 1 10 8 10 10 10 10 10 10 10 1 10 10 10 9 10 10 10 10 10 10 1 8 10 1 10 1 10 10 10 1 10 10 10 1 10 10 10 10 8 1 1 1 8 1 10 1 10 9 10 10 10 8 1 8 1 8 8 8 9 8 10 10 10 10 9 1 10 1 10 8 8 1 1 1 9 10 10 10 1 10 10 1 1 8 10 10 10 1 8 10 1 1 10 8 1 10 9 1 9 1 1 9 10 1 10 10 8 1 10 10 10 8 10 10 1 10 8 10 8 10 1 1 10 10 1 8 10 8
left_child=2 8 5 13 22 7 31 21 12 40 60 24 17 -4 16 -10 25 18 36 20 98 33 28 187 27 38 171 42 30 -13 47 85 145 65 77 -30 235 49 58 140 -7 244 160 225 48 194 83 -5 53 50 51 52 126 150 -48 -44 218 -15 59 100 64 62 -50 211 147 92 -60 -68 104 -70 84 148 -49 154 -75 151 -77 78 79 -17 86 157 99 230 159 -3 -80 -47 -79 -21 113 97 93 94 128 -95 -83 -92 -20 144 103 -102 -85 -11 105 -32 107 108 111 204 -111 207 -61 114 115 116 117 227 119 155 -117 143 -123 -98 125 146 127 -19 129 -1 -101 247 133 166 135 136 -135 192 -76 208 162 -142 -143 253 -38 -26 258 272 158 -150 -40 153 175 250 -74 156 -116 -81 -46 -71 161 284 163 199 -165 -166 232 -168 170 -170 -34 172 -9 -69 -54 -153 -125 -99 -55 267 181 -181 -183 223 283 186 -45 226 -189 -89 -191 -145 193 263 -37 -167 243 -186 -114 -16 -201 -202 203 214 205 280 -207 -27 -58 -112 -211 -51 213 -22 -33 -120 -217 -218 219 -43 -220 269 -137 224 -182 -42 -18 -24 -224 -147 -41 -163 -23 -234 -118 236 238 239 -2 241 -241 -238 -239 -14 245 -29 -247 -115 249 -249 251 -25 -53 255 -255 -28 -107 -225 -39 -260 261 -206 -231 -134 -265 266 -90 268 -31 271 -271 -62 273 274 -6 276 -274 278 -272 -280 -108 -156 -262 -122 -12 -66 288 -288 -246 290 291 292 -56 296 -295 -296 297 -291 -298
right_child=1 6 3 4 10 9 -8 26 15 14 11 29 196 57 39 34 23 37 19 89 212 132 90 75 32 106 121 41 35 179 68 202 168 -35 -36 45 82 124 44 46 43 56 55 185 71 87 54 72 61 63 -52 252 174 178 289 -57 139 -59 66 112 221 -63 -64 -65 285 -67 67 173 69 70 -72 -73 73 74 138 76 -78 88 80 81 -82 96 -84 102 -86 -87 -88 189 265 -91 91 -93 -94 95 -96 -97 123 177 -100 130 101 -103 -104 -105 -106 256 109 -109 -110 110 209 -113 198 131 118 120 234 -119 215 -121 184 122 -124 176 -126 -127 -128 -129 -130 -131 -132 -133 137 134 -136 222 -138 -139 -140 -141 141 142 -144 191 -146 229 -148 -149 149 -151 -152 152 -154 -155 281 -157 -158 -159 -160 -161 -162 231 -164 164 165 195 167 -169 169 -171 -172 -173 -174 -175 -176 -177 -178 -179 -180 180 183 182 -184 -185 197 -187 -188 188 -190 190 -192 -193 -194 -195 -196 -197 -198 -199 -200 200 201 -203 -204 -205 260 206 -208 -209 -210 210 -212 -213 -214 -215 -216 216 217 -219 220 -221 -222 -223 228 257 -226 -227 -228 -229 -230 262 -232 -233 233 -235 -236 -237 237 242 -240 240 -242 -243 -244 -245 286 246 -248 248 -250 -251 -252 -253 -254 254 -256 -257 -258 -259 259 -261 282 -263 -264 264 -266 -267 -268 -269 -270 270 277 -273 275 -275 -276 -277 -278 -279 279 -281 -282 -283 -284 -285 -286 -287 287 -289 -290 293 -292 -293 -294 294 295 -297 298 -299 -300
leaf_value=78.678799707126743 69.403048079682051 66.366950211324735 65.992499664309435 72.282999858856783 70.243200459291984 67.798099623102459 62.95700035095215 70.641249395369954 65.158000183105472 73.417749797820576 70.084700070190593 69.006150308297947 68.069049708556847 68.844399606320081 72.165699993912128 67.560800234985066 74.295249614000198 71.305799937438138 70.384250129701101 67.813000305171585 71.487100323462442 70.858647279359872 74.830690853879787 77.940098635101464 69.951149140950292 70.017798478317857 73.218600271613099 71.707097139739204 72.684198132320304 72.862798480222409 75.074249873164803 66.15300025939942 67.92124984741676 72.078000236510704 66.331500061042604 71.51059921875131 67.751100012203096 71.096499296190444 73.517798041537759 69.061599062346062 70.121498142243951 69.996299198341148 74.675650502300414 71.359999078750477 70.030599378966144 72.075098417670233 70.20419987181667 82.01499898242983 72.081299590301938 68.791500246048969 67.809999862697438 68.824800502014114 77.791497838497165 71.957197735598314 75.654398797605239 70.464949238347984 70.803598959359803 67.489750076271591 70.012749961856755 77.318997581483558 68.161200016783553 68.571699185180478 73.392000175475914 66.583350012208399 67.076549923134735 84.065896314120437 69.311599958801523 73.238999212266933 70.70489976654062 78.827298849296497 77.163900771712363 71.89339594421908 70.291299820136913 92.563496377587398 76.391747987744751 95.24329881925587 78.347798644256542 67.454999938979739 68.112699887086634 71.377199952890081 66.120999557495821 80.39274703812589 74.588298992467031 71.803749999986024 74.18409834506501 67.054399835201906 67.218449650576801 70.203899644466588 67.412699955748394 65.076099058543335 69.982197922515667 66.461500264167626 74.557250068662682 80.617498758315918 70.506399097061148 84.93459955825783 68.178500150204485 71.87989923105215 81.286996532440028 67.154349619292773 73.874199581908755 74.488499491693076 70.600999893189879 70.958900197601182 70.490649661635686 72.881900083158683 72.401497116102831 72.58579889221582 71.530597996139846 69.455198054121865 72.852097978975507 78.115797459793981 73.343799670413134 68.541300456237508 80.36234680690832 70.715748458867893 72.293999763490859 75.274998519898503 71.190399995422922 69.411898572536302 77.087746397018776 79.648997848272487 72.558848029994621 74.113997966765595 66.685799288930141 67.04430039901635 70.326596456905833 72.849698883818931 72.738998199463822 73.424286135865259 68.50639977417886 70.622247947682624 73.835648563242103 78.051999022482775 71.321250175475143 70.84075004005426 74.329999893193602 75.460248329400926 82.977198338317976 68.675249146459834 67.825649922946468 71.159998214722151 75.010900061225399 70.538648771381119 68.740999633772304 69.195047454547236 74.600848052644508 69.63629992027272 74.384096216585021 69.792998671531677 72.872199301290493 77.94749693489284 81.077999032020301 73.636747620344067 86.611247327804449 71.326398934936151 71.998599523925805 68.449548060609956 84.934399281596967 73.606049057912784 69.959350080788141 71.617650266265258 77.719099027538689 69.103099905396817 67.060250064849967 73.711798274231839 81.565998179435695 75.548998708725051 68.671499782562023 71.038898555371276 69.419799914583564 68.232399556732702 73.226597799675076 67.479149899101316 95.221098167682428 72.97049871253985 71.5855464910981 79.243499240279192 78.711397859192218 70.219299433898414 78.124949443149674 77.375000055789855 70.15919992332438 69.261899983973123 73.519698660661376 72.562499414444034 67.008399865245877 91.774496055126292 68.808950240898042 70.644999679565075 79.805000633239246 67.456999654770328 72.798650322533646 72.866748674869456 69.583399774169081 72.682999784467398 66.857300273136929 70.419746685028073 68.509700057793822 71.968798843574774 77.312198008345874 72.794399401283584 65.264699913782536 65.270750003820282 70.135296389763241 69.102998001097873 80.516198148774862 76.412397016142492 72.517249703407288 78.412749610899482 72.291400078392329 67.336600252534851 66.166000003814403 67.498998519897583 65.613100027479234 73.762200543214561 76.413799111557452 70.408699757384596 73.345497676846577 77.786299871277691 72.253197823333906 69.685350407266554 71.762149545288409 71.361797560405464 67.388999893188526 68.836400239565407 66.8272502923015 75.462200787352046 75.411498082159966 69.376999336239535 71.245849462901248 80.654648954964074 76.225497171759613 71.666199772643452 74.70669958190993 68.971600347897038 70.477000330924781 69.897199637222371 68.194500230789714 71.517299191546314 70.492300119233192 69.907150107956838 67.313500263214522 67.042000198364263 70.535899987816805 70.418698345869785 71.351998603821272 88.930146751976281 68.062348039770228 70.883100068950441 79.358247470140299 90.667800098847508 67.531799899286128 66.163800385665851 71.637250022881204 70.301749345780991 66.799899668311994 69.804449922370992 71.95159989204403 68.357497920990866 67.890997901915398 71.397699200455094 71.637998680112645 83.570899676895351 76.863393493747395 65.189800234982982 66.465300086210476 69.591400231886652 68.662300074769888 67.744800242624478 69.319499446867852 66.697000205991202 68.61479973144597 70.124750352858968 68.368299565503548 69.830999820709991 73.217248965501852 68.48549855041783 70.432599329376529 66.408698846268777 68.919198941040662 78.492998879671177 69.742899415583821 71.274750154733738 79.71024786877642 68.699000308991529 68.435100580599098 70.066249465942377 71.651999450678701 80.631199490595094 70.158498409271118 70.439999214172715 71.09795053653724 69.539000076299999 73.417748881816081 69.599748109818023 71.01264871177554 72.164199557114628 71.03639679870102
leaf_weight=88 433 3267 2370 400 417 1714 205092 155 7116 365 513 9917 813 4252 9622 908 25 156 655 1220 34 409 226 101 6109 116 832 1078 1862 348 205 7553 1575 165 2845 672 847 358 692 311 682 157 119 35 438 1379 4742 78 182 474 3510 143 46 1562 267 41 2214 6009 685 234 899 291 44 707 269 22 84 500 231 89 201 1818 154 22 545 23 32 4550 2729 316 1280 33 34 4245 26 4592 2511 907 3037 2962 47 186 745 21 24 22 110 31 40 1211 333 121 1740 182 583 189 3375 1646 348 238 199 284 1838 673 43 1511 1020 86 1441 1146 91 44 87 188 4592 1887 424 209 276 59 2662 1673 41 124 457 175 730 25 58 255 591 1330 51 103 3110 121 39 53 1246 240 52 139 20 57 27 128 74 487 22 31 28693 677 33 642 123 633 25 20 370 598 7492 97 2284 21 22 42 31 26 32 669 29 24 39 978 213 21 22 25 21 175 68 260 159 35 868 274 2894 167 186 112 109 132 8763 5149 1306 376 28 184 215 113 136 716 360 310 11466 286 46 281 890 22 388 47 143 104 53 1804 135 637 282 810 4479 43 30 91 133 1576 100 218 510 26 38 441 155 796 15994 13542 221 21 39 31 23 44 751 72 1615 303 51 21 24 475 294 3202 785 21 34 3832 1139 16272 439 1433 222 866 1912 101 618 416 25 1706 258 38 144 22 886 49 23 576 579 1627 1015 36 175 550 183 1449 115 101 619 102 2324
leaf_count=88 433 3267 2370 400 417 1714 205092 155 7116 365 513 9917 813 4252 9622 908 25 156 655 1220 34 409 226 101 6109 116 832 1078 1862 348 205 7553 1575 165 2845 672 847 358 692 311 682 157 119 35 438 1379 4742 78 182 474 3510 143 46 1562 267 41 2214 6009 685 234 899 291 44 707 269 22 84 500 231 89 201 1818 154 22 545 23 32 4550 2729 316 1280 33 34 4245 26 4592 2511 907 3037 2962 47 186 745 21 24 22 110 31 40 1211 333 121 1740 182 583 189 3375 1646 348 238 199 284 1838 673 43 1511 1020 86 1441 1146 91 44 87 188 4592 1887 424 209 276 59 2662 1673 41 124 457 175 730 25 58 255 591 1330 51 103 3110 121 39 53 1246 240 52 139 20 57 27 128 74 487 22 31 28693 677 33 642 123 633 25 20 370 598 7492 97 2284 21 22 42 31 26 32 669 29 24 39 978 213 21 22 25 21 175 68 260 159 35 868 274 2894 167 186 112 109 132 8763 5149 1306 376 28 184 215 113 136 716 360 310 11466 286 46 281 890 22 388 47 143 104 53 1804 135 637 282 810 4479 43 30 91 133 1576 100 218 510 26 38 441 155 796 15994 13542 221 21 39 31 23 44 751 72 1615 303 51 21 24 475 294 3202 785 21 34 3832 1139 16272 439 1433 222 866 1912 101 618 416 25 1706 258 38 144 22 886 49 23 576 579 1627 1015 36 175 550 183 1449 115 101 619 102 2324
internal_value=0 -0.0381511 0.0522254 0.0426173 0.0466142 0.0725146 -0.0467445 0.105131 -0.00665426 0.0673722 0.0421953 0.0441392 0.00367066 -0.0029705 0.0702657 -0.0185914 0.079325 0.00741063 0.016344 -0.00644787 0.0336312 0.138965 0.0754045 0.145051 0.0477416 0.0774799 0.0808954 0.0505036 0.0887665 0.0334112 0.111362 -0.0308946 0.037178 0.177304 -0.0131134 0.0775038 0.0275218 -0.00300352 0.0884416 0.0638604 0.0268423 0.0556482 0.043944 0.0430458 0.078116 0.0651017 0.0581453 0.140658 0.0953752 0.00824497 0.0161165 0.0442319 0.0843714 0.105689 0.050347 0.14375 0.0743661 0.00496056 0.10366 0.113547 0.019481 0.0505803 0.100424 -0.0135553 0.0313054 0.191846 0.0786822 0.108537 0.0882316 0.12128 0.169888 0.0645999 0.162336 0.154106 0.1756 0.185234 0.313636 -0.00990734 -0.00182126 0.0270523 -0.011026 0.0534042 0.0190246 0.0659165 0.237671 -0.0167897 -0.00305345 0.0793001 -0.0154404 -0.0198709 0.0638633 0.00862068 0.188057 0.221429 0.205034 0.39186 0.0964088 0.0859649 0.0797872 0.0183269 0.147329 0.181278 0.0745204 0.121846 0.0696498 0.102747 0.0678502 0.0842126 0.119321 0.0638195 0.104519 0.152055 0.0974868 0.0655267 0.0707442 0.0811396 0.097964 0.122813 0.0582728 0.0367238 0.0629348 0.0625977 0.14084 0.0806991 -0.0139133 -0.000413235 0.0742078 0.108667 0.217139 0.276531 0.00755858 0.0493024 0.118445 0.112912 0.123607 0.136382 0.15726 0.165873 0.167247 0.061173 0.0727858 0.0544625 0.0768871 0.0595761 0.0287749 0.0489789 0.0432671 0.0389328 0.0806237 0.0919919 0.140318 0.173005 0.222512 0.11383 0.087931 0.0931372 0.150787 0.0346824 0.0456522 0.275 0.0434255 0.0672986 0.0759418 0.0755259 0.0564593 0.0783654 0.0739316 0.194444 0.0278994 0.0533058 0.0252178 0.104163 0.107852 0.126583 0.214706 0.204144 0.113755 0.17807 0.0880923 0.039408 0.0569379 0.0854447 0.251587 0.0382845 0.1 0.180769 0.125439 0.0402778 0.145652 0.0564655 0.102263 0.0161157 0.181034 0.232443 0.0422078 0.0922271 -0.0224628 0.0717949 0.0913043 0.0787218 0.119972 0.159163 -0.0342702 -0.03167 0.0609146 0.0709001 0.0292079 0.11 0.0669205 0.143231 0.178916 0.00462184 -0.0128852 0.0163842 -0.0289684 0.0723353 0.0984502 0.0583086 0.0975801 0.0373016 0.105668 0.00995618 0.106667 0.0997584 0.0353658 0.0388978 0.0125 0.112225 0.126471 0.0677156 0.0548958 0.0958904 0.0650943 0.123554 0.0783608 0.0465212 0.0579751 0.0767894 0.0390774 0.105372 0.2 0.0941774 0.0304289 -0.00645461 0.0533885 0.0580399 0.0557504 0.0217054 0.0928571 0.161538 0.158333 0.136207 0.00475663 0.0651665 0.0528285 0.0823144 0.0583333 0.142 0.0375146 0.0158153 0.0538083 0.0586956 0.0724299 0.179167 0.240909 -0.0218758 -0.0142857 0.0374612 0.0622961 0.0090188 0.0155849 -0.0046479 0.037131 0.0542757 0.0466183 0.0285019 0.0207279 0.0254252 0.0523166 0.079085 0.075888 0.194898 0.0355932 0.16 0.0278388 -0.00029587 0.0497399 0.0361287 0.0515345 0.0598466 0.0776596 0.09 0.129348 0.0555626 0.0406907 0.0935185 0.0635995 0.123913 0.0607713
internal_weight=0 312972 230867 156694 144063 74173 245882 10075 67090 64098 124915 115059 35978 12631 59820 31112 24730 31475 16942 5581 1399 4223 19148 687 86166 24043 5852 68306 8843 28893 2912 40790 17860 1422 23996 5931 11361 14533 11168 35090 4278 38197 30109 2564 6619 4069 21438 1306 2855 7158 5261 1751 857 2338 10663 160 4141 10261 4549 3259 9856 517 226 1897 4387 1257 1290 605 1606 578 347 3764 906 828 625 481 55 21151 8593 2073 6520 1165 7864 10775 146 7859 5240 2529 12558 4182 10305 290 1235 490 447 43 362 104 695 7830 1001 454 5985 547 1028 445 12875 2578 932 10297 686 584 2258 10015 7578 4133 2102 949 3445 1391 2031 3316 131 329 7375 2783 789 365 423 147 3873 2437 2801 2486 1911 1454 854 315 603 2684 13652 1972 1381 3185 3957 7825 896 3542 1946 1486 744 426 201 225 203 245 117 803 460 120 29949 1256 11680 11647 1672 1030 575 45 10035 968 9067 2536 2439 521 68 181 219 57 1594 18976 1917 732 63 1185 520 78 57 206 46 1150 243 363 290 131 1540 907 4503 380 2024 9975 353 241 32931 24168 9611 3923 404 300 2429 448 249 1190 704 344 19019 2054 613 327 1457 179 1278 5469 600 207 82 2486 160 863 425 1716 4790 720 530 121 1153 3497 1921 978 943 605 64 541 373 1609 34056 14841 13763 764 91 52 168 145 894 2822 1687 1135 240 125 857 499 5688 4508 1595 96 55 8008 4176 17059 787 5422 3657 1765 3489 1136 1035 2353 1937 2224 518 296 3519 49 1180 140 536 845 19215 2206 17009 5921 1175 1000 450 4746 1665 216 3081 138 2943
internal_count=543839 312972 230867 156694 144063 74173 245882 10075 67090 64098 124915 115059 35978 12631 59820 31112 24730 31475 16942 5581 1399 4223 19148 687 86166 24043 5852 68306 8843 28893 2912 40790 17860 1422 23996 5931 11361 14533 11168 35090 4278 38197 30109 2564 6619 4069 21438 1306 2855 7158 5261 1751 857 2338 10663 160 4141 10261 4549 3259 9856 517 226 1897 4387 1257 1290 605 1606 578 347 3764 906 828 625 481 55 21151 8593 2073 6520 1165 7864 10775 146 7859 5240 2529 12558 4182 10305 290 1235 490 447 43 362 104 695 7830 1001 454 5985 547 1028 445 12875 2578 932 10297 686 584 2258 10015 7578 4133 2102 949 3445 1391 2031 3316 131 329 7375 2783 789 365 423 147 3873 2437 2801 2486 1911 1454 854 315 603 2684 13652 1972 1381 3185 3957 7825 896 3542 1946 1486 744 426 201 225 203 245 117 803 460 120 29949 1256 11680 11647 1672 1030 575 45 10035 968 9067 2536 2439 521 68 181 219 57 1594 18976 1917 732 63 1185 520 78 57 206 46 1150 243 363 290 131 1540 907 4503 380 2024 9975 353 241 32931 24168 9611 3923 404 300 2429 448 249 1190 704 344 19019 2054 613 327 1457 179 1278 5469 600 207 82 2486 160 863 425 1716 4790 720 530 121 1153 3497 1921 978 943 605 64 541 373 1609 34056 14841 13763 764 91 52 168 145 894 2822 1687 1135 240 125 857 499 5688 4508 1595 96 55 8008 4176 17059 787 5422 3657 1765 3489 1136 1035 2353 1937 2224 518 296 3519 49 1180 140 536 845 19215 2206 17009 5921 1175 1000 450 4746 1665 216 3081 138 2943
cat_boundaries=0 1 2 3 4 5 6 7 8 9 10 11 12 13 14 15 16 18 20 22 24 26 28 30 31 33 34 36 38 40 42 43 45 47 48 50 51 52 53 54 56 58 60 62 64 66 68 70 72 73 74 75 77 79 81 83 85 87 89 91 92 93 95 96 98 100 102 103 105 106 108 109 110 112 114 116 117 119 121 123 125 127 128 130 132 134 135 137 138 139 141 143 144 146 148 150 152 154 156 157 158 160 161 162 163 165 167 168 170 171 172 173 175 177 178 180 181 182 184 185 187 189 190 192 194 196 198 199 201
cat_threshold=20792 270337 49 64 4112 16 65536 2 40 32 32 32 16 64 262145 2 246504232 331 1075083285 396 2173987070 89 1290338497 52 1158929173 71 40442730 109 758912337 77 9 411293696 248 2 2279621718 279 1048712 73 1191445681 262 2052113982 71 2 179061308 54 1205883400 310 4352 2148548672 9 270336 2 8192 1141966849 4026570882 384 2147633674 32 3607268420 364 16941312 3 663572872 241 17006613 1 67342597 6 2165317760 25 67261185 70 2 2 8192 3733441345 8 289477824 73 836150348 104 3647419794 228 17049668 16 1212597984 41 815859240 400 269092097 384 2 1 2148532262 25 2 2693005472 40 436731944 8 170624256 34 2 573244416 160 40 554697872 320 2 8192 1912636454 2 139514370 32 675315968 258 603980968 568 4 805314818 1 2181443846 458 525312 160 554172568 70 40 690488321 4 34357252 32 940968192 8 360449 2708742400 1 56 1342211201 2156150800 16 3830596622 65 136593412 436995074 144 10756098 160 1342194196 66 271574 164 1412794676 268 1212186624 260 22 2 2148008241 64 33 8 2 67372192 2 33817744 260 262144 8446498 274 12 2 2 621846532 384 10887552 288 2097376 104874052 19 262145 40 34874853 6 18 2270721 264 2154997280 12 9 41947392 177 403703812 2 50856192 96 20972544 73 4096 88276993 64
shrinkage=1


Tree=1
num_leaves=300
num_cat=7
split_feature=20 20 12 11 12 20 10 10 6 7 11 20 10 13 10 7 20 7 15 15 12 7 7 6 7 10 6 13 12 10 6 11 15 15 12 10 6 6 11 13 15 13 13 11 12 12 13 11 11 12 11 11 11 6 10 15 15 10 7 11 7 12 11 11 11 7 6 11 12 13 6 7 13 11 13 11 15 15 7 12 12 10 7 10 6 11 7 7 7 11 11 11 15 15 15 15 13 11 10 12 12 12 6 7 6 11 11 7 10 12 15 11 11 7 15 13 7 11 15 7 11 13 12 12 15 10 12 12 7 13 13 13 6 12 20 13 15 13 6 11 7 11 10 7 13 10 6 12 11 12 15 10 7 11 12 15 13 7 6 13 10 11 13 6 12 11 15 7 15 15 11 15 11 20 15 15 12 15 10 13 11 11 13 10 13 15 6 6 12 12 12 12 12 11 6 15 15 10 11 15 12 12 12 11 15 12 12 11 7 15 12 6 10 12 10 10 11 11 12 11 13 13 10 6 6 6 15 10 10 6 6 13 12 12 15 15 15 7 13 12 7 12 12 15 11 6 12 12 6 11 6 6 6 6 13 12 15 6 10 13 13 6 6 7 15 13 11 15 7 7 10 7 12 7 12 10 12 10 15 10 11 15 13 15 11 12 15 12 6 12 11 15 12 10 10 15 11 12 12
split_gain=1506.89 122.424 29.805 20.851 13.0421 12.7146 8.13732 4.61314 4.44492 3.55717 2.95297 2.65615 2.35559 1.98028 1.97701 1.82168 1.80746 1.60416 1.50797 1.55419 1.44245 1.33247 1.30798 1.26873 1.69285 1.24404 1.09989 1.05392 1.05224 1.23494 1.49963 1.28657 1.46613 1.03654 1.10274 1.78202 1.74114 1.62165 1.61709 1.5636 1.50196 1.68427 1.43059 2.74598 1.27053 1.10262 1.11382 1.21309 1.1006 1.08165 1.07219 0.993427 1.73619 1.10645 0.977786 1.13026 1.30774 0.953486 0.945394 0.934823 1.00082 0.907954 0.905357 0.882892 0.877856 0.877635 0.877542 1.54695 1.41839 1.53333 0.952381 0.87325 0.864357 0.862782 0.86028 0.857836 0.857579 0.857143 0.856399 1.04004 0.846046 0.843577 0.838248 0.825149 0.810598 0.866667 0.809193 0.792391 0.78793 1.03746 1.08695 2.27203 1.43234 1.21259 1.13412 0.806383 0.946607 0.7894 0.780851 1.17607 0.955882 0.946066 1.20607 1.14099 1.1403 1.13649 0.763063 0.749586 0.742115 0.89966 0.740884 1.05922 0.791153 0.726043 0.723514 0.725884 0.723276 0.778306 0.783975 0.7164 1.02645 1.50114 0.713861 0.699689 0.685261 1.02828 0.680271 0.902309 0.982538 0.77331 0.733482 0.718019 0.784858 0.676151 0.67269 0.664694 0.686813 0.865324 0.658839 0.657202 0.68495 0.654697 0.654485 0.65 0.649038 0.643189 0.640152 0.824477 0.637815 0.637121 0.631518 0.896043 0.790427 0.627795 0.623813 0.617736 0.617667 0.710684 0.614439 0.611151 0.610847 0.6 0.596659 0.590492 0.582638 0.57971 0.578751 0.578335 0.570992 0.570959 0.569623 1.37076 0.746308 0.565685 0.55687 0.550397 0.548544 0.904341 1.42903 1.4067 1.14719 0.616205 1.48314 0.93554 0.968621 0.566246 0.641821 0.545523 0.545201 0.58092 0.543698 0.522576 0.9728 0.521291 0.520234 0.519177 0.51398 0.507139 0.650401 0.503704 0.500651 0.851658 0.58833 0.648283 0.919152 0.82829 0.742205 0.49886 0.566038 0.57558 0.52742 0.708617 0.534911 0.493345 0.49266 0.490909 0.478688 0.923 1.07728 0.744498 0.828989 0.514286 0.476389 0.475955 0.475682 0.474079 0.467135 0.463086 0.49581 0.46222 0.584705 0.471016 0.460632 0.456876 0.455852 0.454294 0.453757 0.452104 0.448718 0.44456 0.439002 0.995556 0.580808 0.436471 0.865345 0.432764 0.43096 0.49155 0.431293 0.697831 0.902037 0.498626 0.425427 0.415541 0.415197 0.415166 0.4144 0.409664 0.411133 0.40628 0.404667 0.607526 0.404589 0.407724 0.742315 0.400036 0.399476 0.391198 0.851606 0.815761 1.06858 0.726834 0.600667 0.556161 0.617816 0.489752 0.39119 0.414481 0.422436 0.390325 0.675704 0.425845 0.863698 0.390214 0.505549 0.389704 0.38934 0.387706 0.387618 0.386052 0.383842 0.468302 0.425878 0.383704 0.436545 0.383522 0.379247 0.378972 0.378787
threshold=0 1 16.500000000000004 24.500000000000004 43.500000000000007 2 3.5000000000000004 15.500000000000002 19.500000000000004 11.500000000000002 34.500000000000007 3 12.500000000000002 5.5000000000000009 5.5000000000000009 2.5000000000000004 4 50.500000000000007 6.5000000000000009 10.500000000000002 9.5000000000000018 5.5000000000000009 50.500000000000007 16.500000000000004 1.0000000180025095e-35 17.500000000000004 8.5000000000000018 6.5000000000000009 11.500000000000002 3.5000000000000004 9.5000000000000018 45.500000000000007 10.500000000000002 20.500000000000004 40.500000000000007 3.5000000000000004 2.5000000000000004 16.500000000000004 7.5000000000000009 10.500000000000002 5.5000000000000009 24.500000000000004 3.5000000000000004 15.500000000000002 31.500000000000004 24.500000000000004 10.500000000000002 1.5000000000000002 1.0000000180025095e-35 2.5000000000000004 22.500000000000004 49.500000000000007 69.500000000000014 7.5000000000000009 7.5000000000000009 4.5000000000000009 11.500000000000002 7.5000000000000009 12.500000000000002 3.5000000000000004 7.5000000000000009 27.500000000000004 62.500000000000007 30.500000000000004 26.500000000000004 13.500000000000002 10.500000000000002 67.500000000000014 4.5000000000000009 10.500000000000002 15.500000000000002 23.500000000000004 20.500000000000004 13.500000000000002 1.0000000180025095e-35 13.500000000000002 5.5000000000000009 1.0000000180025095e-35 25.500000000000004 35.500000000000007 16.500000000000004 2.5000000000000004 5.5000000000000009 4.5000000000000009 2.5000000000000004 53.500000000000007 7.5000000000000009 66.500000000000014 9.5000000000000018 66.500000000000014 59.500000000000007 61.500000000000007 12.500000000000002 8.5000000000000018 1.0000000180025095e-35 4.5000000000000009 8.5000000000000018 55.500000000000007 14.500000000000002 15.500000000000002 9.5000000000000018 7.5000000000000009 26.500000000000004 5.5000000000000009 21.500000000000004 39.500000000000007 3.5000000000000004 3.5000000000000004 3.5000000000000004 15.500000000000002 12.500000000000002 21.500000000000004 32.500000000000007 8.5000000000000018 16.500000000000004 8.5000000000000018 1.5000000000000002 1.5000000000000002 15.500000000000002 1.5000000000000002 7.5000000000000009 7.5000000000000009 3.5000000000000004 4.5000000000000009 6.5000000000000009 1.0000000180025095e-35 71.500000000000014 69.500000000000014 15.500000000000002 10.500000000000002 5.5000000000000009 7.5000000000000009 1.0000000180025095e-35 37.500000000000007 5 5.5000000000000009 38.500000000000007 11.500000000000002 3.5000000000000004 12.500000000000002 8.5000000000000018 3.5000000000000004 3.5000000000000004 15.500000000000002 8.5000000000000018 16.500000000000004 4.5000000000000009 55.500000000000007 10.500000000000002 70.500000000000014 1.5000000000000002 1.5000000000000002 15.500000000000002 5.5000000000000009 4.5000000000000009 1.5000000000000002 5.5000000000000009 5.5000000000000009 2.5000000000000004 19.500000000000004 9.5000000000000018 12.500000000000002 5.5000000000000009 8.5000000000000018 5.5000000000000009 16.500000000000004 16.500000000000004 54.500000000000007 7.5000000000000009 1.5000000000000002 6.5000000000000009 5.5000000000000009 5.5000000000000009 6 1.5000000000000002 3.5000000000000004 32.500000000000007 8.5000000000000018 16.500000000000004 22.500000000000004 41.500000000000007 13.500000000000002 10.500000000000002 17.500000000000004 13.500000000000002 2.5000000000000004 1.5000000000000002 7.5000000000000009 93.500000000000014 80.500000000000014 2.5000000000000004 33.500000000000007 44.500000000000007 56.500000000000007 4.5000000000000009 11.500000000000002 6.5000000000000009 6.5000000000000009 61.500000000000007 5.5000000000000009 65.500000000000014 60.500000000000007 55.500000000000007 10.500000000000002 10.500000000000002 48.500000000000007 46.500000000000007 8.5000000000000018 2.5000000000000004 1.5000000000000002 7.5000000000000009 4.5000000000000009 2.5000000000000004 11.500000000000002 5.5000000000000009 1.5000000000000002 62.500000000000007 57.500000000000007 9.5000000000000018 82.500000000000014 7.5000000000000009 1.0000000180025095e-35 20.500000000000004 7.5000000000000009 20.500000000000004 14.500000000000002 30.500000000000004 13.500000000000002 9.5000000000000018 25.500000000000004 15.500000000000002 9.5000000000000018 7.5000000000000009 38.500000000000007 11.500000000000002 3.5000000000000004 3.5000000000000004 6.5000000000000009 1.0000000180025095e-35 19.500000000000004 7.5000000000000009 53.500000000000007 62.500000000000007 10.500000000000002 1.0000000180025095e-35 6.5000000000000009 15.500000000000002 35.500000000000007 9.5000000000000018 12.500000000000002 11.500000000000002 15.500000000000002 34.500000000000007 24.500000000000004 5.5000000000000009 73.500000000000014 18.500000000000004 10.500000000000002 20.500000000000004 10.500000000000002 5.5000000000000009 2.5000000000000004 36.500000000000007 33.500000000000007 15.500000000000002 1.0000000180025095e-35 4.5000000000000009 3.5000000000000004 4.5000000000000009 4.5000000000000009 2.5000000000000004 2.5000000000000004 78.500000000000014 2.5000000000000004 77.500000000000014 2.5000000000000004 8.5000000000000018 1.5000000000000002 29.500000000000004 16.500000000000004 8.5000000000000018 18.500000000000004 7.5000000000000009 15.500000000000002 18.500000000000004 45.500000000000007 9.5000000000000018 8.5000000000000018 5.5000000000000009 40.500000000000007 13.500000000000002 30.500000000000004 20.500000000000004 9.5000000000000018 8.5000000000000018 2.5000000000000004 97.500000000000014 14.500000000000002 12.500000000000002
decision_type=9 9 10 10 10 9 10 10 10 10 10 9 10 10 10 10 9 8 8 10 10 10 8 10 10 10 10 8 10 10 10 10 10 10 8 8 10 10 8 8 8 10 10 10 10 10 10 10 10 10 8 10 10 10 10 8 10 10 8 10 8 10 10 10 10 8 10 10 10 8 10 10 8 8 10 10 8 10 10 10 10 10 10 10 10 10 8 8 10 10 10 10 8 8 10 8 8 10 8 10 10 10 10 10 10 8 10 8 10 10 8 10 10 10 10 8 8 8 8 8 8 8 8 10 10 10 10 10 8 10 10 10 10 10 9 8 10 10 8 8 8 8 10 10 8 10 8 10 10 10 10 10 10 10 8 8 8 10 10 10 10 10 8 10 10 10 8 10 10 8 10 10 10 9 10 8 8 10 10 8 10 10 10 10 10 10 10 10 10 10 10 10 10 10 10 10 8 8 10 10 10 10 10 8 10 10 10 10 10 8 10 8 10 10 10 10 10 10 8 10 8 10 10 10 10 10 10 10 10 10 10 10 10 10 10 10 10 8 10 10 8 10 10 10 10 10 10 10 10 10 10 10 10 10 10 10 10 8 10 8 10 10 10 8 10 10 10 8 10 10 10 8 10 8 10 8 10 10 10 10 10 8 10 8 10 10 8 10 8 10 10 10 10 10 10 10 10 10 10
left_child=4 20 3 5 7 14 9 8 10 13 33 78 58 59 195 -13 -5 80 -10 98 25 -21 134 133 63 66 54 153 29 30 51 -32 62 34 35 45 64 40 39 82 42 71 43 -37 -44 46 47 107 -43 -49 -39 74 72 -54 116 65 222 106 -8 123 -61 193 -33 224 119 -56 207 68 76 70 161 -42 -53 -48 168 114 -68 -75 252 -80 88 159 83 -38 85 -30 156 -59 89 90 92 94 97 -93 -92 96 174 -12 100 101 143 102 103 -100 -105 -104 -41 -1 109 -86 -83 113 -113 279 115 -40 -6 118 144 120 121 -36 158 226 165 -126 127 128 129 131 267 138 -133 155 -18 -35 137 290 -119 140 -129 -130 -24 -20 -118 166 147 -143 215 -141 197 152 -152 236 -124 -9 157 -16 -97 246 187 -70 -120 173 -94 -77 -115 262 -19 -31 172 -172 -121 234 -91 -29 177 178 179 -157 185 183 257 259 196 186 -180 -136 189 -164 -98 -161 -193 254 -84 229 -185 -90 -199 -66 201 202 203 235 205 206 -205 -2 209 260 212 -212 283 -114 -122 -71 217 218 -171 220 -218 -221 240 -219 -25 -207 265 228 233 230 231 243 -150 -168 -11 -177 -28 253 -153 -215 241 -57 -243 295 -245 -213 -22 248 -248 250 -250 -251 -4 -15 -17 -132 -198 -183 -259 -178 261 -209 263 264 -78 -7 -232 268 273 271 272 -269 -271 -128 -275 -273 277 278 -165 281 -281 282 -112 284 -211 -148 -76 -62 -239 -249 291 292 -137 294 -283 -3 -285 -197 -233
right_child=1 2 11 16 26 6 12 23 18 163 17 15 -14 237 86 61 22 28 19 21 81 -23 142 24 -26 -27 27 175 84 169 31 32 -34 135 36 37 38 50 75 57 41 48 44 -45 -46 -47 73 49 -50 -51 -52 52 53 -55 55 56 -58 87 -60 60 287 -63 -64 -65 199 -67 67 -69 69 148 -72 -73 -74 77 286 124 167 -79 79 -81 -82 110 194 -85 108 -87 -88 -89 150 95 91 93 164 -95 -96 122 190 -99 99 -101 -102 -103 105 104 -106 -107 -108 -109 -110 -111 111 112 213 145 -116 -117 117 126 162 170 214 -123 154 -125 125 -127 130 139 141 -131 255 132 -134 -135 160 136 -138 -139 -140 149 -142 146 -144 -145 -146 -147 285 -149 232 -151 151 238 -154 -155 -156 176 -158 -159 -160 191 -162 -163 188 276 -166 -167 227 -169 -170 216 171 -173 -174 -175 -176 200 181 -179 180 -181 -182 182 -184 184 -186 -187 -188 -189 -190 -191 -192 192 -194 -195 -196 297 256 198 -200 -201 -202 -203 -204 204 -206 225 -208 208 -210 210 211 245 -214 239 -216 -217 219 223 -220 221 -222 -223 -224 -225 -226 -227 -228 -229 -230 -231 266 298 -234 -235 -236 -237 -238 288 -240 -241 -242 242 -244 244 -246 -247 247 289 249 251 -252 -253 -254 -255 -256 -257 -258 258 -260 -261 -262 -263 -264 -265 -266 -267 -268 269 -270 270 -272 275 -274 274 -276 -277 -278 -279 -280 280 -282 293 -284 296 -286 -287 -288 -289 -290 -291 -292 -293 -294 -295 -296 -297 -298 -299 -300
leaf_value=13.469617392182322 3.5907350951509116 1.7596242501618904 -0.68214973796874923 -0.20522809629704894 5.3401294890575812 0.069410336911678888 -0.73204622258808261 8.0042533718482431 20.91444183020495 -0.1644129217462291 12.115445592801901 -2.6991611447438233 -1.8883350404118617 -0.35160502321559906 2.9989863006485691 -0.46966080093168333 -0.17931647111180951 18.250807009701131 6.8069706655348625 17.531664257403598 2.1294563960434423 19.953327642543908 -2.0512300488507456 17.220899531757805 10.614832872843873 1.0783695263991928 2.289555045138298 5.9396361553924244 4.6302154171683654 8.9748431725909992 16.866471039265466 15.845821012919941 22.106614953047764 9.3343232594254548 13.004768271463412 13.020227055586236 16.740113796546936 1.1289157477105007 12.844471064240004 16.780425245875005 11.361606380551422 24.3660961862346 11.435428495893714 1.0136279017134602 2.849329473417602 2.6430959122174453 22.765724289962556 6.2261699274070992 13.139019449419113 12.889966140144091 12.728044158438868 13.318919401581036 9.5075433850199218 4.6420435563743139 9.6952666691292464 15.319096635483582 16.357140231261685 1.7136162782182769 -1.214381851996948 0.051577914151896047 -0.65842040523043821 -1.9094825416563321 12.536500533703268 8.9849561811539989 16.00472142018636 10.612024569608039 1.3456493458797576 8.0283716900803181 4.1157798319793573 1.9781349045581156 14.540624363185126 12.138121564575169 12.874880314424452 17.618691632340347 8.6298213725559147 15.523986669801122 4.9822272013516429 12.432091147708721 2.1511216886567452 3.8868902591262948 18.777097847737572 0.25999731298560447 16.588372498874424 8.9144257120289261 8.9503445515986417 8.9756292478756947 -0.38466077804757881 6.4286286559147428 13.568967044819315 14.510599157609295 12.945608806176024 6.6104283873221608 6.2389190420483507 8.1219721289223958 18.239606768347599 9.1222251748178529 7.5164984242431814 8.2369057703896633 20.46752719854501 21.751902238423089 16.166499607925275 25.556532397563139 5.3517448295641694 7.7644891879465536 11.357851079470581 16.174422857593949 10.168733968553568 12.719196778090911 10.779050980843637 9.2731550849285753 0.74367580873265016 8.222078797089571 7.634372143609049 -1.9442524837911188 8.4493048928968175 14.657129710840643 11.747003990114077 3.0126848990821333 8.7282938130351617 12.902573251279092 17.586945613897477 14.628597285690702 6.1333225612637845 -0.5608610168497753 13.417012585975664 32.288730179771505 1.1979994204704347 2.9827797849729092 16.412750696655564 0.39600072708726042 -0.61586029408514298 14.173027916442699 8.1291210105017111 1.844251803586171 -1.5055341196192151 12.776595377172468 2.005489403670468 6.3811384741527482 9.39026281607409 14.027249495977617 5.0219821444593542 17.729220161486726 -2.6503652558662001 14.450274550976594 8.0691220175478175 -1.7207272467115324 8.1410381531172469 8.6118146587976465 19.826678576564369 19.951027262768591 -0.1427104821641518 15.793122557443846 16.122187731451096 8.7044683861439651 10.03554901961229 6.0305781073471323 0.68982510701254496 7.4201273650784074 8.2332043492184663 4.4369254374194425 -2.1524705960827752 7.2289958630640214 15.080474218194025 -0.10004291295398547 7.5278732921443678 9.2252602731847251 7.1847186554488616 5.3003318309098644 21.866577347565649 12.245998457756507 11.809531423065856 12.53935933083439 17.228576285571698 -0.94479708526297712 11.7396229552552 7.6708858903929169 18.864849278980735 1.9873080587996215 4.8570867813221099 11.507935269790549 14.055420493771621 1.3358558323738485 11.023779698829021 9.8694473416998658 3.0607239029708642 4.1496478690493488 5.9116580287844602 -0.81346678112981863 9.3317200886423795 10.222062024681996 7.1908180391334033 7.9080658845946035 5.7754879069248588 3.1278600731278066 20.314584047095234 -0.061935532787480679 11.096543919565889 8.0699445201759268 14.624584371704998 19.714981626082874 9.4398092101670841 10.139967013934211 7.5330070382943592 10.380088074319161 7.1265440147714205 17.300119331294269 16.447664808526351 3.2880866636533805 2.1124163697960721 1.3694531513666193 15.192229615837133 5.3077980765838042 1.5934167395131298 1.0432998579406711 17.728849930351611 4.0085515161639282 8.3724965972903007 14.371656070094071 10.280319297370793 9.8392789087398658 9.5033039948983333 10.764719564164036 9.8569671758906079 8.6514454821572784 4.2180991284154512 19.055450783583456 -1.934920749820596 6.9845217753190285 3.6795087452892066 -0.82164714625994228 1.6425925862084878 0.079665397190416945 1.9804717410444053 3.7639802040162085 1.2608523453932274 10.836743991806813 15.627711265511465 -0.54876114003874121 4.4332181004309144 3.4196261074156862 6.4180044182433313 -0.48548429774206137 6.6758746563634794 3.7601223615055681 1.2096503741882498 -3.2023397379809384 3.1514099638361959 0.81073399916958599 7.603643740170023 6.4835450078219594 3.7653106008027279 9.6843634154960725 3.5546912253147647 6.7685286915403342 -1.9108311342313993 4.0910274903700161 8.6645191595693412 6.9317208606780412 4.5059998658688718 4.2190256052483956 2.4167222143133098 8.5018484616008259 11.041453860029506 3.5534925432730748 22.273937883289967 -0.24388622438816734 2.9604428161474945 10.657732965997942 -1.5073705695389721 13.711082580403513 5.2608460013047269 5.0970395786930647 14.705819742156272 14.779992617069764 8.4271704811169439 8.0976543859521168 -1.2551689679158005 -1.2777154830327275 7.6436147414862354 1.5816462038963159 4.0676643343371435 1.0769991747376317 6.9520754689537689 3.0587525262802342 3.2075273681497842 11.463611998092023 6.4619342215707212 -1.3876385709902292 -0.96684591262808284 2.733139905417064 12.122048119060663 14.311790970212909 5.738505729176925 -0.60228133460483191 4.2785045943207178 1.0220338838346543 3.5001949424392826 2.6152993279317451 1.2546246190967616
leaf_weight=151 10332 5940 4420 3727 223 50421 20903 27 57 2345 127 74600 20158 6230 73 3149 1651 41 45 55 899 21 39085 23 30 471 37 30 78 25 39 28 23 22 42 946 154 34 514 160 3689 28 454 27 27 41 34 150 20 312 69 177 1155 25 22 25 39 45 44505 8088 14980 23772 20 22 34 24 196 23 40 66 20 1096 123 21 22 62 376 21 112 22 20 944 55 48 28 52 2390 24 31 33 29 66 119 64 27 93 110 36 67 45 20 28 27 24 23 46 210 602 28 21 65 28 39 25 37 1060 30 64 37 4313 169 64 35 12085 27 22 21 20 29 41 20 31 21 43 22059 116 20 54 270 24 26 27 17155 20 48 35 28 69 28 20 65 30 25 26 329 24 440 33 28 54 3505 24 21 6136 82 89 78 52 20 70 556 260 140 46092 70 22 20 64 109 33 20 27 24 23 36 24 56 4193 28 29 29 26 21 40 84 760 178 135 32 20 50 38 48 23 22 25 22 151 1687 111 21 106 819 70 20 44 81 46 132 36 157 20 21 20 20 21 397 24 75 73 177 823 23 54 231 21 21 3707 26 23 245 23 22 50 53 20 523 158 23 28 86 24 23 22 1016 67 24 55 60 72 34 29 35 646 26 24134 74 61 22 28 22 127 33 28 235 807 1339 664 21 125 39 500 30 1003 469 404 67 2837 17523 2460 42 27 21 277 50 2036 165 22 60
leaf_count=151 10332 5940 4420 3727 223 50421 20903 27 57 2345 127 74600 20158 6230 73 3149 1651 41 45 55 899 21 39085 23 30 471 37 30 78 25 39 28 23 22 42 946 154 34 514 160 3689 28 454 27 27 41 34 150 20 312 69 177 1155 25 22 25 39 45 44505 8088 14980 23772 20 22 34 24 196 23 40 66 20 1096 123 21 22 62 376 21 112 22 20 944 55 48 28 52 2390 24 31 33 29 66 119 64 27 93 110 36 67 45 20 28 27 24 23 46 210 602 28 21 65 28 39 25 37 1060 30 64 37 4313 169 64 35 12085 27 22 21 20 29 41 20 31 21 43 22059 116 20 54 270 24 26 27 17155 20 48 35 28 69 28 20 65 30 25 26 329 24 440 33 28 54 3505 24 21 6136 82 89 78 52 20 70 556 260 140 46092 70 22 20 64 109 33 20 27 24 23 36 24 56 4193 28 29 29 26 21 40 84 760 178 135 32 20 50 38 48 23 22 25 22 151 1687 111 21 106 819 70 20 44 81 46 132 36 157 20 21 20 20 21 397 24 75 73 177 823 23 54 231 21 21 3707 26 23 245 23 22 50 53 20 523 158 23 28 86 24 23 22 1016 67 24 55 60 72 34 29 35 646 26 24134 74 61 22 28 22 127 33 28 235 807 1339 664 21 125 39 500 30 1003 469 404 67 2837 17523 2460 42 27 21 277 50 2036 165 22 60
internal_value=0 -0.0148536 -0.0182267 -0.0141423 0.233232 -0.0100638 -0.0114695 0.242694 0.245892 -0.00793707 0.243659 -0.0329871 -0.0196141 -0.00523558 0.020501 -0.034038 -0.0273461 0.21994 0.341213 0.320546 0.0551869 0.45 -0.0282621 0.176824 0.286842 0.0601252 0.179145 0.228325 0.235714 0.241792 0.255172 0.368182 0.288028 0.24976 0.25086 0.242282 0.258929 0.249218 0.280374 0.242308 0.251257 0.242779 0.279436 0.30149 0.234823 0.209009 0.214136 0.20679 0.429167 0.16645 0.124757 0.247546 0.255405 0.238136 0.173241 0.128147 0.11 0.202847 -0.0167013 -0.00338316 -0.00865664 -0.0271598 0.3875 0.196154 0.249039 0.276087 0.0615677 0.0838336 0.0800761 0.15 0.259524 0.240909 0.323333 0.331579 0.17 0.29677 0.0672051 0.235714 -0.00934163 0.069403 0.195582 0.0428792 0.293108 0.25198 0.167391 0.119231 -0.00231609 0.0949275 0.19306 0.204503 0.237273 0.299462 0.205494 0.226923 0.467857 0.179711 0.226859 0.275153 0.292029 0.319231 0.208824 0.35 0.324332 0.388596 0.269149 0.223973 0.222973 0.23154 0.248701 0.17449 0.0281943 0.0417371 0.11875 0.0327887 0.304438 0.307687 0.179652 0.184112 0.245337 0.247807 0.295763 0.374528 0.156186 -0.00181361 0.235 0.337755 0.17947 0.198603 0.189837 0.153747 0.1655 0.167617 0.276923 0.165452 -0.023096 0.191722 0.178571 0.192308 0.150599 0.294444 0.21087 0.217504 -0.0311522 0.15 0.167949 0.0771478 0.20947 0.283333 0.0928571 0.381818 0.150581 0.100685 0.0388889 0.128571 0.134066 0.171461 0.0324176 0.100943 0.222727 0.0513482 -0.0241828 0.2 0.297826 -0.0146125 0.149005 0.201656 0.0945312 0.0777533 0.261475 0.202129 0.245122 0.220833 0.249573 -0.0159325 0.299515 0.254348 0.166726 0.134848 0.160526 0.300877 0.122249 0.186994 0.136747 0.210623 0.241188 0.0981481 0.0772727 -0.0225354 0.347436 0.41 0.173022 0.128218 0.205319 -0.0136148 0.352878 0.0271752 0.265556 0.187374 0.165569 0.375926 0.241096 0.259917 0.234314 0.264103 0.224336 0.268681 0.172222 0.0591858 0.0505417 0.0589481 0.055011 0.113265 0.0516751 0.0863636 0.251587 0.05 0.195552 0.226119 0.192574 0.167687 0.143277 0.271429 0.0898809 0.328788 0.112791 0.363043 -0.000675111 0.110173 0.0949275 0.0292591 0.0298871 0.0285539 0.185294 0.131818 -0.00146946 0.368605 0.0706896 -0.0128484 0.2 0.0467742 0.0801587 0.15 0.0611111 0.0309506 0.0956311 0.0849206 0.0495001 0.054785 0.078655 0.123913 0.0784404 0.219231 -0.0117376 -0.00537429 -0.0147059 0.0764368 0.281683 0.0978873 0.123913 0.123913 0.108878 0.127778 0.072807 0.0692748 0.0942786 -0.000492937 0.07749 0.171098 0.139542 0.180056 0.275301 0.172111 0.343443 0.154225 0.16673 0.165203 -0.00674021 -0.00367249 -0.00111257 0.0209024 0.0658536 0.0129067 0.0763158 0.0615561 0.0827586 0.193056 0.107303 -0.0128445 -0.0150495 0.0485485 0.221845 0.2 0.176277 0.00562272 0.0209091 0.0301153 0.0510274 0.00242966 0.00662513
internal_weight=0 518151 494351 387197 25688 295822 282818 21900 20886 197252 20408 107154 85566 140424 13004 102577 91375 4175 478 421 23800 76 87648 1014 95 17017 3788 406 2534 2327 1740 110 71 16233 15931 7722 8209 6390 2591 780 6287 4833 1454 973 481 1332 1291 1215 48 462 103 1630 1480 1180 3382 421 375 439 65408 112942 25905 27977 48 65 5618 46 16546 1599 1576 245 84 4785 300 76 150 1811 1331 42 4577 134 1641 6783 341 202 207 130 2936 69 1621 1277 550 186 364 130 56 727 242 163 345 260 85 215 187 114 47 73 370 753 77 49 2481 1537 160 1377 1611 1574 2961 2738 193 5564 295 106 485 87037 200 49 2545 1074 984 427 1471 386 52 919 31408 302 280 260 334 90 46 557 56240 65 78 291 528 96 161 44 344 146 90 84 364 876 546 106 121 4302 29757 64 115 56828 201 151 256 1135 61 587 5269 816 4453 48668 103 322 849 330 266 57 209 519 166 353 261 189 165 26252 78 50 139 101 47 4205 139 10068 225 198 167 54 292 242 204 156 113 91 45 14947 4615 2928 2714 147 2567 132 189 110 562 268 202 294 238 56 336 66 43 46 74952 231 207 9286 9213 8962 51 132 2576 43 58 27482 56 93 315 70 45 8079 103 126 4201 3302 684 161 109 52 4443 6252 4165 87 202 142 115 92 214 180 1083 1048 402 74555 251 1384 306 1078 83 995 61 284 263 934 8160 6821 6157 1086 164 922 95 1748 580 432 89 17817 21230 2618 206 164 137 827 550 7976 1168 782 883
internal_count=543839 518151 494351 387197 25688 295822 282818 21900 20886 197252 20408 107154 85566 140424 13004 102577 91375 4175 478 421 23800 76 87648 1014 95 17017 3788 406 2534 2327 1740 110 71 16233 15931 7722 8209 6390 2591 780 6287 4833 1454 973 481 1332 1291 1215 48 462 103 1630 1480 1180 3382 421 375 439 65408 112942 25905 27977 48 65 5618 46 16546 1599 1576 245 84 4785 300 76 150 1811 1331 42 4577 134 1641 6783 341 202 207 130 2936 69 1621 1277 550 186 364 130 56 727 242 163 345 260 85 215 187 114 47 73 370 753 77 49 2481 1537 160 1377 1611 1574 2961 2738 193 5564 295 106 485 87037 200 49 2545 1074 984 427 1471 386 52 919 31408 302 280 260 334 90 46 557 56240 65 78 291 528 96 161 44 344 146 90 84 364 876 546 106 121 4302 29757 64 115 56828 201 151 256 1135 61 587 5269 816 4453 48668 103 322 849 330 266 57 209 519 166 353 261 189 165 26252 78 50 139 101 47 4205 139 10068 225 198 167 54 292 242 204 156 113 91 45 14947 4615 2928 2714 147 2567 132 189 110 562 268 202 294 238 56 336 66 43 46 74952 231 207 9286 9213 8962 51 132 2576 43 58 27482 56 93 315 70 45 8079 103 126 4201 3302 684 161 109 52 4443 6252 4165 87 202 142 115 92 214 180 1083 1048 402 74555 251 1384 306 1078 83 995 61 284 263 934 8160 6821 6157 1086 164 922 95 1748 580 432 89 17817 21230 2618 206 164 137 827 550 7976 1168 782 883
cat_boundaries=0 1 2 3 4 5 6 7
cat_threshold=8 2 1 1 1 4 4
shrinkage=0.1


Tree=2
num_leaves=300
num_cat=84
split_feature=3 16 16 3 21 3 3 3 3 17 16 14 3 16 21 3 17 21 16 21 21 3 17 16 17 17 14 16 16 21 16 16 17 21 16 16 1 21 16 17 17 17 13 17 16 16 16 14 21 16 3 16 17 17 17 16 17 21 0 21 14 14 0 0 17 17 13 17 21 16 14 16 14 13 0 14 0 14 21 0 13 16 13 0 13 14 13 17 0 14 13 16 17 13 14 14 16 17 13 14 16 14 14 16 16 14 13 16 16 16 16 16 16 16 21 14 14 1 0 13 16 13 16 13 0 16 16 14 13 13 0 0 0 21 13 13 16 0 13 14 13 16 16 0 14 13 13 0 16 16 16 17 14 13 14 14 14 13 14 14 1 14 13 16 14 16 16 16 13 16 0 17 21 13 14 14 17 14 13 21 16 14 17 16 0 14 16 13 13 16 14 14 16 16 13 13 14 14 14 14 0 16 16 21 13 16 13 14 13 13 14 14 14 13 13 14 0 13 13 16 16 16 13 16 13 14 16 16 3 13 14 14 13 16 14 16 16 14 16 13 13 14 3 16 16 16 13 13 14 16 16 13 14 13 16 14 13 1 16 14 16 16 16 14 3 13 21 0 0 14 16 16 14 13 14 13 13 13 14 14 16 16 3 14 16 13 13 16 14 16 13 16 14 21 16 16 16 13 13
split_gain=6298.22 814.86 177.635 440.603 107.51 61.9599 52.0013 42.0127 41.1967 34.3589 32.8754 24.6964 23.8251 20.5287 16.5272 14.0364 13.7346 13.583 13.0208 11.4008 11.2915 11.0949 10.7775 10.3582 8.90783 8.85245 8.45679 7.53327 7.47127 7.02384 6.95075 6.77977 5.91056 5.52644 5.27436 5.26979 5.19564 4.57722 4.52796 4.51562 4.46257 4.1244 3.76129 3.70094 3.6 3.43327 3.31993 3.08964 3.0352 2.87888 2.87002 9.49573 2.85858 2.84162 2.81121 2.70875 2.69719 2.41244 2.37086 2.28688 2.19679 2.16628 2.03811 1.98504 1.93738 1.93718 1.82719 1.81601 1.79984 1.76506 1.75113 1.75081 1.74006 1.70753 1.68226 1.8373 1.63158 1.58633 1.54035 2.20476 1.52592 2.13919 1.52161 1.50611 1.46176 1.44699 1.44431 1.4336 1.96906 1.42629 1.41326 1.40446 1.3893 1.37131 1.37066 1.36934 1.97023 1.3691 1.36172 1.81555 1.4844 1.3408 1.33696 1.30282 1.29297 1.28522 2.38421 1.25735 1.2491 1.24219 1.2214 1.20243 1.18848 1.16404 1.16059 1.15618 1.14103 1.1377 2.47929 1.47465 1.5195 1.28731 1.1701 1.10841 1.40187 1.10221 1.09406 1.08524 1.28753 1.07824 1.07813 1.06379 1.06295 1.0636 1.06132 1.05995 1.05596 1.05076 1.04978 1.04956 1.04687 1.04311 1.05572 1.04272 1.03754 1.3112 1.02915 1.02845 1.01534 1.01166 1.00903 0.990514 1.69636 0.988891 0.971809 0.96203 0.954848 0.950672 0.923822 0.92042 0.915339 1.05672 0.944332 0.928515 0.94554 0.906137 0.890529 0.89418 0.882316 1.55172 0.875845 0.875102 0.873704 0.869391 1.09504 0.928573 0.868935 0.867154 0.850478 1.17968 0.849703 0.864105 0.846014 2.10426 0.892503 1.38104 0.953634 1.54353 0.932536 0.882398 1.14295 1.02625 0.844709 0.837292 1.11321 0.980073 0.885817 0.832111 0.83125 0.818865 0.818224 0.817666 0.815848 0.80086 0.799557 0.796928 0.793262 0.788508 1.24446 1.12191 0.780797 0.771604 0.770345 0.769986 0.76201 0.761702 0.752837 0.730014 0.728433 1.46366 1.15671 0.946124 0.894089 0.886422 0.727519 0.72599 0.76762 0.725774 4.50268 0.7181 0.712518 0.708882 0.704328 0.73358 0.703612 0.770686 0.703302 0.702212 0.696448 0.694231 0.693202 0.688198 0.684868 0.684505 0.682598 0.674424 0.672095 0.662795 0.661667 0.904512 0.647085 1.43139 1.20143 1.58344 1.1477 0.912565 0.641797 0.627249 1.03588 0.625 0.624517 0.617143 0.617079 0.680591 0.613936 0.763379 0.86754 0.943081 0.838865 1.97001 0.613686 1.21135 1.08473 1.68695 0.768312 0.86418 0.682331 0.614577 0.610386 1.26875 0.608569 0.608431 0.607828 0.603296 0.893199 0.998562 1.37942 0.850712 1.27074 1.24444 0.606134 0.600873 0.595651 0.587133 0.586957 0.580445 0.727691 0.579084 0.576688
threshold=0 27.500000000000004 48.500000000000007 1 2 3 4 5 6 7 58.500000000000007 13.500000000000002 8 70.500000000000014 9 10 11 12 9.5000000000000018 13 14 15 16 21.500000000000004 17 18 11.500000000000002 80.500000000000014 8.5000000000000018 19 6.5000000000000009 74.500000000000014 20 21 2.5000000000000004 91.500000000000014 22 23 79.500000000000014 24 25 26 8.5000000000000018 27 45.500000000000007 41.500000000000007 82.500000000000014 16.500000000000004 28 12.500000000000002 29 17.500000000000004 30 31 32 5.5000000000000009 33 34 35 36 87.500000000000014 60.500000000000007 37 38 39 40 6.5000000000000009 41 42 22.500000000000004 17.500000000000004 16.500000000000004 2.5000000000000004 3.5000000000000004 43 8.5000000000000018 44 86.500000000000014 45 46 4.5000000000000009 4.5000000000000009 9.5000000000000018 47 3.5000000000000004 10.500000000000002 4.5000000000000009 48 49 13.500000000000002 6.5000000000000009 3.5000000000000004 50 2.5000000000000004 27.500000000000004 5.5000000000000009 8.5000000000000018 51 2.5000000000000004 70.500000000000014 12.500000000000002 5.5000000000000009 1.5000000000000002 4.5000000000000009 1.5000000000000002 5.5000000000000009 20.500000000000004 5.5000000000000009 9.5000000000000018 55.500000000000007 52.500000000000007 94.500000000000014 47.500000000000007 78.500000000000014 52 6.5000000000000009 94.500000000000014 53 54 7.5000000000000009 59.500000000000007 3.5000000000000004 52.500000000000007 2.5000000000000004 55 34.500000000000007 1.5000000000000002 5.5000000000000009 4.5000000000000009 6.5000000000000009 56 57 58 59 14.500000000000002 3.5000000000000004 3.5000000000000004 60 9.5000000000000018 11.500000000000002 22.500000000000004 62.500000000000007 76.500000000000014 61 3.5000000000000004 15.500000000000002 27.500000000000004 62 14.500000000000002 1.5000000000000002 65.500000000000014 63 7.5000000000000009 21.500000000000004 3.5000000000000004 25.500000000000004 15.500000000000002 9.5000000000000018 2.5000000000000004 11.500000000000002 64 4.5000000000000009 1.5000000000000002 64.500000000000014 9.5000000000000018 63.500000000000007 14.500000000000002 18.500000000000004 3.5000000000000004 9.5000000000000018 65 66 67 1.5000000000000002 90.500000000000014 90.500000000000014 68 14.500000000000002 12.500000000000002 69 1.0000000180025095e-35 92.500000000000014 70 3.5000000000000004 71 37.500000000000007 9.5000000000000018 10.500000000000002 13.500000000000002 18.500000000000004 21.500000000000004 89.500000000000014 62.500000000000007 54.500000000000007 11.500000000000002 2.5000000000000004 4.5000000000000009 58.500000000000007 1.5000000000000002 8.5000000000000018 72 2.5000000000000004 89.500000000000014 73 8.5000000000000018 89.500000000000014 1.5000000000000002 8.5000000000000018 8.5000000000000018 9.5000000000000018 31.500000000000004 7.5000000000000009 4.5000000000000009 17.500000000000004 11.500000000000002 8.5000000000000018 74 8.5000000000000018 1.5000000000000002 12.500000000000002 2.5000000000000004 13.500000000000002 6.5000000000000009 5.5000000000000009 2.5000000000000004 97.500000000000014 12.500000000000002 23.500000000000004 75 15.500000000000002 1.5000000000000002 13.500000000000002 5.5000000000000009 1.5000000000000002 1.5000000000000002 87.500000000000014 7.5000000000000009 8.5000000000000018 64.500000000000014 6.5000000000000009 12.500000000000002 1.5000000000000002 76 68.500000000000014 65.500000000000014 15.500000000000002 7.5000000000000009 8.5000000000000018 2.5000000000000004 11.500000000000002 38.500000000000007 5.5000000000000009 3.5000000000000004 5.5000000000000009 39.500000000000007 17.500000000000004 15.500000000000002 77 69.500000000000014 31.500000000000004 38.500000000000007 18.500000000000004 7.5000000000000009 30.500000000000004 78 4.5000000000000009 79 80 81 40.500000000000007 45.500000000000007 46.500000000000007 11.500000000000002 8.5000000000000018 12.500000000000002 14.500000000000002 12.500000000000002 5.5000000000000009 9.5000000000000018 8.5000000000000018 10.500000000000002 2.5000000000000004 82 3.5000000000000004 85.500000000000014 2.5000000000000004 1.5000000000000002 82.500000000000014 1.5000000000000002 87.500000000000014 1.5000000000000002 84.500000000000014 39.500000000000007 83 94.500000000000014 59.500000000000007 58.500000000000007 2.5000000000000004 7.5000000000000009
decision_type=1 10 10 1 1 1 1 1 1 9 10 10 1 10 1 1 9 1 10 1 1 1 9 10 9 9 10 10 10 1 10 10 9 1 10 10 1 1 10 9 9 9 10 9 10 10 10 10 1 10 1 10 9 9 9 10 9 1 1 1 10 8 1 1 9 9 10 9 1 10 10 10 10 10 1 8 1 10 1 1 8 10 8 1 8 8 8 9 1 8 10 8 9 10 10 8 10 9 10 10 10 8 8 8 8 10 8 10 10 10 10 10 10 10 1 10 8 1 1 10 10 8 10 8 1 10 10 10 10 8 1 1 1 1 10 8 10 1 10 8 10 10 10 1 8 10 10 1 10 8 10 9 8 8 8 10 10 10 10 8 1 10 10 10 10 10 10 10 10 10 1 9 1 8 10 10 9 8 10 1 10 10 9 10 1 10 10 8 8 8 10 10 10 10 10 10 8 10 10 10 1 8 10 1 8 10 8 10 10 10 10 10 10 8 8 10 1 8 10 10 8 8 10 8 8 10 8 10 1 8 8 8 8 10 10 10 10 8 10 8 10 10 1 10 10 10 10 10 8 10 10 8 8 8 10 8 10 1 10 10 10 10 10 10 1 10 1 1 1 10 10 10 8 8 8 8 10 10 10 10 10 10 1 8 10 10 10 10 10 10 10 10 8 1 10 10 10 8 8
left_child=1 4 8 7 12 22 43 13 23 77 25 18 54 32 21 38 -15 24 20 85 52 61 -6 33 87 89 30 68 40 44 41 74 -4 -2 56 283 146 151 114 107 147 66 49 126 155 105 -12 53 242 -20 51 172 207 83 -1 139 157 156 205 -53 210 90 138 134 112 -29 101 -41 97 248 -30 94 218 -51 160 150 -50 230 79 202 81 -38 262 93 159 171 158 -9 141 -3 232 198 -61 206 131 236 214 -19 100 136 -36 104 -82 -84 -23 125 -107 264 229 217 -91 -80 132 -87 257 -93 -63 199 -119 120 121 -120 -121 124 -55 204 292 -85 -129 -57 154 178 133 -25 -43 -127 246 -103 -49 -54 241 -89 -143 238 -137 247 -22 177 -138 -126 -76 152 -34 -132 -125 250 170 180 -48 -47 231 162 243 164 -163 -70 -72 -168 237 -170 -56 234 176 174 -62 -175 -10 -16 179 201 181 -13 183 -28 188 186 187 -186 -184 190 -190 -191 -124 194 -145 196 -195 245 -65 200 -39 -24 224 -69 -31 212 -42 209 -209 -11 -58 -94 -33 -206 -97 -203 -109 -77 219 223 -220 222 -222 -45 -67 226 -96 -52 260 -105 -8 -26 -14 -234 -18 -236 -32 -98 -99 -185 -187 -68 -40 -162 -122 -102 -100 -146 -44 -250 251 -27 -252 -254 -255 -253 -133 258 -5 -110 -229 -73 263 -74 265 266 267 -35 269 -268 274 -272 278 277 275 -86 -275 -274 279 -273 -172 -118 -17 287 -285 286 -286 290 -289 -290 -21 -226 -7 -212 -37 296 -111 -182 -240
right_child=2 10 3 15 5 6 9 17 50 11 46 34 14 16 28 282 19 27 42 35 36 26 71 64 31 29 182 65 70 45 95 58 37 39 98 294 80 117 48 67 47 63 69 72 -46 84 86 62 76 73 227 59 55 123 57 129 60 -59 -60 92 173 116 -64 91 -66 78 140 203 165 -71 166 261 82 -75 75 109 -78 -79 111 -81 102 -83 103 127 270 113 -88 88 -90 110 -92 115 211 -95 225 96 168 143 99 -101 197 137 -104 108 -106 106 -108 216 259 295 -112 -113 -114 -115 -116 -117 281 118 119 122 244 -123 192 130 149 135 -128 128 -130 -131 153 256 -134 -135 -136 144 148 -139 -140 -141 -142 142 -144 193 145 -147 -148 -149 -150 -151 -152 -153 -154 -155 -156 -157 -158 -159 -160 -161 161 163 -164 -165 -166 -167 167 -169 169 -171 280 -173 -174 175 -176 -177 -178 -179 -180 -181 297 -183 184 239 185 240 -188 -189 189 191 -192 -193 -194 195 -196 -197 -198 -199 -200 -201 -202 215 -204 -205 213 -207 -208 208 -210 -211 293 -213 -214 -215 -216 -217 -218 -219 220 -221 221 -223 -224 -225 291 -227 -228 228 -230 -231 -232 -233 233 -235 235 -237 -238 -239 298 -241 -242 -243 -244 -245 -246 -247 -248 -249 249 -251 252 255 253 254 -256 -257 -258 -259 -260 -261 -262 -263 -264 -265 -266 -267 268 -269 -270 -271 271 272 273 276 -276 -277 -278 -279 -280 -281 -282 -283 -284 284 285 -287 -288 288 289 -291 -292 -293 -294 -295 -296 -297 -298 -299 -300
leaf_value=-1.3225153350956791 -1.5520202930591696 12.190363537973184 0.0050635379681643446 0.31634933902634976 -0.24350743244666118 3.8200549525470104 1.0747499480385714 -0.10499496814697062 0.0038035292730708779 9.3214245335148131 16.856495366740834 11.085715973095503 7.1529755778740451 1.1395674155668527 3.7154890412785768 -0.9085752472036529 4.7279745285646815 -1.1739133753860551 9.0635541807303195 3.4936201304498233 8.6797425025478692 8.5676263023307282 2.9696964740745679 0.87947677849037087 2.023719235898267 10.602605407348811 4.3495793734056178 0.14039514448570253 6.0307255352580702 16.616446723629405 7.5366707319416584 3.8088045223387881 2.0415231739733684 0.099601749304547682 7.1968738615888626 5.8416578822831333 5.2747445875350527 1.4070648439331297 0.43085984886525497 -2.3900181760257935 7.6521978719891344 3.2559515007532518 13.550303427365259 13.05215127315955 15.56109243566592 9.5716354148657583 20.157260389532723 5.3393402974539557 1.281138747963938 9.5361125658151398 -3.6858555520987455 -0.2330140931086091 6.8949399861269995 -0.17109035983503995 1.4182411705437064 7.0139550024981396 6.0844343882942935 0.63628332010379796 3.5845890206839126 -0.23396729170796432 7.3549894075114537 10.619533028547464 4.1042730997130263 5.1531806866301322 0.39971062122522738 3.7324737396975785 6.2568859635620164 -0.28185714691879221 -0.33580146008053574 19.0840664724861 5.6437194374948341 3.9052564519498043 10.49546726569656 9.2902928052351896 0.71669820907513793 -0.37809507811116416 0.78352418253337963 10.455293359089119 1.4996158081020035 2.9036504027883119 5.5605760716119725 4.7512685655300002 10.834497675028002 5.7608656568668444 23.398282068812769 3.0172772846381917 21.152119866261099 0.73521786699609637 2.0377547488075463 6.5004098008681259 10.988921970102192 4.261482243319624 0.81168024995103905 5.2615986335353249 3.2528362402429374 7.90754742426234 8.2114562150240324 2.1023374527414314 9.0917765058968563 8.6800935736249425 9.7629011662481489 6.8622692263324794 5.7053689603948046 10.854976187921693 6.7644527133063619 11.072354708722216 9.8240880548314493 -0.084818713621467548 22.802670372479216 2.5639286435812214 12.517395211228759 1.8152814327773727 5.0402366950955226 3.7023709413719388 -0.69753536579352449 4.6799263015668098 11.954561378453535 3.0565467248018168 1.0030934703173102 4.2873986215558464 3.3095835151037374 3.6367985702656487 4.116586443474441 3.8071466766225708 -0.31605371706094876 8.0182885585744454 4.2283981931886157 12.983094929374104 10.034603922730483 7.81172950093646 4.3029674049067195 2.2472530228662464 0.77609392193616022 2.4108369142700203 7.5067150018789661 13.484711606909819 8.1901022815210354 5.5736344320248357 7.2897231453386979 6.4081770465513346 11.852765260681108 10.879203713642829 10.149341199915046 -0.18799486574077973 11.377655885039067 8.5458196651916154 1.26321271135083 0.047427876888960441 11.69933592090886 4.4151036654540006 2.420671073405027 0.89901010886195865 2.9128108087255593 3.7486672911920516 2.8576442513472022 14.105716038350232 1.8834639108040052 8.325613051924007 20.514600738192193 15.390661632090792 4.6012509476404029 1.2434920733753072 2.4114075106749673 2.7887230891799017 1.7314124210724988 0.90841674250555204 6.4509857932518102 7.2834247592624308 13.967600393918232 7.7670214888519329 1.1584699431237253 2.6149777356489685 -1.3277482678221886 7.2430639044736713 6.8958831478182425 7.9379660001669681 -0.80409368097575384 4.6695129363674912 4.6802397740812545 2.8217329467753252 11.268917444361117 11.174577409368053 5.9396912243017006 14.202627238828899 5.3673113254151072 6.0079225838905117 8.0623556484465873 4.8097003316008564 8.4844254538357191 7.5792162891758981 5.8459770811625127 10.319041791102016 2.8558250334802078 1.2003955993910997 4.2179313134705119 1.489292427694267 1.8038136324073051 12.835486229881804 4.8194375030185022 1.8975319153771677 2.3102069940386412 2.8547726644415246 3.777013159930406 -0.87196702939477877 7.9502277207301661 4.5337710495961598 5.6589532208720161 10.081699278217945 8.6204218017954108 9.2497495627086046 4.8237906136179305 1.0408124598080581 7.9799472526260464 8.8564069631463909 2.5201984835410829 2.9610775771937319 0.8358232827135158 2.0719440895614967 10.651788509810078 21.59861849678164 11.259344834548386 8.925299688036004 15.958603741587305 10.760020159794109 5.8187694013666196 3.1501290038962071 2.3313937065161814 -0.20942076491342104 -2.8034220312553231 12.89814495611899 3.9302124038783681 1.1447794005557757 8.9652678651231525 9.5223094140631908 3.4290406275409526 4.8933690546714592 5.9462271574672938 7.6554368814330491 1.9195931821519077 8.786423380711053 11.324980975952874 13.484158792648598 -0.55549315306076463 3.3291163805845225 3.3511431726614718 9.7161612066016279 16.520618563423376 17.691415514026822 6.9287686545932052 6.3240513757312602 15.416863359556212 12.4547243611225 15.045093728395173 25.038846895048842 12.986079453951398 12.925763606932941 3.6088227693865456 0.039612632229566999 1.5005298848557427 17.241224100822986 0.45724756392904875 4.546057307633288 16.188665688380301 13.156740684289709 -0.6416118883794546 -0.33792328142508921 0.33219425246030704 0.96564380947188866 -0.080446769995280193 1.2786446176510045 7.4713825571197461 12.550561711313414 11.711525151280963 12.79176080562253 10.147328968224242 14.543236049210893 12.032913745990825 15.149952846138977 18.008975058037922 24.09755829839219 2.8720555316256071 5.5568050896753096 -4.7536171166564065 4.7925249094250537 5.3268852182772379 5.0048733669943912 7.6327817372669289 5.4018901071940171 5.2247223039634383 3.9066406661682018 4.2062495841218235 3.6109763299818733 5.5334704654001614 7.0079457711444055 5.5264151926891163 2.9681226464488644 5.70670909752792 12.14394993154648 3.5181992556172581
leaf_weight=176 16018 69 212 80 305 26 45 276 867 2062 2614 575 21 296 27 5036 64 126 584 106 2816 29 24 275 79 60 92 107 636 21 39 539 29 399 891 207 996 114 396 2780 37 412 26 85 674 37 503 355 581 651 353626 460 1800 104 110 192 487 490 957 205 27 26 657 252 1156 53 165 3724 473 20 101 25 59 140 237 39 863 41 380 698 224 168 46 578 29 146 1499 28 256 95 27 1414 507 227 159 72 30 121 34 79 115 481 3828 20 226 131 141 911 20 87 25 162 72 454 2109 145 91 695 35 27 170 212 76 207 27 26 37 65 37 422 397 939 828 584 21 21 497 395 45 3151 22 29 46 242 141 29 21 188 93 240 178 243 71 682 1120 32 119 121 43 52 143 99 207 69 60 482 36 27 20 125 243 126 14921 113 66 378 2073 86 22 225 24 138 181 20 64 566 43 181 27 142 105 40 34 156 41 495 589 21 128 62 179 152 238 11283 28 419 355 130 28 279 313 262 64 101 79 26 1883 157 23 20 21 89 29 202 61 22 222 833 16126 136 1040 65 30 31 149 23 122 226 43 32 36 72 338 45 123 151 27 28 129 250 33 175 49 44 269 238 42 932 31 20 770 35 26 54 6937 1055 144 496 2460 32 42 183 23 228 99 40 38 29 39 24 26 27 28014 715 183 31 38 77 56 70 86 80 37 1078 414 385 32 128 52
leaf_count=176 16018 69 212 80 305 26 45 276 867 2062 2614 575 21 296 27 5036 64 126 584 106 2816 29 24 275 79 60 92 107 636 21 39 539 29 399 891 207 996 114 396 2780 37 412 26 85 674 37 503 355 581 651 353626 460 1800 104 110 192 487 490 957 205 27 26 657 252 1156 53 165 3724 473 20 101 25 59 140 237 39 863 41 380 698 224 168 46 578 29 146 1499 28 256 95 27 1414 507 227 159 72 30 121 34 79 115 481 3828 20 226 131 141 911 20 87 25 162 72 454 2109 145 91 695 35 27 170 212 76 207 27 26 37 65 37 422 397 939 828 584 21 21 497 395 45 3151 22 29 46 242 141 29 21 188 93 240 178 243 71 682 1120 32 119 121 43 52 143 99 207 69 60 482 36 27 20 125 243 126 14921 113 66 378 2073 86 22 225 24 138 181 20 64 566 43 181 27 142 105 40 34 156 41 495 589 21 128 62 179 152 238 11283 28 419 355 130 28 279 313 262 64 101 79 26 1883 157 23 20 21 89 29 202 61 22 222 833 16126 136 1040 65 30 31 149 23 122 226 43 32 36 72 338 45 123 151 27 28 129 250 33 175 49 44 269 238 42 932 31 20 770 35 26 54 6937 1055 144 496 2460 32 42 183 23 228 99 40 38 29 39 24 26 27 28014 715 183 31 38 77 56 70 86 80 37 1078 414 385 32 128 52
internal_value=0 0.336431 -0.0388527 0.0158515 0.279935 0.316023 0.330121 0.163529 -0.0454176 0.320826 0.629577 0.329225 0.206751 0.232577 0.219618 -0.0404272 0.284156 0.121389 0.311556 0.304484 0.302547 0.256766 0.152672 -0.0186857 0.160719 0.553097 0.247057 0.0826752 0.181983 0.566731 0.225531 0.179011 0.160342 -0.0221957 0.388947 0.350151 0.273639 0.176202 0.00720973 -0.0146105 0.168992 0.208373 0.392222 0.563021 0.629609 0.498377 0.683634 0.175841 0.0422865 0.417636 -0.0489083 -0.0369205 0.330666 0.16369 0.0679727 0.313498 0.365603 0.0887775 0.220339 0.0413528 0.338552 0.469011 0.224361 0.179429 0.0391938 0.133811 0.254643 -0.0252486 0.0507092 0.31 0.2725 0.180951 0.593605 0.456953 0.136504 0.107778 0.0686382 0.145863 0.141736 0.164474 0.252047 0.220619 0.650787 0.204775 0.543279 0.207716 0.713814 0.0484496 0.0895664 0.284171 0.381193 0.194484 0.0683943 0.159062 0.176405 0.316059 0.292391 0.0686667 0.431132 0.465068 0.410102 0.239125 0.261698 0.602893 0.302941 0.447751 0.394853 -0.00138551 0.567347 0.14 0.233333 0.0922101 0.0599491 0.24 -0.0170051 0.1822 0.568056 0.197841 0.213748 0.262227 0.242593 0.184818 0.358759 0.143219 0.0928571 0.484177 0.272727 0.243478 0.342157 0.37671 0.151579 0.161888 0.05492 0.0794591 0.109142 0.52551 0.447696 0.220548 0.287805 0.306292 0.332239 0.202212 0.283333 0.076072 0.548174 0.525758 0.312311 0.0448553 0.434746 0.1287 0.0560241 0.0647309 0.145455 0.178191 0.127636 0.592222 0.137992 0.425402 0.66978 0.42191 0.174582 0.194076 0.228481 0.142982 0.100943 0.0147668 0.364634 0.457936 0.329052 0.391379 0.116227 0.159945 -0.0432255 0.393493 0.304839 0.410285 -0.0271187 0.116667 0.20817 0.202927 0.441329 0.426858 0.311674 0.180519 0.321685 0.285 0.23125 0.207143 0.380693 0.421338 0.359091 0.466484 0.404545 0.065786 0.0171378 0.0774193 0.100336 0.472648 0.25 0.132192 0.113823 0.263679 0.224887 -0.0208664 0.416667 0.257655 0.197449 0.367497 0.437342 0.364353 0.323269 0.0879974 0.236899 0.446124 0.195033 0.253371 0.0176449 0.072449 0.559808 0.588436 0.505556 0.539928 0.65 0.570209 0.181959 0.227916 0.217717 -0.0495301 -0.0432878 0.526923 0.139862 0.0831169 0.315854 0.261475 0.195935 0.17093 0.397205 0.29375 0.142478 0.353846 0.315448 0.312869 -0.0103495 0.279787 0.291297 0.457519 0.572951 0.559467 0.295679 0.285092 0.585945 0.560994 0.615823 0.599171 0.573003 0.581961 0.137185 0.0103039 0.0780992 0.725 0.00734655 0.35 0.734173 0.702212 -0.00600105 0.00298084 0.0100396 0.0367403 0.000831432 0.0655914 0.557235 0.542409 0.55461 0.516038 0.610714 0.52971 0.483835 0.680769 0.604472 0.58285 0.14534 0.526271 -0.0481095 0.317107 0.330558 0.279365 0.302941 0.284177 0.32931 0.26746 0.236458 0.219504 0.219841 0.335334 0.428261 0.16627 0.227311 0.509211 0.213158
internal_weight=0 49154 494685 52998 41202 27547 25349 14618 441687 24399 7952 23273 13655 5523 12491 38380 3241 9095 17917 2945 16117 6257 2198 51037 4496 3293 6004 4599 6234 3104 4475 3861 2282 48122 5356 1983 8053 2070 5330 32104 5434 3762 1800 950 1574 1530 4659 5133 2178 1375 390650 19295 8064 4076 1164 5565 3448 988 1979 1434 2462 253 1057 2372 2915 1779 1390 17787 2820 425 800 1893 850 791 1882 1115 1444 1126 1672 1130 5216 1164 381 1299 863 962 2045 635 359 189 109 1939 974 619 1833 713 552 1865 1908 730 1178 1131 4052 242 255 667 272 14317 196 700 120 542 1759 600 3152 1559 144 1727 1372 677 540 247 137 2777 371 395 100 680 102 614 2406 1430 1687 859 433 245 651 876 400 4951 259 103 75 1739 219 198 2837 301 590 267 415 343 100 1079 1327 900 498 986 546 89 767 623 395 228 159 955 164 63 401 145 379 362 17861 584 93 491 2940 113 449 427 865 713 1529 144 1385 890 288 245 495 314 132 182 110 1523 283 1240 745 287 380 355 293 202 432 15007 150 1022 392 2499 158 2341 1878 769 603 129 151 178 2794 196 469 307 162 139 50 287 194 403 381 371355 17729 156 1085 144 82 61 236 172 161 256 216 52 602 237 734 188 293 266 61 169 405 379 868 473 395 362 313 413 981 1043 111 40 1603 60 139 113 11523 4586 3531 895 2636 176 774 606 564 318 168 69 266 52 246 207 269 118 33050 1362 967 252 221 395 203 126 192 141 63 1391 621 504 119 152 95
internal_count=543839 49154 494685 52998 41202 27547 25349 14618 441687 24399 7952 23273 13655 5523 12491 38380 3241 9095 17917 2945 16117 6257 2198 51037 4496 3293 6004 4599 6234 3104 4475 3861 2282 48122 5356 1983 8053 2070 5330 32104 5434 3762 1800 950 1574 1530 4659 5133 2178 1375 390650 19295 8064 4076 1164 5565 3448 988 1979 1434 2462 253 1057 2372 2915 1779 1390 17787 2820 425 800 1893 850 791 1882 1115 1444 1126 1672 1130 5216 1164 381 1299 863 962 2045 635 359 189 109 1939 974 619 1833 713 552 1865 1908 730 1178 1131 4052 242 255 667 272 14317 196 700 120 542 1759 600 3152 1559 144 1727 1372 677 540 247 137 2777 371 395 100 680 102 614 2406 1430 1687 859 433 245 651 876 400 4951 259 103 75 1739 219 198 2837 301 590 267 415 343 100 1079 1327 900 498 986 546 89 767 623 395 228 159 955 164 63 401 145 379 362 17861 584 93 491 2940 113 449 427 865 713 1529 144 1385 890 288 245 495 314 132 182 110 1523 283 1240 745 287 380 355 293 202 432 15007 150 1022 392 2499 158 2341 1878 769 603 129 151 178 2794 196 469 307 162 139 50 287 194 403 381 371355 17729 156 1085 144 82 61 236 172 161 256 216 52 602 237 734 188 293 266 61 169 405 379 868 473 395 362 313 413 981 1043 111 40 1603 60 139 113 11523 4586 3531 895 2636 176 774 606 564 318 168 69 266 52 246 207 269 118 33050 1362 967 252 221 395 203 126 192 141 63 1391 621 504 119 152 95
cat_boundaries=0 2 4 5 7 9 10 12 13 15 16 18 19 20 21 22 24 25 26 27 28 29 30 31 32 33 34 35 36 37 38 39 40 41 42 43 44 45 46 47 48 49 50 51 52 53 54 55 56 57 58 59 60 61 62 63 64 65 66 67 68 69 70 71 72 73 74 75 76 77 78 79 80 81 82 83 85 86 87 88 89 90 91 92 93
cat_threshold=67109376 32784 17302530 8194 20 0 32768 0 16 524290 524288 8192 64 0 32768 4 2048 4096 64 41 20 40 0 16 64 81 64 41 64 20 49 16 40 64 57 64 20 2 40 40 64 40 4 115291 20 67346 66692 45 64 64 6 50053 26312 6 1265 5183 64 69780 66 64 40 8 47308 18832 25977 6468 32517 18 46283 514 12646 8 1 19474 42 32 8 33 82 83041 67091 32 82993 16777216 2 2048 18 524288 32 112388 128 2147483648 2
shrinkage=0.1


Tree=3
num_leaves=300
num_cat=133
split_feature=20 2 19 16 2 19 16 16 20 2 16 16 2 19 2 16 19 2 2 16 20 20 20 2 2 20 2 20 19 16 16 2 2 4 20 2 16 20 2 16 4 4 4 20 4 4 16 16 11 14 16 16 14 4 16 4 4 4 4 16 16 4 4 19 14 16 4 4 14 16 2 4 5 20 16 4 16 16 4 14 14 4 4 11 11 16 20 19 11 4 4 20 19 11 4 14 11 4 4 4 11 4 4 4 4 16 19 11 14 4 16 5 14 11 4 4 16 5 16 16 16 2 4 14 4 16 4 11 16 4 5 14 14 11 16 16 16 14 16 14 14 4 14 11 14 16 14 5 11 11 4 11 14 16 19 11 16 4 20 16 14 11 2 19 16 14 11 16 5 14 11 11 11 16 4 19 11 16 16 2 11 14 14 19 11 16 4 4 14 16 14 14 4 16 14 11 5 2 16 4 16 4 4 16 14 11 11 20 11 11 16 4 19 11 4 11 11 14 11 5 14 5 19 11 4 16 16 4 11 11 4 11 11 11 11 11 14 4 16 4 14 11 14 16 14 14 16 5 4 16 5 19 5 14 11 5 14 14 14 20 4 11 16 14 19 4 4 16 14 19 4 11 4 16 16 5 20 4 11 14 14 16 11 19 14 11 5 11 14 14 2 14 4 11 16 16 16 14 14
split_gain=863.089 436.767 393.117 435.561 261.061 157.645 54.1884 51.9815 51.167 63.9903 50.9381 39.3155 28.8868 27.4042 20.9766 30.216 26.7975 19.4495 15.3148 16.5999 15.298 14.8936 16.0229 14.4157 13.386 15.9514 11.9857 10.4946 9.96716 9.25911 9.16699 9.00632 8.44285 8.36873 8.05386 9.40343 7.98493 7.85064 7.07048 5.78534 5.11466 4.44564 4.42951 4.42745 4.19271 3.99467 3.92454 3.84756 3.7849 5.58831 3.77093 3.68879 3.30127 3.34472 3.29157 3.11679 3.10081 3.0631 3.0152 3.24052 2.97051 2.96279 2.95392 2.88401 4.00412 3.05391 2.89007 2.86184 2.81463 2.75208 2.73059 2.71442 2.71296 2.67815 2.6311 2.60541 2.59797 2.58736 2.57849 2.57247 2.55418 2.50422 2.46564 2.42928 2.31961 2.29884 9.75186 9.70734 2.29369 2.26297 2.25784 2.22234 2.73104 2.20942 2.18628 2.1191 2.7479 2.28547 2.07028 2.06973 2.02683 3.56922 2.00591 1.97105 1.92036 1.89873 1.78552 1.77188 1.76805 1.74722 1.7228 1.71407 1.68401 1.99438 1.67488 1.58313 1.57249 1.54699 1.52513 1.5096 1.49964 1.49633 2.64028 2.03062 1.48466 1.48198 1.48115 1.47289 1.47163 1.45307 1.42028 1.42005 2.03297 1.41534 2.63443 1.3877 1.38355 1.37338 1.3645 1.35315 1.34349 1.33172 1.3258 1.39846 1.32269 1.32228 1.31347 1.29684 1.30873 1.28977 1.28483 1.28282 1.56713 1.27941 1.26315 1.25471 1.25361 1.83138 1.2378 1.23724 1.23712 1.23658 1.23508 1.99435 1.24057 1.2345 1.22667 1.22271 1.21528 1.21524 1.21007 1.20053 1.66542 1.19509 1.1898 1.18092 1.17363 1.17046 1.17035 1.16887 1.16741 1.16368 1.15337 1.15169 1.1491 1.13466 2.44282 1.29121 1.12339 1.39282 1.12038 1.10053 1.09039 1.08839 1.08298 1.08102 1.72857 1.07999 1.41507 1.07806 1.0778 1.79461 1.07791 1.07355 1.05811 1.21317 1.05387 1.05075 1.7126 1.05035 1.04615 1.32419 1.27068 1.38004 1.07338 1.02684 1.83701 1.33333 1.01314 1.64205 1.00284 1.14057 1.00085 0.992994 0.990882 0.973808 0.96707 0.956168 0.955189 0.948698 0.947408 0.947398 0.947315 1.084 1.05696 1.0536 0.939618 0.977986 0.931677 0.929054 0.922416 1.19536 0.99366 0.919944 0.90416 0.903559 1.09129 0.898238 0.890754 1.27062 0.889133 0.888549 0.88778 0.887416 1.30159 0.945108 0.886252 0.884828 0.877086 0.869294 0.859459 0.927694 0.858347 1.41105 0.85491 2.07683 0.996983 1.14612 1.09225 0.851098 1.58862 0.850609 0.850005 0.84357 0.980281 0.857143 0.838109 0.992687 0.828748 0.828478 0.82753 0.818374 0.818295 0.814449 1.18827 0.810802 0.806763 0.804825 0.801646 0.796321 0.793236 1.53349 0.826173 0.84899 0.789365 0.788842 0.978881 0.787706 0.784944
threshold=0 1 2 38.500000000000007 3 4 34.500000000000007 40.500000000000007 5 6 49.500000000000007 69.500000000000014 7 8 9 47.500000000000007 10 11 12 39.500000000000007 13 14 15 16 17 18 19 20 21 58.500000000000007 10.500000000000002 22 23 24 25 26 15.500000000000002 27 28 17.500000000000004 29 30 31 32 33 34 75.500000000000014 96.500000000000014 54.500000000000007 12.500000000000002 52.500000000000007 91.500000000000014 4.5000000000000009 35 10.500000000000002 36 37 38 39 17.500000000000004 55.500000000000007 40 41 42 44.500000000000007 26.500000000000004 43 44 1.0000000180025095e-35 15.500000000000002 45 46 47 48 13.500000000000002 49 57.500000000000007 4.5000000000000009 50 11.500000000000002 2.5000000000000004 51 52 75.500000000000014 4.5000000000000009 69.500000000000014 53 54 13.500000000000002 55 56 57 58 8.5000000000000018 59 10.500000000000002 38.500000000000007 60 61 62 17.500000000000004 63 64 65 66 64.500000000000014 67 3.5000000000000004 8.5000000000000018 68 61.500000000000007 69 81.500000000000014 51.500000000000007 70 71 5.5000000000000009 72 26.500000000000004 80.500000000000014 72.500000000000014 73 74 31.500000000000004 75 3.5000000000000004 76 17.500000000000004 67.500000000000014 77 78 14.500000000000002 7.5000000000000009 5.5000000000000009 15.500000000000002 60.500000000000007 89.500000000000014 4.5000000000000009 92.500000000000014 16.500000000000004 6.5000000000000009 79 11.500000000000002 1.5000000000000002 4.5000000000000009 87.500000000000014 93.500000000000014 80 35.500000000000007 16.500000000000004 81 63.500000000000007 34.500000000000007 9.5000000000000018 82 7.5000000000000009 74.500000000000014 83 84 57.500000000000007 7.5000000000000009 3.5000000000000004 85 86 90.500000000000014 32.500000000000007 81.500000000000014 98.500000000000014 87 16.500000000000004 66.500000000000014 4.5000000000000009 1.5000000000000002 90.500000000000014 88 89 3.5000000000000004 1.5000000000000002 11.500000000000002 90 20.500000000000004 2.5000000000000004 9.5000000000000018 91 61.500000000000007 4.5000000000000009 92 93 75.500000000000014 2.5000000000000004 50.500000000000007 6.5000000000000009 94 9.5000000000000018 5.5000000000000009 14.500000000000002 95 96 30.500000000000004 97 96.500000000000014 98 99 80.500000000000014 16.500000000000004 39.500000000000007 69.500000000000014 100 94.500000000000014 76.500000000000014 7.5000000000000009 101 102 38.500000000000007 103 50.500000000000007 60.500000000000007 14.500000000000002 1.5000000000000002 104 11.500000000000002 105 106 3.5000000000000004 107 97.500000000000014 91.500000000000014 108 79.500000000000014 12.500000000000002 109 4.5000000000000009 61.500000000000007 4.5000000000000009 2.5000000000000004 5.5000000000000009 69.500000000000014 110 59.500000000000007 111 6.5000000000000009 47.500000000000007 7.5000000000000009 35.500000000000007 5.5000000000000009 14.500000000000002 45.500000000000007 112 113 1.0000000180025095e-35 114 115 116 3.5000000000000004 7.5000000000000009 117 5.5000000000000009 1.5000000000000002 7.5000000000000009 118 119 95.500000000000014 78.500000000000014 2.5000000000000004 120 121 122 44.500000000000007 7.5000000000000009 123 124 35.500000000000007 125 2.5000000000000004 5.5000000000000009 126 127 128 23.500000000000004 8.5000000000000018 2.5000000000000004 11.500000000000002 2.5000000000000004 129 47.500000000000007 4.5000000000000009 130 4.5000000000000009 55.500000000000007 1.5000000000000002 131 51.500000000000007 132 67.500000000000014 58.500000000000007 61.500000000000007 55.500000000000007 7.5000000000000009 5.5000000000000009
decision_type=9 1 1 10 1 1 10 10 9 1 10 10 1 1 1 10 1 1 1 10 9 9 9 1 1 9 1 9 1 10 10 1 1 1 9 1 10 9 1 10 1 1 1 9 1 1 10 10 10 10 10 10 10 1 10 1 1 1 1 10 10 1 1 1 10 10 1 1 10 10 1 1 1 9 10 1 10 10 1 10 8 1 1 10 10 10 9 1 10 1 1 9 1 8 1 10 10 1 1 1 10 1 1 1 1 10 1 10 10 1 10 1 10 10 1 1 8 1 8 10 10 1 1 8 1 10 1 10 10 1 1 10 10 10 8 10 10 10 10 10 8 1 10 10 10 10 10 1 10 8 1 10 10 10 1 8 10 1 9 10 8 8 1 1 10 10 10 10 1 8 10 10 10 10 1 1 8 8 10 1 10 10 8 1 10 10 1 1 8 10 10 8 1 10 8 10 1 1 10 1 10 1 1 10 10 10 10 9 10 10 8 1 1 10 1 10 10 8 8 1 10 1 1 10 1 10 10 1 10 10 1 8 8 10 10 10 8 1 10 1 8 8 8 10 10 8 10 1 1 10 1 1 1 8 8 1 10 8 10 9 1 8 10 10 1 1 1 10 10 1 1 8 1 8 10 1 9 1 10 10 8 10 8 1 10 10 1 10 10 8 1 10 1 10 10 10 10 10 10
left_child=4 2 10 8 13 7 17 31 38 30 20 32 51 29 15 28 -17 54 19 67 77 74 121 39 25 173 47 -27 158 -1 48 52 44 76 42 94 -24 56 40 -22 169 110 -12 297 135 112 259 57 49 103 115 109 71 118 82 225 68 289 59 176 79 105 244 64 114 99 -67 142 209 116 111 88 138 -48 100 -29 108 150 137 182 273 106 131 146 128 -16 87 -87 281 107 283 92 -88 -56 -36 96 185 -98 252 -65 124 175 197 183 140 -8 -50 220 -9 253 264 -44 113 188 -32 -43 125 126 258 250 -111 122 123 -23 -11 155 -39 280 159 223 231 132 232 160 -135 -5 -89 269 256 144 295 178 147 153 -63 -94 236 148 -15 -66 290 152 177 -144 -139 -55 157 294 -3 -77 -42 -114 163 -93 -165 194 191 -57 238 180 -73 172 -107 -18 190 -102 227 -84 -123 239 279 -121 -46 192 229 187 -187 -82 189 282 -41 -85 -10 207 -95 -191 -197 198 -38 -195 202 -202 -75 -113 205 -118 -153 208 224 248 211 -69 213 214 -212 240 217 -217 -158 -220 -79 -222 -76 -97 -119 -49 -74 -33 -177 -136 287 -31 233 234 -7 -235 237 -60 -146 -126 241 -80 -242 -104 -28 -159 -247 -130 249 -30 -21 -117 -45 -13 -255 -256 -64 -72 -54 -37 261 -214 -122 -264 266 -266 -34 -268 -269 270 -40 -260 -238 275 -275 -47 277 -209 -68 -4 -106 -6 298 -51 -285 -137 -62 -156 -284 -14 291 292 293 -2 -35 296 -52 -26 -19
right_child=1 14 3 11 5 6 61 33 9 21 34 12 26 18 85 16 24 45 -20 119 23 22 36 -25 43 27 62 75 37 130 63 58 41 156 35 46 102 117 78 174 133 50 70 98 60 80 73 55 81 90 104 -53 53 69 93 167 -58 -59 83 -61 286 139 72 65 149 66 278 210 -70 -71 257 170 226 200 222 84 -78 89 215 -81 95 -83 151 166 -86 86 91 136 -90 -91 -92 162 145 165 -96 129 97 -99 -100 -101 101 -103 243 -105 127 171 -108 -109 -110 120 -112 203 161 -115 -116 251 204 193 -120 181 262 141 -124 -125 179 -127 -128 -129 247 -131 -132 -133 -134 134 184 285 -138 154 -140 -141 -142 -143 143 -145 168 -147 -148 -149 -150 -151 -152 206 -154 -155 230 -157 218 245 -160 -161 -162 -163 -164 164 -166 -167 -168 -169 -170 -171 -172 -173 -174 -175 -176 228 -178 -179 -180 -181 -182 -183 -184 -185 -186 186 -188 -189 -190 195 -192 -193 -194 199 -196 196 -198 -199 -200 -201 201 -203 -204 -205 -206 -207 -208 276 -210 -211 212 -213 260 -215 -216 216 -218 -219 219 -221 221 -223 -224 -225 -226 -227 -228 -229 -230 -231 -232 -233 -234 235 -236 -237 272 -239 -240 -241 242 -243 -244 -245 -246 246 -248 -249 -250 -251 -252 -253 -254 254 255 -257 -258 -259 271 -261 -262 -263 263 -265 265 -267 267 268 -270 -271 -272 -273 -274 274 -276 -277 -278 -279 -280 -281 -282 -283 288 284 -286 -287 -288 -289 -290 -291 -292 -293 -294 -295 -296 -297 -298 -299 -300
leaf_value=-1.6614085484986565 1.2647768951494547 -1.564101891516152 7.1198091726606378 1.7558043160091832 5.2589805595417598 12.959252325523025 19.813392699985521 13.475039925051355 3.4385518883829338 -0.092014649008635874 2.6970105977933549 4.218662751847714 14.641469330088823 2.5049205686529397 -3.7306654596599653 -0.79452475383304566 -0.28490378180689313 11.280848671288748 -5.1916405329741 8.1637172457179155 -1.145105394581484 1.9966887176778378 -0.68252759004915164 -2.5771659169708934 10.722548793551427 1.3063102837179348 5.6538672674787556 3.8836203143356496 5.9174203114083319 2.6095303502963678 3.8123151712876764 -0.73612383474263177 1.6101998290592539 11.308819688163053 3.4794440966848783 0.44323767409787973 0.74874690825442203 0.27556760221628668 1.9901195892365362 0.9352394317756213 2.9254681264007614 6.7861223219700522 10.05648928940877 13.492835015358077 1.8377327218110129 18.784355383061335 3.0759666603095215 13.834811340462108 3.5156509353981442 2.6938239880119794 11.152865377771739 4.5627088372674187 6.8056011379860166 5.876545805247412 18.454123243929939 14.458698000097934 0.25647632435224138 10.73906410523594 2.6360029522626762 10.306088850251111 3.0333914251353575 30.456786627004568 8.0788885680211333 2.1092864161098506 7.5839838836500251 7.5611319569604492 3.9917653627298755 2.6507709172703731 0.56257610380594258 8.0013137329653059 7.8501300382239343 3.532421294382968 5.9934884179932384 -0.38850674610436875 3.6545635561838674 5.1038500517522722 17.566506120563805 1.1666004301295205 1.1999414959813848 2.4294735130365601 6.2256385151184102 2.5488640669487435 11.20580345695886 7.8406817491299723 4.191056117286756 -0.95101419288556821 -1.3677179261702532 2.5783646297083411 6.9114399298031586 1.1214392591135625 2.6914639436578378 -1.5702836203579844 0.72062462934536797 20.363246916842247 2.5175172783831599 6.0288011971001829 8.9122807385984881 15.495325888406013 0.023828806643102406 3.5354423190289896 1.7346432065439168 1.0815267875077947 0.11915793359251717 1.2297306949648303 5.424133364527961 29.641670982132322 3.7662198336342869 2.5469650747823112 14.042261990568376 3.0292458077947657 7.1442891567833078 4.5983570969368621 20.960727152978645 13.255572325408366 5.2985856266807376 4.4231833196459815 3.8760993348394823 0.76927746680608378 3.9390877902840069 9.6328951202339219 3.3376481371939111 1.2547206889729952 1.678341591266256 3.5064555019222454 3.0651825494731781 8.2081417664368939 -0.58316593921374149 12.470776211972492 5.7020813804773995 13.675344063208414 2.0375793495696515 12.868331139237256 10.750348198125515 7.978963324728082 6.4730201756692765 2.9074966534023856 3.0634005902042194 2.0656902538218973 10.942497215768924 26.825780974386426 6.2888855171765847 0.50976274081186257 3.5170887713394587 1.9633405495467731 19.097648177374992 1.9021264594707823 6.2415316809831092 2.7042341517843536 3.228314415655209 6.2996406920451022 -0.51003109024601556 15.614004748368314 12.935150062519117 6.6732287170092039 6.0641100955149607 6.3460929264120027 20.459762162438093 11.066552926689456 -3.1197776626395339 2.148918860991174 7.3493901708010956 18.073117246213439 -4.683325885945707 -0.15673323342627668 0.46546653604146049 15.053512046922364 4.9353240303454404 17.303537670776414 25.950488775797751 5.5188840650760147 6.1602010365552289 39.389522257242007 38.723955796066292 0.96742970966026265 -0.03787069733181158 2.1821026660368852 5.1204206565042369 10.559602857119703 3.0802987437517451 1.0123950318886898 1.7532288677583905 11.923971991672481 1.3867056093523216 2.0309131889877663 6.6644629949844658 16.770589502530136 12.452742821303898 9.3416108917365364 12.516646746800127 19.070919397813597 2.7818355437459443 4.0703004152884281 1.870477044648299 1.1972793479749437 17.00900795238465 14.471256166911326 13.295954277573333 0.77799124102975603 2.0818057404090715 -0.5079239746941393 1.2406072939752155 0.57365899470247006 0.50616462842107157 11.507269992633059 5.6637977372174682 7.3556672184811109 12.941061474812891 1.0574975515328446 3.0506044465364526 6.1120285679680331 1.8100631905946611 -0.22688936968245793 2.3872318089103315 2.8257446156868644 1.8404690146945943 8.6821166351886205 6.8937489840897062 5.8934667906506917 19.029186735183064 15.906238769670981 2.1799831513476304 3.7252773166543083 3.5970111446609616 19.905690259237446 -1.6334015325085549 16.678987857331787 7.9157323943770495 6.2492544029245956 2.9103101430303182 7.4101435356087411 6.0765873815445737 4.8974348048335408 13.62763974388794 18.889153392245582 11.252650119204546 13.979245684314154 0.9759279198604438 4.12050664168064 24.544067933133167 1.9865505917198907 10.357108546980029 5.9927979583524298 5.7617865082294211 0.78933065022840088 1.9282908272809101 9.8249184931237359 14.718426682494433 5.6668531288422868 3.9167935354338383 5.9703672453735104 7.3310882534789075 6.4923142582249085 4.7878407284056372 3.4206756011547506 3.5459608786869499 3.5257431465621227 17.189190114514457 5.872314825066784 4.6632376657513666 -0.88275476517286477 0.34663499763520966 1.8235961609255267 3.5039835412108737 3.7855652916470874 7.262406089433397 4.3706868729364272 3.0963818054435883 4.8693520416215836 5.8067226078526808 2.8254635765665101 5.8293558758139454 2.3976138127072475 2.9184697239003725 13.998159095757451 19.885586211864922 19.006360822635347 -1.9535422959742008 -1.4219795247919762 7.5449496934186531 8.125383426312176 7.6388704398453813 13.187450427466937 12.491450820665341 2.9271302886052517 3.6810867127145706 4.237053150061965 2.9322330700600912 6.3763124123469623 16.858363503953125 11.184447713412727 0.29978458475709635 1.9482199144304841 0.3443138188095709 2.7613334943998091 4.6965445937752248 9.1930979644632469 8.5304327579172714 1.7317364721946789 15.134724409765838
leaf_weight=4105 90 3451 61 234 342 83 237 108 267 1061 235 64 181 169 226040 2664 246 29 694 94 46674 141 22835 47033 199 153 879 214 204 37 653 109 373 57 2508 420 111 1803 222 1453 89 786 50 24 58 21 359 58 601 2317 32 227 59 20 47 156 1808 2223 255 81 98 486 333 1328 41 455 506 205 412 36 20 1061 653 1136 127 37 329 139 151 26 280 3316 45 26 113 356 236 207 140 1214 6646 1966 107 21 4530 63 109 294 803 2065 108 584 873 14147 122 185 2076 168 29 48 529 29 29 336 628 583 158 531 286 128 86 1358 564 206 112 44 4639 36 117 379 298 303 110 82 41 77 103 115 133 22 633 1882 97 87 42 89 46 367 38 70 1902 21 206 22 138 59 34 143 25734 45 282 64 10182 748 345 33 193 179 95 219 177 25 27 67 2403 176 1885 658 157 1722 22 20 128 10823 49 100 161 706 929 279 23 28 1007 338 167 21 24 256 56 1037 110 324 1265 24 252 37 109 475 22 84 206 332 181 104 305 28 185 21 119 130 26 27 247 38 900 164 285 137 63 40 329 98 408 21 55 179 430 801 27 314 36 151 1200 144 59 32 122 125 393 53 207 728 83 64 45 53 36 322 76 2895 425 166 147 33 401 564 85 209 79 443 324 135 1197 101 24 21 11477 861 49 21 1488 40 346 682 1223 25 95 74 49 1425 1510 62 234 20 52 121 73 21 23
leaf_count=4105 90 3451 61 234 342 83 237 108 267 1061 235 64 181 169 226040 2664 246 29 694 94 46674 141 22835 47033 199 153 879 214 204 37 653 109 373 57 2508 420 111 1803 222 1453 89 786 50 24 58 21 359 58 601 2317 32 227 59 20 47 156 1808 2223 255 81 98 486 333 1328 41 455 506 205 412 36 20 1061 653 1136 127 37 329 139 151 26 280 3316 45 26 113 356 236 207 140 1214 6646 1966 107 21 4530 63 109 294 803 2065 108 584 873 14147 122 185 2076 168 29 48 529 29 29 336 628 583 158 531 286 128 86 1358 564 206 112 44 4639 36 117 379 298 303 110 82 41 77 103 115 133 22 633 1882 97 87 42 89 46 367 38 70 1902 21 206 22 138 59 34 143 25734 45 282 64 10182 748 345 33 193 179 95 219 177 25 27 67 2403 176 1885 658 157 1722 22 20 128 10823 49 100 161 706 929 279 23 28 1007 338 167 21 24 256 56 1037 110 324 1265 24 252 37 109 475 22 84 206 332 181 104 305 28 185 21 119 130 26 27 247 38 900 164 285 137 63 40 329 98 408 21 55 179 430 801 27 314 36 151 1200 144 59 32 122 125 393 53 207 728 83 64 45 53 36 322 76 2895 425 166 147 33 401 564 85 209 79 443 324 135 1197 101 24 21 11477 861 49 21 1488 40 346 682 1223 25 95 74 49 1425 1510 62 234 20 52 121 73 21 23
internal_value=0 -0.0198578 0.0141233 0.0597009 0.167896 0.238078 0.340718 0.14876 0.0322868 0.0266825 -0.0253231 0.216309 0.267488 0.0229601 -0.0446632 -0.0277742 0.0473325 0.307661 0.0849494 0.114559 -0.0330741 -0.00727491 -0.0157084 -0.0359369 0.127448 0.205102 0.24532 0.279853 -0.0345819 -0.0296614 0.0496626 0.120654 0.165482 0.347403 0.0307619 0.0253485 -0.0256846 -0.0199166 0.138207 -0.0242005 0.218013 0.153663 0.136232 0.0495614 0.268908 0.265261 -0.00206321 0.277457 0.0446526 0.040887 0.172138 0.453861 0.165382 0.207315 0.381139 0.355745 0.0284413 0.266793 0.0949596 0.123492 0.343976 0.542496 0.185134 0.0870147 0.127247 0.0738386 0.122277 0.085355 0.0689446 0.260877 0.195055 0.138636 0.215862 0.0229493 0.0460433 0.336536 0.457353 0.0187708 0.116472 0.270755 0.231101 0.067971 0.369927 0.0734092 0.391834 -0.0488165 -0.0365402 0.0809171 0.20094 0.0529225 0.0599558 -0.0422897 0.0280543 0.487313 0.0506668 0.22277 0.205758 0.277543 0.0179348 0.0596375 0.0388889 0.0799678 0.0465278 0.0329904 0.198703 0.430372 0.0908634 0.121622 0.35146 0.414815 0.115111 0.343805 0.300865 0.296267 0.112373 0.141226 0.248246 -0.0263953 0.141696 0.292984 0.318827 0.0404354 0.0764929 0.144678 0.026971 0.348374 -0.0133654 0.220833 0.443827 0.28125 0.109353 0.412361 0.395093 0.276307 0.346226 0.171098 0.207812 0.0862538 0.276693 0.606158 0.151956 0.0305694 0.136709 0.207282 0.606923 0.112621 0.0650604 0.113763 0.177053 0.31036 0.00474069 0.315586 0.305336 0.277731 0.122256 0.266456 0.262589 0.230788 -0.0471399 0.328049 0.243801 0.433871 -0.0446042 -0.0267025 0.00757025 0.529186 0.168623 0.423913 0.529268 0.107658 0.109856 0.502743 0.478302 0.0103715 0.0129028 0.158683 0.116588 0.282859 0.0526229 0.0419833 0.2 0.375676 0.22957 0.0423846 0.257692 0.182558 0.241188 0.167039 0.282353 0.310571 0.0351278 0.301852 0.0711059 -0.0317787 0.497872 0.360494 0.216667 0.10358 0.167514 -0.0049091 0.0123901 0.0582949 0.00414409 0.251887 0.220694 0.165385 0.411538 -0.0343684 -0.00864663 0.106676 0.0634953 0.0263501 0.0783345 0.1124 0.0928571 0.143883 0.20641 0.378571 0.317491 0.295382 0.059375 0.176415 0.126471 0.125676 -0.012963 0.223707 0.185608 0.051626 0.201004 0.184568 0.14147 0.194444 0.413807 0.452959 0.384783 0.5 0.0621878 0.0854167 0.428261 0.0887615 0.135306 0.0857616 0.147411 0.0215677 0.136181 0.270847 0.333117 0.483058 0.0930769 0.139139 0.252326 0.116162 0.142308 0.511441 0.573457 0.50102 0.245393 0.141761 0.198148 -0.0261689 0.0491048 0.0858543 0.299624 0.338889 0.100205 0.120769 0.0710317 0.107963 0.140972 0.0632457 0.0893885 0.168009 0.0471112 0.351198 0.31 0.47381 -0.0372495 -0.0132244 0.069469 0.254878 0.217702 0.16466 0.274385 0.07819 0.0943864 0.273529 0.442228 0.0783784 0.258861 0.305507 0.0229491 0.0617788 0.0372093 0.104167 0.0886555 0.219911 0.283333 0.173913 0.392308
