tree
version=v3
num_class=1
num_tree_per_iteration=1
label_index=0
max_feature_idx=22
objective=quantile
feature_names=brand category-1 category-2 category-3 colour fabric_type ftp_acrylic ftp_cotton ftp_elastane ftp_linen ftp_other ftp_polyamide ftp_polyester ftp_polypropylene ftp_silk ftp_viscose ftp_wool gender label made_in season size unspsc_code
feature_infos=11:0:2:4:5:16:15:9:13:3:8:6:1:14:12:10:7 3:0:2:1:5:4 8:6:11:16:12:3:13:17:18:14:7:15:4:0:1:5:2:10:9:21:19:20 37:31:45:40:29:11:26:19:33:1:16:44:9:3:30:25:35:10:24:12:46:7:6:4:18:17:32:0:15:2:8:47:13:38:43:23:41:34:14:20:22:5:36:42:28:27:21:39 9:26:29:17:35:13:40:3:4:27:12:31:11:19:2:39:0:34:14:22:7:21:10:33:15:23:37:38:20:16:36:28:5:1:32:8:24:25:6:30:18 1:0 [1:69] [1:100] [1:69] [1:100] [1:69] [1:100] [1:100] [1:69] [1:100] [1:69] [1:100] 5:3:1:2:6:0:4:-1 none 5:8:33:31:22:32:35:27:17:1:19:20:11:14:26:30:12:0:28:2:34:24:18:4:3:6:21:9:7:29:10:13:23:25:15:16 2:3:1:0:-1 1:3:5:0:2:4 none
tree_sizes=26050 25710 25002 25434 25180 25344 25351 25512 25549 25894 25830 25839 26497 25549 25888 25797 25674 25108 26335 25854 25998 26458 25516 26474 25343 26573 25513 26101 26274 25797 26020 26181 26195 25668 27111 26262 26229 26263 26763 25705 26333 26948 25935 26429 26475 26095 26495 27021 26136 26243 26658 26957 26418 26188 26080 26490 26720 26727 26654 26679 27058 26166 26665 26222 26343 26536 26466 27076 26162 26207 26720 26768 26945 26897 26866 26851 26667 27078 27161 26137 27008 26937 26945 26867 26248 26378 26580 26700 26639 26745 27049 26620 26555 27015 26406 26865 27003 26907 26731 26851

Tree=0
num_leaves=300
num_cat=134
split_feature=2 2 17 2 2 2 17 17 17 14 5 2 11 5 2 11 2 11 5 4 5 2 4 4 17 4 14 11 4 6 6 14 4 4 4 4 4 4 4 4 4 6 4 2 6 4 2 4 6 11 6 11 5 4 11 4 6 4 4 11 14 11 4 6 4 6 4 6 11 4 4 4 11 2 11 11 11 14 6 4 4 6 4 11 5 2 4 6 11 6 2 4 14 11 6 4 6 11 17 4 11 14 11 11 4 14 14 6 14 4 11 4 14 14 11 6 11 4 11 17 4 17 14 11 4 6 14 4 11 11 14 2 14 6 6 11 4 14 6 6 14 14 14 6 4 4 14 11 4 6 4 4 14 11 14 4 17 4 4 14 4 6 6 4 4 14 4 11 14 4 6 14 5 14 4 4 14 6 14 14 4 5 14 11 14 14 2 11 14 11 11 1 11 4 4 11 6 6 4 11 11 11 14 2 4 14 5 14 6 6 4 6 6 4 14 6 11 4 6 6 6 14 14 4 4 4 6 4 6 4 14 4 4 4 4 17 11 6 4 4 14 14 4 17 17 4 4 6 6 11 14 4 6 4 4 6 4 11 11 4 11 6 14 11 11 11 14 4 11 11 4 14 4 4 14 4 14 6 6 14 11 6 11 14 4 4 4 6 11 6 6 6 4 6 6 4 14 11 4
split_gain=1317.28 104.447 49.7814 42.9365 16.6786 15.2602 14.0303 13.0177 10.2691 7.54643 6.51468 6.69005 6.74094 4.32632 4.95825 4.28464 4.20116 7.04173 4.04384 4.0319 3.5505 3.46421 3.38838 3.3252 2.8818 2.72746 2.62457 2.58907 2.38957 2.34943 2.24493 2.2249 2.21614 2.17407 2.16282 1.86227 1.8503 1.79836 1.78535 1.67031 1.66303 1.61165 1.77905 1.49367 1.73078 1.48943 1.45812 1.42844 1.42245 1.41485 1.38182 1.35714 1.31492 1.31359 1.29526 1.70221 1.21625 1.20248 1.18246 1.1588 1.13309 1.13199 1.25244 1.11179 2.88152 1.05571 1.22397 1.03941 1.03337 1.01606 1.00333 0.969659 1.05778 0.954827 0.946679 1.55417 1.1182 0.945769 0.919917 0.918689 0.918115 0.911751 2.4176 1.7815 0.907143 1.61375 1.21861 0.908901 0.882516 0.869025 0.868466 0.868329 0.872304 0.864426 0.863284 1.46964 0.856527 0.847158 0.847152 0.841087 0.832527 0.82182 1.66467 1.01167 0.817594 1.41358 0.811917 1.375 0.808131 0.965234 0.803759 1.13556 0.798481 0.795249 0.786935 0.779185 0.775671 0.767079 0.76036 0.755564 0.814352 0.753974 1.43625 0.738932 3.20647 1.48088 1.81143 0.99326 0.802351 0.989762 0.783683 0.731179 0.728828 0.725943 0.719186 0.718613 0.809366 1.03197 0.714005 0.696473 0.98873 0.696167 0.695381 0.690777 0.689098 0.684469 0.677068 0.673179 1.31812 0.87929 0.669419 0.665153 0.663445 0.730017 0.654291 1.85239 0.773051 1.54342 0.902561 0.651395 0.899723 1.06854 0.907379 1.27002 0.71248 0.705823 0.645408 0.759222 0.717366 0.645146 0.642517 0.959754 1.225 0.684576 0.641027 0.633417 0.633313 0.632411 0.822323 0.695046 0.630887 0.625486 0.66775 0.617339 0.613452 1.12667 0.682401 0.632573 0.631921 0.612829 0.612321 0.611402 0.769351 0.931141 0.609036 0.633659 0.604498 0.715548 0.654333 0.596462 0.589088 1.48726 1.07751 0.586863 0.838729 0.613666 0.581669 0.58165 0.579334 0.578726 0.576469 0.622741 0.765055 0.575434 0.571007 0.79425 0.779855 0.570977 0.570796 0.56745 0.561841 0.561264 0.558477 0.619748 0.601203 0.557609 0.556379 1.15128 0.554104 0.649672 0.55114 0.550765 0.545892 0.544939 0.543661 0.542488 0.541874 0.541854 0.911573 0.620302 0.99417 0.596987 0.639353 0.585428 0.540682 0.679865 0.553041 0.539608 0.538403 0.538297 0.741687 0.53729 0.544181 0.537062 0.535552 0.535422 0.531437 0.553853 0.531244 0.528813 0.538275 0.779592 0.528572 0.52534 0.574038 0.524166 0.522514 1.47629 0.644058 1.39368 0.860086 1.4774 0.859786 0.845024 0.677751 1.4108 0.638084 0.655386 0.559075 0.537398 0.527246 0.520787 0.520325 0.520253 0.72373 0.519948 0.51947 0.51665 0.514656 0.510594 0.594356 0.510285 0.584958 0.506383 0.583965 0.506027 0.576446 0.504677 0.498592
threshold=0 1 2 3 4 5 6 7 8 30.500000000000004 9 10 15.500000000000002 11 12 32.500000000000007 13 28.500000000000004 14 15 16 17 18 19 20 21 8.5000000000000018 43.500000000000007 22 31.500000000000004 29.500000000000004 47.500000000000007 23 24 25 26 27 28 29 30 31 2.5000000000000004 32 33 9.5000000000000018 34 35 36 2.5000000000000004 22.500000000000004 37.500000000000007 31.500000000000004 37 38 3.5000000000000004 39 24.500000000000004 40 41 50.500000000000007 96.500000000000014 75.500000000000014 42 11.500000000000002 43 14.500000000000002 44 17.500000000000004 30.500000000000004 45 46 47 5.5000000000000009 48 20.500000000000004 16.500000000000004 34.500000000000007 16.500000000000004 18.500000000000004 49 50 5.5000000000000009 51 18.500000000000004 52 53 54 1.5000000000000002 29.500000000000004 26.500000000000004 55 56 4.5000000000000009 25.500000000000004 7.5000000000000009 57 19.500000000000004 98.500000000000014 58 59 14.500000000000002 2.5000000000000004 20.500000000000004 64.500000000000014 60 10.500000000000002 3.5000000000000004 8.5000000000000018 7.5000000000000009 61 10.500000000000002 62 5.5000000000000009 8.5000000000000018 2.5000000000000004 10.500000000000002 8.5000000000000018 63 1.5000000000000002 64 65 66 1.5000000000000002 7.5000000000000009 67 3.5000000000000004 9.5000000000000018 68 11.500000000000002 9.5000000000000018 1.5000000000000002 69 45.500000000000007 1.5000000000000002 28.500000000000004 14.500000000000002 70 45.500000000000007 29.500000000000004 26.500000000000004 5.5000000000000009 4.5000000000000009 6.5000000000000009 14.500000000000002 71 72 51.500000000000007 9.5000000000000018 73 9.5000000000000018 74 75 15.500000000000002 94.500000000000014 2.5000000000000004 76 77 78 79 32.500000000000007 80 2.5000000000000004 2.5000000000000004 81 82 43.500000000000007 83 9.5000000000000018 47.500000000000007 84 4.5000000000000009 63.500000000000007 85 67.500000000000014 86 87 48.500000000000007 8.5000000000000018 44.500000000000007 79.500000000000014 88 89 5.5000000000000009 6.5000000000000009 77.500000000000014 72.500000000000014 90 8.5000000000000018 86.500000000000014 5.5000000000000009 2.5000000000000004 91 5.5000000000000009 92 93 19.500000000000004 5.5000000000000009 6.5000000000000009 94 67.500000000000014 10.500000000000002 6.5000000000000009 49.500000000000007 95 96 22.500000000000004 97 9.5000000000000018 6.5000000000000009 11.500000000000002 98 12.500000000000002 9.5000000000000018 99 44.500000000000007 1.5000000000000002 7.5000000000000009 100 15.500000000000002 1.5000000000000002 24.500000000000004 61.500000000000007 27.500000000000004 101 102 103 8.5000000000000018 104 9.5000000000000018 105 4.5000000000000009 106 107 108 109 110 16.500000000000004 19.500000000000004 111 112 63.500000000000007 69.500000000000014 113 114 115 116 117 18.500000000000004 14.500000000000002 9.5000000000000018 23.500000000000004 118 20.500000000000004 119 120 7.5000000000000009 121 21.500000000000004 4.5000000000000009 122 14.500000000000002 3.5000000000000004 6.5000000000000009 70.500000000000014 65.500000000000014 35.500000000000007 83.500000000000014 123 81.500000000000014 63.500000000000007 124 1.5000000000000002 125 126 3.5000000000000004 127 47.500000000000007 5.5000000000000009 11.500000000000002 72.500000000000014 93.500000000000014 1.5000000000000002 2.5000000000000004 2.5000000000000004 128 129 130 9.5000000000000018 87.500000000000014 1.5000000000000002 2.5000000000000004 8.5000000000000018 131 7.5000000000000009 12.500000000000002 132 7.5000000000000009 4.5000000000000009 133
decision_type=1 1 9 1 1 1 9 9 9 10 1 1 10 1 1 10 1 10 1 1 1 1 1 1 9 1 10 10 1 10 10 10 1 1 1 1 1 1 1 1 1 10 1 1 10 1 1 1 10 10 10 10 1 1 10 1 10 1 1 10 10 10 1 10 1 10 1 10 10 1 1 1 8 1 10 10 10 10 10 1 1 10 1 10 1 1 1 8 10 10 1 1 8 10 10 1 10 10 9 1 10 8 8 8 1 10 10 10 10 1 10 1 10 10 8 8 10 1 8 9 1 9 8 8 1 8 10 1 8 10 10 1 10 8 10 8 1 10 10 10 10 10 10 10 1 1 10 10 1 10 1 1 10 10 8 1 9 1 1 8 1 10 10 1 1 8 1 8 10 1 10 10 1 10 1 1 8 8 10 8 1 1 8 8 10 10 1 8 10 10 8 1 10 1 1 10 10 10 1 10 10 10 8 1 1 10 1 10 10 10 1 10 10 1 8 10 10 1 10 10 10 10 8 1 1 1 10 1 10 1 10 1 1 1 1 9 8 8 1 1 10 10 1 9 9 1 1 10 10 10 10 1 10 1 1 10 1 10 10 1 8 8 8 10 10 10 10 1 8 10 1 10 1 1 8 1 8 8 8 10 10 8 10 8 1 1 1 10 10 8 8 8 1 10 10 1 10 8 1
left_child=2 8 21 7 18 36 20 13 -2 10 11 34 39 14 19 31 17 24 99 123 22 231 74 30 38 97 27 29 142 40 100 35 -17 237 50 214 49 51 189 98 -9 53 -43 44 117 56 58 -23 54 89 59 81 -31 -28 91 -56 146 -45 115 289 63 145 -63 79 67 169 -67 -65 144 -26 90 200 121 80 75 78 -76 -77 283 190 -11 159 83 -83 85 106 87 -87 112 108 132 92 -37 119 232 230 154 101 259 -3 184 102 -16 -104 -78 -106 217 -108 194 -110 166 -112 -72 191 -81 -24 -38 208 -103 120 -20 122 -73 124 125 126 130 199 129 -129 -4 225 -50 -102 -95 136 137 -60 -71 266 -141 286 -29 174 -36 -18 -46 -35 149 -149 -143 181 153 196 155 -27 158 -158 207 160 161 282 298 -164 -161 -166 170 168 -168 -34 171 206 -173 -172 -120 -70 -167 179 -179 -127 209 182 -133 -74 185 186 -22 -187 -186 -12 -48 192 193 -41 -5 297 198 -198 -53 -125 201 -21 -203 204 281 -205 -44 -156 -25 -14 219 212 -212 -190 256 -216 220 -42 -160 -61 -217 -84 223 -47 -224 -49 -86 -228 -146 -230 -96 -1 -51 -210 -194 -93 -98 238 243 240 -239 -240 -243 -33 245 -101 -246 -111 -229 250 -169 252 -40 293 -193 -92 -8 -258 -170 -13 285 -262 -88 264 -185 -68 268 -268 269 272 271 -271 278 276 275 -275 277 -270 -39 -276 -278 -171 -15 284 -7 -261 -137 -90 -59 -10 -291 292 -227 -115 -295 -30 -297 -196 -162
right_child=1 4 3 5 -6 6 15 26 9 73 16 12 180 37 25 32 61 -19 93 71 23 47 46 43 69 96 41 28 295 52 -32 33 65 147 68 48 116 139 251 113 84 42 110 57 45 222 60 131 70 94 -52 152 -54 -55 55 -57 -58 288 135 210 -62 62 -64 64 -66 66 265 -69 175 138 88 72 183 -75 76 77 104 -79 -80 114 -82 82 221 -85 226 86 262 -89 287 -91 255 235 -94 134 95 -97 236 -99 -100 244 133 118 103 -105 105 -107 107 -109 109 247 111 -113 -114 253 -116 -117 -118 -119 143 -121 -122 -123 -124 127 -126 177 -128 128 -130 -131 -132 151 -134 -135 -136 141 -138 -139 -140 140 -142 150 -144 -145 228 -147 -148 148 -150 -151 -152 -153 -154 -155 156 -157 157 -159 218 164 162 -163 163 -165 165 176 167 249 258 203 173 172 -174 -175 -176 -177 -178 178 -180 -181 -182 -183 -184 263 188 187 -188 -189 213 -191 -192 254 234 -195 195 -197 197 -199 -200 -201 -202 202 -204 205 -206 -207 -208 -209 233 -211 211 -213 -214 -215 215 216 -218 -219 -220 -221 -222 -223 224 -225 -226 291 227 248 229 -231 -232 -233 -234 -235 -236 -237 -238 239 241 -241 -242 242 -244 -245 246 -247 -248 -249 -250 -251 -252 -253 -254 -255 -256 -257 257 -259 -260 260 261 -263 -264 -265 -266 -267 267 -269 273 270 -272 -273 -274 274 279 -277 280 -279 -280 -281 -282 -283 -284 -285 -286 -287 -288 -289 -290 290 -292 -293 -294 294 -296 296 -298 -299 -300
leaf_value=66.894499099729003 65.150199189025443 66.193798724364029 79.552496722102291 68.909398553468051 62.924999427795413 77.421748826981641 69.23019782714546 71.149798251315957 71.031248914241957 67.780998718255432 70.018098715218372 67.594598127750217 66.963999008174866 73.782797478866996 77.484998472215381 68.54429858704097 66.201899312587926 66.544399270624851 66.401799212663903 71.2787983886723 72.876048869325317 67.050749073032051 73.59359451523342 70.737198910512959 68.234999092097866 75.793098724746955 69.1708981109783 71.137999053951347 67.621999481203972 83.379694425272831 78.137098150157911 68.613398048973608 70.132998901372773 68.990097906487065 67.224999549864151 71.130999443051408 68.367448582476939 73.453543997954696 68.822748016362311 69.525199139397586 71.626198876190756 70.21519796446664 73.503697468924472 68.693499176017937 75.829499629972275 69.11094919567185 68.568798751069693 69.257498123194097 70.926198803726578 66.4451991088863 86.133499041676444 68.055048888397863 81.893999027251994 70.506299395766106 70.351748908997976 69.241749046370387 76.69519886951457 70.507598242198583 73.965497585295822 68.416649128531574 74.664548779677716 70.033999542234227 66.123248714447257 72.186698030280965 69.694748126983171 69.19829457397573 70.65394895057689 75.394497936248086 71.79084762993152 67.461598715255974 70.571148866205476 89.641996887922147 70.774496245860789 66.667999267578125 67.196799082946384 75.160693951892611 72.641197541044676 79.883496516227751 74.068098409081728 71.095947518158937 66.571998596191406 73.989999355317565 73.719599005125929 84.010798152160717 71.562149285897618 69.950598540210919 71.256998207091243 72.702998863236274 70.513148343420113 70.764898097967858 70.357998203276651 72.013298556511288 70.448999786376959 65.047099405666813 70.516199096488705 66.790998781203967 76.473498011112312 75.560799553108154 67.30444939879817 68.625998687744143 66.722198231506624 74.50749879264913 83.036598958873768 75.890098665619732 70.010247333531154 81.782394643401489 70.140748911856647 71.993398229217561 67.491048747254538 69.05759954681271 74.297048602771241 68.305998977660778 69.93674885560759 68.185399434661662 69.873848844913297 70.000899400323391 67.485949444584548 71.671049395762381 74.125997787469529 65.437098810565658 65.929048594669439 70.810698912430965 76.174448327827847 72.142248744962856 73.077597776794576 76.515798230838669 74.534499719619632 71.950498959064859 75.567498916620394 68.584648000573722 88.820900187944787 70.806198744583156 72.359098133468066 71.054996788018613 75.375498346328826 72.327696583559742 73.25079644317448 74.852548679304164 69.423499232649732 72.356949619340952 76.06654770083442 71.441093929672931 69.087496439934327 72.778395522689237 68.665849020384485 65.30759853208437 67.528748651981189 71.930099045181123 68.999297618103441 73.146299331021325 69.470197344588811 66.926199219515553 73.063146903610317 74.523299389552989 73.93919582824455 70.357394769287197 71.25639856109774 69.22799565887253 70.762098562627216 68.836999488831495 73.892795283510353 80.262198058891229 76.494596657180224 67.076598983668731 67.744797923279108 77.794397160148577 68.909999454498035 73.844249321936516 71.651997983932233 82.655998771667512 74.381695421977199 87.780994616747194 76.209998474359594 67.781498960495085 73.063996292115192 69.730597692867747 72.333399110427123 76.400298557469796 72.092998414993048 79.105397622680172 66.509349050908355 67.548198124696498 69.134449383546595 74.084296664432628 68.429999160766599 78.5167473859794 71.826198895275596 70.502999100685344 69.438648774719326 68.189098549270426 71.214798922720362 68.550998870842164 66.93459925689676 68.292499313340528 69.033898545836564 72.702998578071487 78.09454385490389 72.86269866638176 71.033948864747074 69.119898205376373 67.739698262023737 86.986394555187687 73.481598922634021 69.1562993042171 70.51999929046579 65.865249479770682 72.718849357748155 74.140596041105894 70.946998374938261 68.073699225234307 73.441748645782354 95.536996618747793 67.341998991966278 72.209499332428095 69.893699307227507 70.455648767086672 69.648998397833196 72.800599409488498 75.792998891830933 73.324498534202576 74.219099867250776 73.771599068069094 67.623997871398757 75.466698350718076 73.791196987911832 69.36404919548076 69.941198574827283 74.926348770523333 67.721248870849379 71.666999465941629 70.113598827504944 65.724899285892022 67.970999412533999 73.306348436736158 68.503549206926252 70.043248420720914 76.335749570130432 68.979198866652581 70.891597669982005 69.522898339852688 70.796348699950613 67.183999422072887 69.972999000549322 71.280549609364243 67.814499214175157 67.138298663333984 66.292498165124556 73.501999287843688 72.83299818038941 83.583499166488764 69.976998050689872 68.000999084475922 69.941599050903463 67.064998931885924 67.892598120123154 67.833598951721797 70.035999298095703 71.928199459839377 74.619698892403534 67.172199175643613 70.488498887062448 69.156398965453263 71.486749534599952 70.810496250152937 80.87779905815114 72.030248943329212 67.377949343490769 76.458694197464496 71.805547798347106 78.361296689700978 67.148699124145054 67.385199318218298 71.194199215713894 69.423497977734229 70.913799258420482 77.226798696708286 71.81149883270264 72.043798213193071 72.763399255374679 75.372295843792017 76.58064922866761 72.466598204040196 74.566598748588873 72.118899392685847 72.935999431608792 68.31789899787691 73.467548506928139 74.062999391555792 66.148496973037979 66.102649489975008 70.132998847961431 68.591899308777641 66.542999366761066 69.537749035357777 67.659248760223278 70.061398995964552 73.435297568512027 69.859198162856046 71.972048422999791
leaf_weight=846 8859 3208 30 1202 255900 343 4676 11073 93 1182 1131 1584 1860 164 160 6671 6251 4108 4942 364 4897 3545 564 4237 3225 211 2546 2208 472 26 23 114 2620 8758 820 2895 6907 721 2005 1748 244 2004 22 1778 606 107 247 3305 10192 641 22 393 33 4319 4295 7837 41 4212 199 139 81 1010 1355 141 315 251 81 74 627 7486 8339 20 62 4155 168 79 388 35 137 403 3052 400 794 21 5879 136 945 1620 41 38 400 1346 10576 7189 79 134 23 23 2471 1304 128 150 22 222 687 64 211 32 889 1267 103 290 4045 514 3443 1151 2747 7033 1549 19389 9477 211 257 815 464 28 21 94 1331 71 22 83 86 1945 21 373 503 23 30 33 23 237 147 166 1367 10671 35 193 359 26 248 2143 37 94 531 168 618 948 1203 195 467 48 116 136 84 52 230 255 135 25 338 20 20 43 1600 678 2577 166 32 27 2609 487 291 1602 224 43 2223 60 123 318 2032 2048 348 1665 671 28 37 217 379 93 138 22 26 11558 490 115 31 247 240 183 325 20 25 185 9866 4717 1210 853 34 90 138 34 215 186 344 303 384 317 123 228 34 2114 550 177 411 16405 65 316 907 3486 903 206 736 1543 1401 1477 2385 20 170 42 440 1972 27 620 2198 381 10130 168 77 396 178 997 2065 182 31 365 219 191 179 62 317 56 2598 110 2206 272 1023 571 986 71 69 448 82 5202 265 466 463 76 139 81 1720 2186 736 105 69 2086 54 2544 649
leaf_count=846 8859 3208 30 1202 255900 343 4676 11073 93 1182 1131 1584 1860 164 160 6671 6251 4108 4942 364 4897 3545 564 4237 3225 211 2546 2208 472 26 23 114 2620 8758 820 2895 6907 721 2005 1748 244 2004 22 1778 606 107 247 3305 10192 641 22 393 33 4319 4295 7837 41 4212 199 139 81 1010 1355 141 315 251 81 74 627 7486 8339 20 62 4155 168 79 388 35 137 403 3052 400 794 21 5879 136 945 1620 41 38 400 1346 10576 7189 79 134 23 23 2471 1304 128 150 22 222 687 64 211 32 889 1267 103 290 4045 514 3443 1151 2747 7033 1549 19389 9477 211 257 815 464 28 21 94 1331 71 22 83 86 1945 21 373 503 23 30 33 23 237 147 166 1367 10671 35 193 359 26 248 2143 37 94 531 168 618 948 1203 195 467 48 116 136 84 52 230 255 135 25 338 20 20 43 1600 678 2577 166 32 27 2609 487 291 1602 224 43 2223 60 123 318 2032 2048 348 1665 671 28 37 217 379 93 138 22 26 11558 490 115 31 247 240 183 325 20 25 185 9866 4717 1210 853 34 90 138 34 215 186 344 303 384 317 123 228 34 2114 550 177 411 16405 65 316 907 3486 903 206 736 1543 1401 1477 2385 20 170 42 440 1972 27 620 2198 381 10130 168 77 396 178 997 2065 182 31 365 219 191 179 62 317 56 2598 110 2206 272 1023 571 986 71 69 448 82 5202 265 466 463 76 139 81 1720 2186 736 105 69 2086 54 2544 649
internal_value=0 -0.0380408 0.0509836 0.0541606 -0.0465847 0.0467596 0.0494483 0.0754107 -0.00671946 -0.00290447 0.000664728 0.0126957 0.00388182 0.090931 0.10389 0.0443514 -0.0074882 0.00255513 -0.030011 0.125601 0.0643789 -0.00317466 0.0754968 0.057599 0.0119365 0.0869182 0.0634278 0.0684251 0.0476444 0.072728 0.0726549 0.0468223 0.0317716 0.0364535 0.0410019 0.0486822 0.018718 0.0800725 0.0306333 0.0137249 0.0722366 0.050229 0.0660494 0.0498709 0.0559255 0.0875489 0.0636861 0.00382381 0.051675 0.0298692 0.0638614 0.0926424 0.272034 0.0408958 0.0482839 0.0395153 0.122688 0.0367405 0.0798064 0.0619133 0.0545805 -0.018052 0.00243128 0.0532306 0.0971698 0.0381726 0.0762554 0.183333 0.0259149 0.00241372 0.0579372 0.0975214 0.106842 -0.0311658 0.0921117 0.0975004 0.0678271 0.213158 0.0952833 0.0494286 -0.0204289 0.0989947 0.122938 0.185499 0.0801492 0.0890436 0.079711 0.101472 0.0515506 0.0360489 0.065051 0.0516911 0.0578926 -0.0343727 0.00146035 0.0552631 0.0681616 0.106202 0.000721063 -0.0117391 0.0719984 0.105337 0.14802 0.2 0.0790606 0.0570959 0.120741 0.0693416 0.0351835 0.0193934 0.0869163 0.0466921 0.0507752 0.0218467 0.0396006 0.0592754 0.00934395 0.0518225 0.100361 -0.0322527 -0.0266789 0.14877 0.185192 0.150843 0.177848 0.25506 0.388356 0.142596 0.160159 0.0954545 0.488462 0.0101949 0.0675641 0.0541968 -0.0443135 0.096644 0.122414 0.176293 -0.00395962 0.0708706 0.182143 0.0832324 0.0707188 0.0972096 0.0142238 -0.0209254 0.113807 0.0259148 0.0589965 0.118122 0.0530928 -0.00272065 0.0614952 0.0571428 0.0661616 0.105673 0.0619799 0.0442259 0.0751852 0.0924508 0.108243 0.162171 0.094775 0.0412698 0.083425 0.0875321 0.0970054 0.0816232 0.0495475 0.0364578 0.130785 0.208065 0.325 0.115354 0.100524 0.0488506 0.0907379 0.22668 0.25303 0.131818 -0.0295787 0.0206085 0.0516043 0.0965104 0.0767569 0.0791707 0.0776685 0.18301 0.043985 0.0606922 0.0655526 0.0254336 0.0340507 0.0405362 0.0429134 0.0500615 0.0494152 0.0917323 0.0354922 0.110675 0.05625 0.0762136 0.241667 0.033386 0.0573998 0.0313575 0.119811 0.102919 0.0414451 -0.0161471 0.10025 0.125 0.118571 0.0733766 0.0421721 0.046353 0.0553586 0.133227 0.0570569 0.0525104 0.0610196 0.0878282 0.0573086 0.0933447 0.0394454 0.0161315 0.0722222 0.0958094 0.0255208 0.0611111 0.132927 -0.0340067 -0.00969774 0.0770983 0.00533596 0.0469258 0.165909 0.0483457 0.0578152 0.0413921 0.0610659 0.041716 0.02431 0.075075 -0.00522276 0.00535649 -0.0129874 0.0367386 0.128068 0.101967 0.0953237 0.0196313 0.031048 -0.00107035 0.0168468 0.0315423 0.0377521 0.0418219 0.0915094 0.0104517 0.0210796 0.0351064 0.0667218 0.0998622 0.105542 0.106798 0.0702984 0.0353658 0.0718483 0.0637131 0.0097701 0.0789062 0.0691638 0.0804155 0.0678344 0.107068 0.0976782 0.120667 0.0871578 0.0615503 0.0827839 0.0876811 0.141057 0.0933735 0.121053 0.00220416 0.100718 0.138034 0.0457349 0.0497888 0.0460577 0.00672333 -0.0115015 0.0180516 0.0649425 0.0264683 0.0330232 0.0489113 0.107706
internal_weight=0 390358 289448 273409 306693 202807 185056 70602 83665 74806 66417 26828 20470 30732 14049 137990 39589 20302 50793 6109 47066 16039 17865 29201 16194 7940 39870 28955 4967 23988 9851 115366 22624 17547 6358 97819 17751 16683 5453 15818 23929 10915 4050 19350 13221 1534 10497 13079 66914 8097 2515 6976 59 6865 43354 12132 682 6129 3761 2493 6736 19287 2365 6655 530 15953 697 215 3843 10741 23560 2915 2365 8389 7368 6061 1307 114 5947 6125 4234 5819 1249 421 12856 6106 4766 1756 12501 6659 11059 31222 13471 41018 1438 247 4048 3892 6092 9775 9828 3869 404 244 1139 751 1340 243 6621 2176 2046 393 12384 9726 3846 1715 9654 11687 3465 33808 14419 488 277 3194 790 326 73 2404 1496 165 52 9534 10278 2073 7210 2046 725 222 7516 9707 56 1321 2355 3315 2538 16922 641 9336 578 219 485 3004 1157 1120 3960 379 3581 1566 2015 4570 1662 294 1368 252 2908 2713 1653 1179 442 15256 474 93 40 381 3149 1305 2629 253 198 55 4652 861 374 1877 7755 7223 7120 103 532 1449 2279 8418 4172 3413 4445 3243 1026 254 772 908 550 412 48 12636 963 11673 53 778 4654 2043 599 370 350 308 30905 15931 6065 1097 1237 229 4855 828 852 293 559 6530 6750 871 1718 351 113 2960 1191 417 759 17751 88 8211 3506 4705 1219 1849 942 1657 6567 2781 3786 1287 487 737 695 4004 2032 1308 4246 781 14974 10298 212 3621 2037 1175 3010 1815 1633 446 9651 410 9241 4740 435 118 4305 4501 2659 382 1842 750 1707 2277 1092 473 246 5810 608 862 836 117 4351 1894 1801 3225 1039 688 174 2612 2140 3215 1116
internal_count=679806 390358 289448 273409 306693 202807 185056 70602 83665 74806 66417 26828 20470 30732 14049 137990 39589 20302 50793 6109 47066 16039 17865 29201 16194 7940 39870 28955 4967 23988 9851 115366 22624 17547 6358 97819 17751 16683 5453 15818 23929 10915 4050 19350 13221 1534 10497 13079 66914 8097 2515 6976 59 6865 43354 12132 682 6129 3761 2493 6736 19287 2365 6655 530 15953 697 215 3843 10741 23560 2915 2365 8389 7368 6061 1307 114 5947 6125 4234 5819 1249 421 12856 6106 4766 1756 12501 6659 11059 31222 13471 41018 1438 247 4048 3892 6092 9775 9828 3869 404 244 1139 751 1340 243 6621 2176 2046 393 12384 9726 3846 1715 9654 11687 3465 33808 14419 488 277 3194 790 326 73 2404 1496 165 52 9534 10278 2073 7210 2046 725 222 7516 9707 56 1321 2355 3315 2538 16922 641 9336 578 219 485 3004 1157 1120 3960 379 3581 1566 2015 4570 1662 294 1368 252 2908 2713 1653 1179 442 15256 474 93 40 381 3149 1305 2629 253 198 55 4652 861 374 1877 7755 7223 7120 103 532 1449 2279 8418 4172 3413 4445 3243 1026 254 772 908 550 412 48 12636 963 11673 53 778 4654 2043 599 370 350 308 30905 15931 6065 1097 1237 229 4855 828 852 293 559 6530 6750 871 1718 351 113 2960 1191 417 759 17751 88 8211 3506 4705 1219 1849 942 1657 6567 2781 3786 1287 487 737 695 4004 2032 1308 4246 781 14974 10298 212 3621 2037 1175 3010 1815 1633 446 9651 410 9241 4740 435 118 4305 4501 2659 382 1842 750 1707 2277 1092 473 246 5810 608 862 836 117 4351 1894 1801 3225 1039 688 174 2612 2140 3215 1116
cat_boundaries=0 1 2 3 4 5 6 7 8 9 10 11 12 13 14 15 17 18 19 21 23 24 26 28 30 32 34 36 38 40 42 44 46 48 49 51 52 54 55 57 59 61 63 65 66 68 70 72 73 74 75 77 79 80 81 83 84 86 88 89 91 93 94 96 98 99 101 102 104 106 107 109 111 113 115 117 118 120 121 122 124 126 127 129 130 132 133 135 137 139 140 141 142 144 145 147 148 150 151 153 155 157 158 160 162 164 166 168 170 171 173 174 176 178 179 180 181 183 185 187 189 191 192 194 196 198 200 202 204 206 208 210 212 213 215
cat_threshold=20792 270337 64 4112 65536 32 40 40 64 2 8192 2 16 262145 2 190146741 413 2 32 1103806501 469 540571281 34 8 2016955795 122 775083334 284 2189558723 80 3886116934 116 1040389165 266 1011089677 67 110716396 195 324316753 193 1073971824 194 222546025 145 2594256816 330 154855178 252 264 386138146 348 16384 546341904 91 2 1276556290 408 2147626064 280 470024192 329 235144538 32 3692213385 269 605040010 355503136 10 677381060 82 1126402242 132 10617344 262144 471924826 3223355534 7 272893953 1 2 16 1458249 1 264 10112032 172 67134724 129 40 555974922 201 671744 145 9987264 75565057 256 1191477578 64 45 2436104629 36 8 1400869 256 134561825 272 4120 536936576 8 1077936450 145 451677185 308 268570369 384 2684422144 10 2349476160 83964484 261 8 13008940 2235564608 129 4194304 65 303071745 0 1 1082392740 1048576 293 2 1343752195 56 2164581186 48 2556555748 133 2 264 48 3801874562 262 67190796 303343680 1 8 1162687492 128 2 604176392 8 3686416 2 4210698 1 1073840448 1082327040 129 1596203564 288 1611679757 4 2165571600 64 542123051 88 100672868 66 1141112906 1118830978 356 20 2793422912 48 2233466880 4 18874368 17 43 2325219920 292 34628645 6 2209617027 280 3769107860 12 3492552966 96 805568520 138627072 128 209867012 278 1207959564 12 676096 46 2894135564 256 540800 8 1078493216 464 73 1 2684422272 8 257 132 3221225985 50340928 128
shrinkage=1


Tree=1
num_leaves=300
num_cat=8
split_feature=20 20 12 11 20 12 10 10 7 7 6 6 10 20 13 20 7 10 12 7 10 10 7 12 6 6 12 11 11 13 13 15 15 7 10 15 13 7 6 10 11 15 13 7 13 15 10 7 13 6 10 12 13 15 6 7 11 12 6 15 7 6 7 7 10 10 15 11 7 13 6 13 11 7 7 6 15 7 10 10 15 7 12 6 15 12 13 6 10 7 7 12 13 12 15 7 13 6 13 12 13 15 7 12 11 15 12 13 15 15 7 13 15 13 6 13 7 12 10 11 7 10 6 12 7 13 10 7 13 7 7 10 12 10 6 12 10 12 12 15 10 15 11 7 10 15 7 13 10 13 13 15 15 6 7 13 6 15 11 6 13 7 13 11 10 11 11 12 6 7 10 13 12 6 13 12 7 15 7 15 20 13 11 7 11 6 10 12 7 11 6 13 10 12 12 11 12 10 10 15 12 15 12 12 13 11 11 6 10 10 12 13 7 13 7 11 10 15 10 13 6 7 13 11 11 15 10 13 13 20 15 15 12 11 6 12 12 7 15 12 15 20 12 6 11 7 13 7 6 6 15 12 7 11 7 11 7 7 12 15 7 15 12 11 12 12 7 12 7 10 6 10 11 10 13 12 11 10 12 7 12 12 6 12 10 7 15 12 12 6 7 13 13 11 7 6 12 10 6
split_gain=1844.66 160.965 33.877 26.9951 14.4354 11.9481 8.63676 4.80146 4.00961 2.89147 2.86835 2.80984 2.49216 2.3827 2.32736 2.31056 2.20943 2.20715 2.07698 1.85867 1.79864 1.78271 1.73701 1.61115 1.59096 1.53359 1.46994 1.74913 1.36364 1.95816 1.7683 1.56815 1.38026 1.31558 2.24845 1.9696 1.54397 1.30813 1.20459 1.19073 1.14064 1.37761 1.39056 1.24585 3.61618 1.32545 1.20737 1.11423 1.10701 1.0726 1.3517 1.06721 1.26725 1.19373 1.06402 1.054 1.05097 1.34354 2.15815 1.64224 1.68538 1.41634 1.20895 1.85364 1.46414 1.38796 1.39468 1.15775 1.07879 1.04856 1.04298 1.04185 1.25856 0.978543 0.976836 0.975699 0.942711 1.00191 1.42315 0.930559 0.91321 2.60049 1.92328 1.35506 1.14308 0.910671 1.32044 0.903703 0.90209 1.43815 1.7291 1.55492 0.897076 0.888285 1.15966 1.05581 1.74953 1.51487 1.19379 0.871906 0.860074 0.956974 1.08922 0.85762 0.855397 0.839949 0.835445 0.831471 1.02085 1.00983 0.822676 0.821531 1.4264 0.818287 1.17788 0.806763 0.920593 1.88118 0.968067 0.84637 0.953305 0.804044 0.799112 0.861684 1.11835 0.791972 0.788215 0.787815 0.785205 0.882702 0.951852 0.78342 0.780651 0.780485 0.778152 0.757513 1.03058 0.747997 0.813991 1.51449 0.741869 1.53917 0.930662 0.795653 1.07444 0.740755 0.738366 0.827108 0.738318 0.73775 0.715521 1.05164 0.708004 1.29387 0.736971 0.728194 0.767011 0.707143 0.705811 0.68492 0.681847 0.676894 0.672696 0.692004 1.05092 0.668873 0.659322 0.797065 1.24261 0.657392 0.654695 0.649624 0.649174 0.712353 0.646004 0.729628 0.634302 1.14598 0.633037 0.627013 0.626784 0.626153 0.938983 0.779767 1.29509 0.671461 0.638423 0.61322 0.606611 0.605266 0.845423 0.612117 0.608515 0.889259 0.666983 0.600867 0.782021 0.596669 0.593835 0.593822 0.584152 1.29423 0.581928 1.13288 0.97782 0.924894 1.01551 0.703642 0.581468 0.581092 0.579933 0.690397 1.23077 0.653333 0.579267 1.27599 1.11647 1.01464 0.995413 1.06492 0.786747 0.570898 0.582751 0.570856 0.569359 0.684143 0.805976 0.566954 0.563902 0.563563 0.559442 0.550041 0.549268 0.545125 0.544686 0.544593 1.7855 0.689623 0.54082 0.936642 0.536274 0.530906 0.523616 1.09011 1.10607 1.08129 0.825199 0.866577 0.761573 0.523385 0.893236 0.840048 0.517457 0.515165 0.509958 0.716408 0.508067 0.727813 0.502519 0.542743 0.501827 0.596046 0.833333 0.499781 0.728763 0.498188 0.497206 0.495141 0.491169 0.488067 0.490876 0.48682 1.11746 1.06905 0.484402 0.483386 0.478341 0.673653 0.474891 0.937736 0.473339 0.46972 0.453376 0.451229 0.782967 0.550552 0.641386 0.530698 0.451543 0.97388 0.524712 0.446241 0.595096 0.442627 0.440933 0.440391 0.440098 0.50381 0.436457
threshold=0 1 22.500000000000004 14.500000000000002 2 35.500000000000007 3.5000000000000004 6.5000000000000009 17.500000000000004 73.500000000000014 6.5000000000000009 19.500000000000004 11.500000000000002 3 5.5000000000000009 4 2.5000000000000004 21.500000000000004 20.500000000000004 86.500000000000014 7.5000000000000009 5.5000000000000009 5.5000000000000009 1.0000000180025095e-35 16.500000000000004 10.500000000000002 1.5000000000000002 63.500000000000007 2.5000000000000004 4.5000000000000009 4.5000000000000009 31.500000000000004 6.5000000000000009 1.5000000000000002 1.5000000000000002 3.5000000000000004 16.500000000000004 37.500000000000007 17.500000000000004 4.5000000000000009 10.500000000000002 2.5000000000000004 14.500000000000002 64.500000000000014 3.5000000000000004 1.5000000000000002 1.0000000180025095e-35 6.5000000000000009 1.5000000000000002 8.5000000000000018 16.500000000000004 1.0000000180025095e-35 8.5000000000000018 16.500000000000004 34.500000000000007 52.500000000000007 8.5000000000000018 13.500000000000002 11.500000000000002 14.500000000000002 61.500000000000007 10.500000000000002 16.500000000000004 48.500000000000007 8.5000000000000018 18.500000000000004 13.500000000000002 48.500000000000007 4.5000000000000009 15.500000000000002 18.500000000000004 3.5000000000000004 12.500000000000002 60.500000000000007 27.500000000000004 32.500000000000007 2.5000000000000004 18.500000000000004 5.5000000000000009 23.500000000000004 12.500000000000002 17.500000000000004 42.500000000000007 5.5000000000000009 15.500000000000002 74.500000000000014 1.0000000180025095e-35 12.500000000000002 1.0000000180025095e-35 40.500000000000007 23.500000000000004 6.5000000000000009 10.500000000000002 11.500000000000002 10.500000000000002 9.5000000000000018 5.5000000000000009 3.5000000000000004 4.5000000000000009 2.5000000000000004 3.5000000000000004 4.5000000000000009 34.500000000000007 2.5000000000000004 11.500000000000002 13.500000000000002 53.500000000000007 7.5000000000000009 11.500000000000002 2.5000000000000004 1.5000000000000002 22.500000000000004 19.500000000000004 14.500000000000002 41.500000000000007 6.5000000000000009 12.500000000000002 57.500000000000007 1.5000000000000002 6.5000000000000009 23.500000000000004 2.5000000000000004 4.5000000000000009 62.500000000000007 3.5000000000000004 5.5000000000000009 15.500000000000002 3.5000000000000004 10.500000000000002 1.5000000000000002 3.5000000000000004 16.500000000000004 61.500000000000007 1.0000000180025095e-35 4.5000000000000009 71.500000000000014 4.5000000000000009 89.500000000000014 93.500000000000014 2.5000000000000004 2.5000000000000004 10.500000000000002 2.5000000000000004 18.500000000000004 1.5000000000000002 6.5000000000000009 6.5000000000000009 6.5000000000000009 5.5000000000000009 6.5000000000000009 2.5000000000000004 5.5000000000000009 4.5000000000000009 2.5000000000000004 5.5000000000000009 1.5000000000000002 4.5000000000000009 20.500000000000004 7.5000000000000009 4.5000000000000009 3.5000000000000004 9.5000000000000018 33.500000000000007 7.5000000000000009 3.5000000000000004 2.5000000000000004 6.5000000000000009 13.500000000000002 26.500000000000004 7.5000000000000009 9.5000000000000018 7.5000000000000009 6.5000000000000009 20.500000000000004 1.5000000000000002 1.5000000000000002 6.5000000000000009 2.5000000000000004 1.0000000180025095e-35 6.5000000000000009 5 5.5000000000000009 80.500000000000014 1.5000000000000002 71.500000000000014 6.5000000000000009 4.5000000000000009 32.500000000000007 8.5000000000000018 13.500000000000002 14.500000000000002 15.500000000000002 1.5000000000000002 48.500000000000007 93.500000000000014 5.5000000000000009 75.500000000000014 12.500000000000002 2.5000000000000004 9.5000000000000018 19.500000000000004 28.500000000000004 6.5000000000000009 5.5000000000000009 6.5000000000000009 58.500000000000007 53.500000000000007 2.5000000000000004 3.5000000000000004 18.500000000000004 8.5000000000000018 2.5000000000000004 59.500000000000007 2.5000000000000004 5.5000000000000009 73.500000000000014 3.5000000000000004 4.5000000000000009 1.5000000000000002 13.500000000000002 1.5000000000000002 5.5000000000000009 2.5000000000000004 1.5000000000000002 44.500000000000007 3.5000000000000004 25.500000000000004 7.5000000000000009 14.500000000000002 6 2.5000000000000004 7.5000000000000009 43.500000000000007 57.500000000000007 4.5000000000000009 15.500000000000002 12.500000000000002 3.5000000000000004 10.500000000000002 17.500000000000004 31.500000000000004 7 48.500000000000007 10.500000000000002 5.5000000000000009 2.5000000000000004 12.500000000000002 15.500000000000002 8.5000000000000018 12.500000000000002 10.500000000000002 56.500000000000007 31.500000000000004 5.5000000000000009 52.500000000000007 36.500000000000007 83.500000000000014 73.500000000000014 30.500000000000004 28.500000000000004 47.500000000000007 5.5000000000000009 23.500000000000004 5.5000000000000009 8.5000000000000018 8.5000000000000018 19.500000000000004 24.500000000000004 8.5000000000000018 13.500000000000002 7.5000000000000009 14.500000000000002 3.5000000000000004 10.500000000000002 4.5000000000000009 62.500000000000007 2.5000000000000004 2.5000000000000004 15.500000000000002 34.500000000000007 41.500000000000007 4.5000000000000009 1.5000000000000002 18.500000000000004 6.5000000000000009 87.500000000000014 9.5000000000000018 13.500000000000002 12.500000000000002 1.0000000180025095e-35 1.5000000000000002 26.500000000000004 19.500000000000004 31.500000000000004 43.500000000000007 4.5000000000000009 3.5000000000000004 10.500000000000002 13.500000000000002
decision_type=9 9 10 10 9 10 10 10 10 8 10 10 10 9 10 9 10 10 10 10 10 10 8 10 10 10 10 10 8 8 8 8 10 10 8 8 10 8 10 10 8 10 10 10 8 10 10 8 8 10 10 10 10 10 10 10 8 8 8 10 10 10 10 10 10 10 8 8 8 10 10 10 10 8 8 10 8 8 10 10 10 8 10 8 10 10 10 10 10 8 10 10 10 8 10 10 10 10 8 10 8 10 8 10 10 8 10 8 10 8 10 8 10 10 10 10 8 10 10 8 10 10 10 10 10 10 8 10 10 8 8 10 10 10 8 10 8 10 10 8 10 10 10 8 8 10 8 10 10 10 8 10 8 8 10 8 8 10 10 10 10 8 8 10 10 8 10 8 10 10 10 8 10 10 8 10 10 10 10 10 9 10 10 10 10 10 10 8 8 10 10 10 8 10 10 10 10 10 10 10 10 8 10 10 10 10 10 10 8 10 10 10 10 10 8 10 8 8 8 8 8 8 10 10 8 10 10 10 8 9 8 8 10 10 10 10 10 10 10 8 10 9 10 10 10 10 8 8 10 10 10 10 8 10 8 10 10 10 8 8 8 10 8 10 10 10 10 10 8 10 8 10 10 10 10 10 10 10 10 10 10 10 8 8 10 10 8 10 10 10 8 10 10 10 8 8 10 10 10
left_child=5 18 3 4 20 7 8 11 14 87 22 19 74 75 23 200 -15 24 49 26 76 85 104 133 56 146 27 28 30 31 32 71 198 51 35 -35 -36 172 -27 88 41 46 140 55 45 -45 128 160 165 50 111 53 -53 -31 121 214 93 69 59 60 61 92 65 209 -65 66 68 -63 -60 100 131 72 -30 -73 180 240 77 78 -3 80 115 -82 157 -84 -85 135 -87 170 89 90 91 105 -59 94 95 98 97 253 -9 -100 101 269 -103 -46 122 -13 -86 231 109 -109 149 278 162 114 166 119 117 118 -117 125 152 189 -7 -124 -125 137 -114 -67 129 -28 -131 132 145 223 -101 136 232 195 139 -139 143 142 -142 144 -43 298 -19 224 293 174 151 -29 153 -121 -155 -154 -157 -83 187 -105 197 -68 163 164 -113 -21 258 -168 -169 -119 233 -39 173 -26 -78 199 181 -178 -16 -145 -8 182 185 184 -183 -152 -184 228 -135 192 191 268 193 -20 -195 234 -197 296 230 -176 -11 -202 203 207 -205 206 -204 -102 276 266 211 212 -57 -212 215 217 -217 -42 219 -216 -220 222 -189 -6 260 226 -226 -76 -95 -10 -1 -32 -12 241 -24 236 237 -48 -52 -240 -4 282 243 248 246 249 -245 -248 -138 250 251 -244 -128 -97 -254 -256 257 -33 -91 -260 -148 262 -262 264 -130 -265 -64 -194 -191 270 -58 273 -273 -223 -270 -247 277 -79 -2 -280 -246 -213 -5 287 285 286 -285 288 290 -290 -164 292 -118 -17 -14 -279 -22 -298 -23
right_child=1 2 13 9 6 10 12 17 229 15 21 39 294 16 178 148 -18 25 54 48 47 70 79 -25 37 38 40 150 29 33 107 256 -34 34 36 -37 -38 171 -40 -41 43 42 -44 44 103 -47 235 -49 -50 -51 238 52 -54 -55 -56 210 57 58 62 -61 -62 67 63 64 -66 127 161 -69 -70 -71 -72 73 -74 -75 227 -77 110 208 -80 -81 81 82 83 84 106 86 -88 -89 -90 113 -92 -93 -94 158 -96 96 -98 -99 99 134 202 102 -104 159 -106 -107 -108 108 -110 -111 -112 112 126 -115 -116 116 291 169 -120 120 -122 -123 123 124 -126 -127 252 -129 263 130 -132 -133 -134 188 -136 -137 242 138 -140 -141 141 -143 -144 179 -146 -147 147 -149 -150 -151 176 -153 155 154 -156 156 -158 -159 -160 -161 -162 -163 283 -165 -166 -167 167 168 -170 -171 -172 -173 -174 -175 175 -177 177 -179 -180 -181 -182 183 186 -185 -186 -187 -188 221 -190 190 -192 -193 267 194 -196 196 -198 -199 -200 -201 201 -203 205 204 -206 -207 -208 -209 -210 -211 213 281 -214 -215 218 216 -218 -219 220 -221 -222 271 -224 -225 225 -227 -228 -229 -230 -231 -232 -233 -234 -235 -236 -237 -238 -239 239 -241 -242 -243 245 244 280 275 247 -249 -250 -251 -252 -253 254 -255 255 -257 -258 -259 259 -261 261 -263 -264 265 -266 -267 -268 -269 274 -271 -272 272 -274 -275 -276 -277 -278 295 279 -281 -282 -283 -284 284 -286 -287 -288 -289 289 -291 -292 -293 -294 -295 -296 -297 297 -299 -300
leaf_value=13.808431641172916 3.0943019586796798 2.769124574532368 -0.71634020814478427 2.2515274910191834 0.14963652298534599 6.4817848044317943 0.36170884950936844 6.6145939315608118 -0.10535571655770344 -0.36404969410193783 20.917620923457136 9.6461602585431567 -1.5341607040348091 -2.7165931882634937 -0.9968289595332005 -1.4951828520891624 -1.8854205166290727 6.9966348991743743 5.2413642169569901 17.602550653427492 4.0582748846245371 10.864828067611874 9.7085303093362114 -0.43987479910984129 15.384472100197057 18.810179921588666 14.809797617996569 10.838360358680438 13.373422262904951 14.182642499034593 0.20224499207271249 12.01195652820396 11.533712321599062 21.268685896888726 13.015905731142238 20.215980102063135 10.580027013202981 13.016492678653046 21.059497716070627 21.391933319960543 12.579169473571415 14.46957579890692 16.782140097461674 10.26516118257255 18.262671917819027 0.18876011851961894 10.801295859688517 -0.46858712045697937 12.883709008446401 4.1689756862827574 0.38691304731979831 13.107746380812983 16.81041400387641 12.881587628430891 12.367910404271978 22.286345017908857 15.222691543330894 11.866609983151273 5.0047164179913626 11.732079689540756 22.556640583820098 20.003755344785304 -0.24953619628103768 6.4893203550192373 11.473839082528043 4.9281768348407216 13.636128835190588 24.445231254236191 10.15250005185765 5.1708166019384771 11.924713135342129 17.340647694534336 12.904369288004913 8.2643269812956568 -1.0645936974969548 3.3412586218959941 -0.11984355876470106 2.6399722541185575 3.2973436103751661 4.2210649629406412 4.2234935819624964 7.8276037678983617 8.5496727941585267 17.619222470909072 17.596321014996189 2.9135354692297861 20.620238084872284 -0.34398876873202977 9.3209915849965039 6.1026673771480624 28.019406246543085 10.284889597716342 6.9390223985186843 8.6680908056091823 10.06566805048581 11.578882207226144 8.4186771156039288 18.742827340792829 12.966152328808841 17.738904429204815 12.315643704941285 6.5554369696283263 15.019887171340876 14.628754288130603 20.298329004737315 9.6798672386203144 14.870967501952101 15.369425065611166 3.8913365516476581 12.480976287344369 0.52549875149069381 10.759354635675216 2.7102906427478874 25.636755387562769 12.352599440035799 12.691106227774112 6.5057429786958458 7.9303193205204465 15.291000399146249 7.6910914540625726 15.876834099268027 1.1938279566170087 3.0920199593058952 14.0090984157004 8.683699001179674 15.558903278141106 6.0683430252043546 16.813249693120188 16.59089302862402 16.627377941735439 13.304765352647852 1.414869608297155 2.2167405671905129 0.033882177352919769 10.044162119860417 18.72652997780547 13.411850527516785 9.6737848199313508 8.7845400902377673 11.04811169007734 13.263686590413986 11.426170000999106 11.244899847211837 10.152456310466734 15.061112762364054 9.3176099765758789 13.540920617346814 0.15183306670262944 -2.7065256428548938 0.30607200955396063 7.4354789691152563 15.200399955916309 7.5693699656008437 9.9873662357605504 8.0946786440573497 8.1222888782352829 8.4382706720031972 10.735700301174873 3.3591096714272832 15.159386504439178 -0.30786634889327169 9.6781990748793731 7.5367107565090325 2.7542397874948081 1.9802494762416967 13.93172376550493 28.990125769334902 17.102663113146299 4.9858563797331463 0.37259766433938163 -1.9113589866109189 8.2458994504100485 12.830324071335651 20.711176990192765 2.6499838911861171 1.2466100430962872 6.0451965780583121 0.90486547924402538 -0.53769046496370698 10.842503601427548 -0.79973640623574538 8.0419795722810878 10.998328597036666 11.959990671258478 11.731506318253786 8.0672319721698607 17.040617733638548 3.3914628857043549 -0.66046814165209833 -1.8619073650352356 7.1193595545866746 4.6222385561862316 -0.79239726943784916 1.7824023182740771 6.7150424473461801 8.4588172193088678 17.119414034892557 2.0941214566345225 19.607856762755176 0.024017103566059378 2.2308101375702982 -0.37551404339474825 7.5076413994054976 10.509983765810246 11.903946467776267 14.509127717851891 2.497913489550458 7.0554325309886297 1.3104755249351854 11.04539129760853 4.0127072503986421 19.206618562839921 13.35982597189563 14.954544855839893 8.1772750088203789 6.6521594825200525 10.186427405368882 13.87202781715642 15.482246033523973 12.856686285950051 10.635320394895817 10.829224007589023 12.905349744005264 -0.31863237620510176 9.3491874638538022 -0.11277407989374549 3.606654639994725 -1.5138758486053778 1.4043815958896437 -0.91655392376482592 11.102580040511075 9.5264414348891613 15.238107279859191 -1.4469044127384865 7.9767734583747361 2.6933241578836644 15.920106531034163 6.6598880312289284 3.3116802595076535 2.5525377913217131 4.1538091342799213 -1.1514803162838587 12.924924384418716 6.2265834774428832 15.137662074629274 6.4767513674544688 6.2243824870706259 19.243020905589763 4.7899872419955853 12.877263363678972 18.89002272783592 14.806582712188584 7.1590092131551746 13.210394188480207 7.6994907904711063 6.5817674765988006 11.718603188413221 17.151349989510333 15.282570064751008 13.496570757816921 0.75860020122032279 12.562693372540892 5.0750202867248424 -1.2941097925556733 7.6191628155268152 13.577240471486244 10.111524861729722 2.128639639887 6.5152074955970001 -0.48666449610881996 15.948314551924865 17.897730312789516 6.5262773560699969 7.494159013259531 -1.0230683196810704 8.5549818147601293 -0.14498406597547345 11.878421984359644 3.5765960619552466 6.5047957286950222 18.598108158033877 4.8110938920779418 0.28902003422248584 4.7127521400403491 2.0699952145102265 2.3116446104279289 4.2325177746683016 1.7893018106063221 6.4813239174741186 2.6487008161673002 3.2756935828066349 11.299172162051052 3.631718844699078 -2.1469953002054707 -2.051721105343828 12.19042253695549 1.2871275231968935 1.5318454083062898 3.9259014256163862
leaf_weight=97 9030 561 5176 36 46036 880 1425 52 3199 3371 22 20 11680 85939 20304 6819 30881 24 30 35 85 106 405 63355 31 23 52 332 588 3190 28 761 23 33 2809 125 167 28 21 30 226 23 27 37 30 36 307 2219 852 3438 540 298 33 203 23 26 23 537 46 35 38 23 25 34 70 85 153 28 340 59 30 70 60 93 38599 26 392 234 29 37 55 35 21 48 33 37 20 3526 41 39 24 24 115 32 33 29 38 37 50 40 302 29 35 157 31 47 28 150 34 531 6025 62 69 33 20 34 388 23 36 53 23 2056 20 32 30 33 34 20 20 79 673 26 53 7352 147 29 43 26 55 58 62 27 152 221 237 58 27 53 20101 945 281 28 91 242 36 269 1179 20 80 21 133 460 221 60 21 92 28 51 25 29 5745 105 20 28 2467 1414 47 32 15429 211 26065 54 1002 43 85 61 20 33 11783 39 40 32 81 233 37 59 20 85 62 225 20 34 506 73 23 32 26 211 879 28 50 23 26 30 102 48 131 629 157 121 3615 211 32 16755 28 41 67 9539 50 57672 240 47 92 21771 51 20 28 262 34 87 20 17510 21 28 22 71 25 46 35 70 22 82 23 20 87 27 21 42 32 54 20 22 40 22 27 24 144 3025 172 24 50 21 45 103 41 25 74 24 155 28 26 40 900 1410 739 513 3308 342 70 41 3732 26 29 53899 17283 33 54 21 32
leaf_count=97 9030 561 5176 36 46036 880 1425 52 3199 3371 22 20 11680 85939 20304 6819 30881 24 30 35 85 106 405 63355 31 23 52 332 588 3190 28 761 23 33 2809 125 167 28 21 30 226 23 27 37 30 36 307 2219 852 3438 540 298 33 203 23 26 23 537 46 35 38 23 25 34 70 85 153 28 340 59 30 70 60 93 38599 26 392 234 29 37 55 35 21 48 33 37 20 3526 41 39 24 24 115 32 33 29 38 37 50 40 302 29 35 157 31 47 28 150 34 531 6025 62 69 33 20 34 388 23 36 53 23 2056 20 32 30 33 34 20 20 79 673 26 53 7352 147 29 43 26 55 58 62 27 152 221 237 58 27 53 20101 945 281 28 91 242 36 269 1179 20 80 21 133 460 221 60 21 92 28 51 25 29 5745 105 20 28 2467 1414 47 32 15429 211 26065 54 1002 43 85 61 20 33 11783 39 40 32 81 233 37 59 20 85 62 225 20 34 506 73 23 32 26 211 879 28 50 23 26 30 102 48 131 629 157 121 3615 211 32 16755 28 41 67 9539 50 57672 240 47 92 21771 51 20 28 262 34 87 20 17510 21 28 22 71 25 46 35 70 22 82 23 20 87 27 21 42 32 54 20 22 40 22 27 24 144 3025 172 24 50 21 45 103 41 25 74 24 155 28 26 40 900 1410 739 513 3308 342 70 41 3732 26 29 53899 17283 33 54 21 32
internal_value=0 -0.0150322 -0.0184976 -0.0148261 -0.010345 0.231703 -0.0116969 0.240604 -0.00841413 -0.0269689 0.189186 0.24731 -0.0192899 -0.0334238 -0.00605313 -0.0305328 -0.0343576 0.213401 0.056641 0.245573 0.0191118 0.236974 0.178185 -0.00427483 0.219064 0.138525 0.243457 0.250599 0.256131 0.260609 0.224752 0.229511 0.277014 0.268023 0.283121 0.399367 0.276949 0.303774 0.313636 0.323932 0.232993 0.215158 0.244792 0.241008 0.305872 0.114384 0.196367 -0.00494803 0.2881 0.0607557 0.0580308 0.255317 0.309517 0.250029 0.0396884 0.237519 0.215183 0.223363 0.238858 0.281186 0.271188 0.2601 0.21548 0.159302 0.267308 0.230797 0.242292 0.420588 0.289378 0.199103 0.172951 0.260727 0.278704 0.189264 -0.0162691 -0.0124427 0.0238235 0.0448746 0.0788135 0.188815 0.190529 0.25 0.306757 0.373077 0.41789 0.264246 0.142982 -0.020902 0.310731 0.325315 0.419565 0.356593 0.247546 0.187417 0.2213 0.235714 0.312903 0.39186 0.202595 0.2327 0.204873 0.136335 0.23125 0.373077 0.141339 0.278358 0.327049 0.196835 0.207343 0.215786 0.0204569 0.0595033 0.0654382 0.286879 0.267269 0.186019 0.15177 0.228689 0.335714 0.193462 0.182435 0.0388351 0.136071 0.230488 0.28871 0.222984 0.141667 0.121429 0.219788 0.229851 0.238564 0.153636 0.170884 -0.00134635 0.201337 0.274734 0.26746 0.215579 0.280935 0.342857 0.238317 0.2861 0.314486 0.221676 0.265385 0.2 0.114596 0.101007 -0.0316093 0.029368 0.223552 0.263889 0.179947 0.221903 0.194604 0.170923 0.16547 0.15 0.162521 0.399438 0.0452381 0.212643 0.063699 0.131818 0.190964 0.375197 0.246943 0.305769 0.252632 0.0846154 -0.0220856 0.243233 0.405696 0.458475 0.0347043 0.0384072 0.214615 0.127215 -0.0132833 0.19537 -0.0115133 0.219081 0.21173 0.274176 0.23777 0.166374 0.226908 0.175806 -0.00693756 0.0475871 0.0888889 0.0697183 0.0436582 0.0866667 0.0685185 0.198598 0.279114 0.0765306 0.263283 0.0480683 -0.00502185 0.0981481 0.21428 0.235714 0.335417 0.191135 0.181203 0.217057 0.0287781 0.102284 0.165385 0.21087 0.296154 0.1 0.240316 0.261412 0.184637 0.277485 0.234856 0.299776 0.231018 0.190449 0.103846 0.000357523 0.12551 0.0823529 0.128947 -0.018985 0.0963415 -0.0154351 0.246736 0.0966667 0.353509 -0.0206592 0.184649 0.162318 0.167755 0.155624 0.0135401 0.0739669 -0.0134334 -0.0166595 0.24845 0.212222 0.262925 0.27646 0.202525 0.259859 0.116667 0.319231 0.358 0.318932 0.17807 0.276531 0.205474 0.17807 0.198786 0.202802 0.198 0.240698 0.179358 0.218293 0.166667 0.132796 0.205319 0.0586956 0.0801775 0.0395042 0.0531746 0.0737113 0.114384 0.205263 0.283333 0.188853 0.0720657 0.189583 0.0623288 0.0805842 0.0525724 0.103005 0.3875 0.140476 0.0065539 0.0627602 0.0684254 0.0727299 0.0761127 0.055084 0.0582677 0.121171 0.0565014 0.130587 0.122662 -0.0298742 -0.0271778 0.17807 0.1125 0.0566667 0.239855
internal_weight=0 648029 618149 496107 362375 31777 346476 26321 241885 133732 5456 21116 104591 122042 181014 84244 116820 5205 29880 20648 15899 1021 4435 145281 4839 366 19669 11690 9705 8493 1212 1635 422 6858 3134 158 2976 212 44 468 7979 2474 960 5505 281 73 1514 2597 979 24071 20633 3724 331 3393 5809 5224 4627 3574 2181 776 741 703 1405 301 104 1104 999 51 386 1393 305 811 648 163 75628 5222 13302 1834 590 3442 3405 240 185 130 109 716 57 49488 438 397 115 91 652 1053 446 413 124 86 289 237 1334 161 64 208 993 67 61 790 715 681 11468 19972 10759 282 249 3165 565 122 70 2600 1893 5786 962 82 62 707 240 105 897 804 752 275 249 81926 187 659 630 674 139 84 933 241 214 692 260 196 322 298 80819 5443 1985 360 1870 331 278 1539 1448 55 607 178 378 613 10519 143 83 127 229 104 76 52 45962 133 79 59 4498 4106 1625 79 35733 432 27490 1546 1364 182 139 342 1022 527 19135 3730 324 284 3406 300 270 535 79 245 399 2692 3425 54 1173 609 96 564 532 513 1244 197 195 115 52 80 5029 1034 179 855 3995 223 3772 445 65 62791 245 136 95 48138 82 60871 337 75 114 40217 456 617 597 569 661 121 5196 18446 516 225 147 291 99 71 78 195 125 103 171 49 137 114 824 803 125 86 109 82 60 93 47 46 169 3106 252 97 73 380 66 314 213 96 365 291 9213 183 48 63 936 10376 5970 5231 4718 4406 4064 111 3953 443 417 60718 28963 57 160 75 138
internal_count=679806 648029 618149 496107 362375 31777 346476 26321 241885 133732 5456 21116 104591 122042 181014 84244 116820 5205 29880 20648 15899 1021 4435 145281 4839 366 19669 11690 9705 8493 1212 1635 422 6858 3134 158 2976 212 44 468 7979 2474 960 5505 281 73 1514 2597 979 24071 20633 3724 331 3393 5809 5224 4627 3574 2181 776 741 703 1405 301 104 1104 999 51 386 1393 305 811 648 163 75628 5222 13302 1834 590 3442 3405 240 185 130 109 716 57 49488 438 397 115 91 652 1053 446 413 124 86 289 237 1334 161 64 208 993 67 61 790 715 681 11468 19972 10759 282 249 3165 565 122 70 2600 1893 5786 962 82 62 707 240 105 897 804 752 275 249 81926 187 659 630 674 139 84 933 241 214 692 260 196 322 298 80819 5443 1985 360 1870 331 278 1539 1448 55 607 178 378 613 10519 143 83 127 229 104 76 52 45962 133 79 59 4498 4106 1625 79 35733 432 27490 1546 1364 182 139 342 1022 527 19135 3730 324 284 3406 300 270 535 79 245 399 2692 3425 54 1173 609 96 564 532 513 1244 197 195 115 52 80 5029 1034 179 855 3995 223 3772 445 65 62791 245 136 95 48138 82 60871 337 75 114 40217 456 617 597 569 661 121 5196 18446 516 225 147 291 99 71 78 195 125 103 171 49 137 114 824 803 125 86 109 82 60 93 47 46 169 3106 252 97 73 380 66 314 213 96 365 291 9213 183 48 63 936 10376 5970 5231 4718 4406 4064 111 3953 443 417 60718 28963 57 160 75 138
cat_boundaries=0 1 2 3 4 5 6 7 8
cat_threshold=8 2 1 1 1 4 4 4
shrinkage=0.1


Tree=2
num_leaves=300
num_cat=107
split_feature=3 16 16 3 21 3 17 3 16 3 3 3 16 17 16 3 21 3 17 16 14 16 17 17 21 16 21 21 16 16 21 17 17 3 16 14 1 16 16 3 21 17 21 17 14 21 21 17 16 16 21 17 14 13 14 17 14 21 13 16 16 16 16 0 14 3 16 14 16 17 13 21 17 17 0 13 17 14 16 14 17 3 16 13 21 16 17 21 16 0 0 16 17 0 0 14 16 13 21 13 14 13 0 13 14 0 14 14 21 16 13 13 13 0 1 1 14 3 16 21 14 21 0 14 13 14 0 0 13 14 13 14 14 1 0 14 21 0 14 17 14 14 13 13 0 3 13 13 16 17 16 14 14 0 0 13 14 14 16 13 14 16 17 14 14 16 0 14 16 14 3 14 16 14 14 14 0 16 16 14 16 16 13 14 21 0 14 14 13 14 0 14 14 14 3 0 17 0 16 16 14 14 14 13 0 13 13 16 13 14 14 21 1 16 14 21 14 0 14 16 16 13 14 14 3 21 17 16 3 14 14 14 13 16 14 14 0 13 16 13 16 16 21 0 16 13 13 13 13 14 14 13 16 14 13 16 13 16 21 16 14 17 14 16 16 16 16 16 13 16 14 16 13 13 13 13 16 16 17 21 21 14 0 13 13 21 13 14 16 13 16 16 16 16 16 16 13 13 16
split_gain=7714.61 987.396 216.659 519.867 135.549 84.5905 78.9039 58.8271 52.1584 47.4482 47.3518 34.0478 28.7261 26.0556 24.9485 21.088 18.8603 16.6111 16.108 15.5628 15.0383 13.3331 13.2558 12.4951 11.9683 11.317 10.11 9.91448 8.65831 8.27886 6.70651 6.62548 6.37872 6.33643 5.85443 5.83476 5.79552 5.45893 5.12038 26.1762 5.46639 4.9917 4.9845 4.92644 4.59592 4.47188 4.39899 4.08329 4.0831 3.75255 3.346 3.22107 3.15373 3.12618 3.04842 2.95916 2.80462 2.79099 2.7659 2.67878 2.65221 2.62931 2.6107 2.55068 2.43808 2.38115 2.35147 2.30687 2.26803 2.24467 2.17403 2.12102 2.10914 2.07942 2.05514 2.14392 2.05201 2.03713 2.01875 1.99764 1.99007 2.73919 1.98042 1.97285 1.97112 1.96769 1.89309 1.87072 1.86617 3.15137 2.27302 1.80331 1.78226 1.75578 1.70193 1.68077 2.13309 1.60341 1.70327 1.97126 1.599 1.59035 1.5757 2.27036 1.55458 1.51043 1.43986 1.43283 1.42011 1.57411 1.85551 1.40357 1.36649 1.36132 1.34494 1.34238 1.39917 1.34131 1.60014 1.58827 1.33799 1.31589 1.36064 1.31085 1.30616 1.30384 1.67443 1.30408 1.30205 1.29995 1.57143 1.29446 1.78322 1.26694 1.26544 1.2604 1.25577 1.23075 1.21579 1.21466 1.20714 1.19071 1.2049 1.17628 1.16531 1.15131 1.14858 1.59776 1.1485 1.14021 1.13897 1.13358 1.13253 1.12883 1.08532 1.14287 1.0714 1.06887 1.06471 1.06036 1.04676 1.02818 1.67385 1.02035 1.83801 1.01538 1.20362 0.992249 0.992248 0.986614 0.977272 0.974026 0.959653 0.951342 0.950694 0.946911 0.941889 0.93535 0.931342 1.1363 0.96455 0.951252 0.927206 1.18691 0.913789 1.06063 0.91199 0.908755 1.42218 1.42163 0.902881 0.902682 2.20042 0.892582 0.891597 0.888432 0.88676 1.00542 0.878843 1.21753 0.871296 0.871165 1.33394 0.861436 0.859687 1.006 0.856294 0.931255 0.894276 0.854312 0.839291 0.830252 0.82875 0.954462 1.16626 0.861558 0.857207 0.82723 0.82613 0.821384 0.819417 0.952254 0.812052 1.12091 0.810859 0.935133 1.48539 1.56807 0.804263 0.796202 0.793956 0.791178 0.865735 0.790725 1.05269 0.787458 0.786844 0.760922 1.15275 0.841739 1.32481 0.82312 0.751473 0.794923 1.10252 0.750786 0.746792 0.835776 0.823581 1.84844 0.832201 1.06083 0.746118 0.743586 1.33586 0.7417 1.14026 1.1369 0.737939 0.737888 0.733393 0.731891 0.727142 1.24732 0.727039 0.724217 0.978071 1.14457 1.47706 1.1218 0.992732 0.723009 0.721072 0.775758 0.713061 1.57795 1.00681 1.56384 0.708146 1.39601 0.704675 1.25944 1.55005 0.947965 0.741495 0.702537 0.700388 0.713822 0.698596 1.21693 0.698276 0.696777 0.688082 0.687092 0.682551 0.680998 0.678788 0.678053 0.671668
threshold=0 20.500000000000004 54.500000000000007 1 2 3 4 5 49.500000000000007 6 7 8 2.5000000000000004 9 27.500000000000004 10 11 12 13 80.500000000000014 41.500000000000007 8.5000000000000018 14 15 16 84.500000000000014 17 18 10.500000000000002 77.500000000000014 19 20 21 22 37.500000000000007 4.5000000000000009 23 67.500000000000014 30.500000000000004 24 25 26 27 28 41.500000000000007 29 30 31 5.5000000000000009 65.500000000000014 32 33 8.5000000000000018 10.500000000000002 19.500000000000004 34 5.5000000000000009 35 1.5000000000000002 19.500000000000004 92.500000000000014 78.500000000000014 12.500000000000002 36 26.500000000000004 37 91.500000000000014 11.500000000000002 15.500000000000002 38 17.500000000000004 39 40 41 42 4.5000000000000009 43 94.500000000000014 63.500000000000007 36.500000000000007 44 45 45.500000000000007 1.5000000000000002 46 93.500000000000014 47 48 69.500000000000014 49 50 88.500000000000014 51 52 53 17.500000000000004 13.500000000000002 2.5000000000000004 54 7.5000000000000009 2.5000000000000004 23.500000000000004 55 11.500000000000002 9.5000000000000018 56 7.5000000000000009 43.500000000000007 57 77.500000000000014 3.5000000000000004 12.500000000000002 9.5000000000000018 58 59 60 9.5000000000000018 61 15.500000000000002 62 35.500000000000007 63 64 4.5000000000000009 4.5000000000000009 5.5000000000000009 65 66 5.5000000000000009 1.5000000000000002 3.5000000000000004 7.5000000000000009 20.500000000000004 67 68 3.5000000000000004 69 70 47.500000000000007 71 4.5000000000000009 1.5000000000000002 10.500000000000002 22.500000000000004 72 73 12.500000000000002 9.5000000000000018 18.500000000000004 74 1.5000000000000002 43.500000000000007 1.5000000000000002 75 76 1.5000000000000002 78.500000000000014 48.500000000000007 75.500000000000014 26.500000000000004 3.5000000000000004 98.500000000000014 77 60.500000000000007 70.500000000000014 3.5000000000000004 78 98.500000000000014 80.500000000000014 32.500000000000007 79 1.5000000000000002 98.500000000000014 2.5000000000000004 53.500000000000007 92.500000000000014 80 56.500000000000007 9.5000000000000018 11.500000000000002 12.500000000000002 13.500000000000002 14.500000000000002 13.500000000000002 81 82 68.500000000000014 1.5000000000000002 14.500000000000002 12.500000000000002 83 38.500000000000007 55.500000000000007 25.500000000000004 84 85 86 87 90.500000000000014 96.500000000000014 5.5000000000000009 3.5000000000000004 5.5000000000000009 3.5000000000000004 88 8.5000000000000018 5.5000000000000009 5.5000000000000009 13.500000000000002 24.500000000000004 1.5000000000000002 89 90 78.500000000000014 3.5000000000000004 91 5.5000000000000009 92 39.500000000000007 6.5000000000000009 35.500000000000007 12.500000000000002 56.500000000000007 52.500000000000007 93 94 95 83.500000000000014 96 2.5000000000000004 70.500000000000014 10.500000000000002 12.500000000000002 10.500000000000002 49.500000000000007 3.5000000000000004 97 2.5000000000000004 83.500000000000014 7.5000000000000009 67.500000000000014 83.500000000000014 98 99 51.500000000000007 2.5000000000000004 25.500000000000004 19.500000000000004 14.500000000000002 19.500000000000004 9.5000000000000018 11.500000000000002 34.500000000000007 21.500000000000004 14.500000000000002 14.500000000000002 7.5000000000000009 11.500000000000002 100 5.5000000000000009 86.500000000000014 101 3.5000000000000004 68.500000000000014 83.500000000000014 36.500000000000007 35.500000000000007 34.500000000000007 15.500000000000002 25.500000000000004 8.5000000000000018 30.500000000000004 10.500000000000002 15.500000000000002 8.5000000000000018 4.5000000000000009 40.500000000000007 41.500000000000007 102 103 104 6.5000000000000009 105 7.5000000000000009 4.5000000000000009 106 2.5000000000000004 11.500000000000002 84.500000000000014 1.5000000000000002 38.500000000000007 48.500000000000007 41.500000000000007 62.500000000000007 12.500000000000002 93.500000000000014 5.5000000000000009 21.500000000000004 97.500000000000014
decision_type=1 10 10 1 1 1 9 1 10 1 1 1 10 9 10 1 1 1 9 10 10 10 9 9 1 10 1 1 10 10 1 9 9 1 10 10 1 10 10 1 1 9 1 9 10 1 1 9 10 10 1 9 10 10 10 9 10 1 8 8 10 10 10 1 10 1 10 10 10 9 8 1 9 9 1 10 9 10 10 10 9 1 10 8 1 10 9 1 10 1 1 10 9 1 1 10 10 8 1 8 10 8 1 8 10 1 8 10 1 10 8 10 10 1 1 1 8 1 10 1 8 1 1 10 10 10 1 1 8 8 8 8 8 1 1 8 1 1 10 9 10 8 10 10 1 1 10 10 10 9 10 10 10 1 1 8 10 10 10 8 10 10 9 10 10 10 1 10 10 8 1 8 10 8 10 10 1 10 10 10 10 10 8 8 1 1 10 10 8 10 1 10 10 10 1 1 9 1 10 10 10 10 10 8 1 10 10 10 10 10 10 1 1 10 8 1 10 1 10 8 10 10 10 10 1 1 9 10 1 8 10 10 10 10 10 8 1 8 10 8 10 10 1 1 10 10 10 10 10 8 8 8 10 10 8 10 10 10 1 8 10 9 8 10 10 10 10 10 10 10 8 10 10 10 8 10 10 10 9 1 1 8 1 8 10 1 8 10 10 8 10 10 10 10 10 10 8 10 10
left_child=1 4 7 9 11 32 33 14 23 13 12 72 20 43 30 55 25 42 144 26 27 24 237 187 44 88 49 76 35 57 41 236 67 125 50 141 94 56 117 40 80 48 61 45 93 78 154 65 104 63 101 253 68 64 231 62 73 124 -53 123 280 228 156 115 -30 71 100 140 211 -51 95 -16 -1 -18 75 84 152 97 -4 -60 -40 136 176 150 160 196 -43 139 89 200 229 113 -28 206 286 178 112 -22 99 -99 -31 169 103 -56 -2 149 274 -100 109 -45 -111 -85 -97 -47 -42 -11 -117 118 278 133 219 122 -50 -34 -24 127 -127 -7 -66 130 -95 -103 -133 -120 -72 168 146 -94 217 -32 -6 -14 -143 -144 -17 -71 147 -82 -136 -49 -78 -46 -8 -87 -33 -156 201 -130 -137 -122 -48 162 171 222 186 175 233 -104 203 -25 195 -76 -157 -80 -140 -54 -73 -91 -23 180 -180 -181 183 -52 185 -67 -165 290 -189 -190 -62 272 -193 -186 -41 -65 197 264 -175 -200 -15 -13 -203 -92 205 -147 207 -20 -208 246 -68 235 215 -214 -215 216 -139 -74 252 -96 221 271 223 -37 225 226 227 -19 -5 -90 -125 -38 -233 234 -167 -12 -21 241 239 240 -239 -10 243 244 -107 -154 247 248 250 -250 -108 -252 -134 297 -255 256 -124 -258 -88 -204 -146 -106 263 -206 -44 266 267 269 -269 270 -184 -171 -61 -274 275 -36 -276 -278 279 -9 281 283 -283 284 -39 -116 -26 -288 289 -164 -3 -279 -83 -202 -260 -290 -284 -29 -93
right_child=2 8 3 17 5 6 10 38 22 19 52 15 28 16 47 18 37 224 21 31 77 70 29 34 36 -27 92 51 53 66 87 46 59 -35 106 163 54 60 39 194 114 86 85 108 151 91 74 105 121 69 182 58 165 -55 102 -57 -58 -59 79 191 190 -63 -64 170 128 184 210 -69 -70 145 134 82 138 -75 161 -77 83 -79 173 -81 81 292 -84 111 -86 153 258 -89 90 177 135 298 137 129 120 96 -98 98 107 -101 -102 131 167 -105 261 242 209 -109 -110 110 -112 -113 -114 -115 285 116 -118 -119 119 -121 159 -123 255 230 -126 126 -128 -129 157 -131 -132 132 218 -135 148 158 -138 212 174 -141 -142 142 143 -145 260 204 -148 -149 -150 -151 -152 -153 245 -155 155 172 -158 -159 -160 -161 -162 -163 288 164 -166 166 -168 -169 -170 220 -172 -173 -174 198 -176 -177 -178 -179 179 181 -182 -183 265 -185 193 -187 -188 188 189 -191 -192 192 -194 -195 -196 -197 -198 -199 199 -201 293 202 259 -205 262 -207 208 -209 -210 -211 -212 -213 213 214 -216 -217 -218 -219 -220 -221 -222 -223 -224 -225 -226 -227 -228 -229 -230 -231 -232 232 -234 -235 -236 -237 -238 238 -240 -241 -242 -243 -244 -245 -246 -247 -248 -249 249 -251 251 -253 -254 254 -256 -257 257 -259 294 -261 -262 -263 -264 -265 -266 -267 -268 268 -270 -271 -272 -273 273 -275 276 -277 277 291 -280 -281 -282 282 296 -285 -286 -287 287 -289 295 -291 -292 -293 -294 -295 -296 -297 -298 -299 -300
leaf_value=-0.96883162964863012 -0.4568443871388323 4.0839617339585015 2.8426273581938277 0.47948839318424713 5.1730435820551453 3.6184871264227336 9.9144739294887962 -0.045198579215501064 9.1864775935884726 1.8011611763880842 2.6804184622945559 8.4145679740215975 7.6481456893661361 3.0764827793428351 0.46548876564362845 0.20937538432868755 3.5655584930740924 -0.18105201388790007 5.0245952199419168 4.1478176110542604 6.9354399792059453 5.7063643228300425 12.209774641416407 7.2405662749167607 10.611125534152329 5.8768271910872025 -0.48739179589708209 8.9310293097410849 9.1107509685071353 19.834078644969509 -0.69621419729609924 1.4872947031122588 12.397983746222579 -0.17477994975386096 13.346164103673528 8.0495430334584537 3.6856669127516462 5.4784520019043175 -1.628372944890208 -0.25188942180415269 0.72239949866099906 -2.1823328743623676 0.76464852822949525 0.50297358541504023 15.067589138058805 1.985711710644084 5.3379159866457542 -0.40316080101043728 -0.10849267968991044 2.1121209852402729 15.132087326196711 5.0968014411954217 2.6480009152361697 9.0293556350568274 4.0243825779952251 7.2469359666553776 3.4178867716266605 16.277399123398013 5.7660901766364381 11.789825112887398 4.7219548340976027 1.1645879213021526 12.932623484965186 1.4903532045303103 13.414244679030739 1.0827860431489809 21.885538432781161 7.4168247954007676 4.0751804954458679 2.1775070219109138 7.3448091663988269 1.2036010164756146 1.0006115292600601 1.6864654410923983 8.3085543347206432 5.9844290390590205 6.9054370266072489 8.060863633197366 6.0419516022911344 4.4298286534257594 2.0558896200554204 0.52484281164361402 3.1526830236092072 6.6222688701095995 3.1814073789462096 -0.024427635781746119 -0.2665361171248179 -1.9053910625058816 3.702834677293823 4.2279323135647573 5.4762608441203637 3.6320559802213399 0.8289540573871913 3.5477202557465475 9.0728224706476919 5.2501275061703492 5.8619573075359934 6.3733877956404337 7.9616496203875728 6.3658709289592466 18.105661835679992 9.3161261664813697 3.8744911538793541 5.3384111150624927 0.65662637868662999 1.4245781233245289 13.870647853598005 7.679815897341661 -0.10647183331958537 2.7529070620321554 1.8780813574758719 8.3044313327505268 8.0261749246091476 0.50574354661892451 0.058876535760681185 4.3815195804442784 4.3933834891775758 -3.6758445504030592 0.8813100340753206 -1.0263144063498186 5.4565041454200731 0.71192061610538482 1.1864904106087644 13.501130563316682 10.429483862085597 6.14254681323699 3.7967994126700377 2.4432180617790844 9.3942673870444207 5.4597778034803897 4.5330184693486348 8.2552692632416687 6.1478382749144496 0.099984709922778858 6.2230192949657432 5.4428685539913646 1.4775918887387411 1.6215599486452277 1.5252911161791456 -1.4779115914558643 5.2617203435996194 7.4581325686827071 7.9205699707558637 9.673112274085323 2.2093748651335821 3.6159239414459452 0.99877471429185416 2.1483126681651212 5.3011768252700566 2.3036402363726087 13.14755701153506 5.8840953406381828 8.8008045716234431 1.3789338690194635 1.4729381309500911 1.7756632687949836 11.969044808001279 11.421789739583195 4.710849936885082 6.3582313242404229 3.4148757807334529 3.4783638219575326 1.6283063598164309 8.002862899361066 8.0094573240113558 4.1548578656605022 2.7710345786419568 0.027252363648819389 4.5355627071976263 8.3654247643708342 0.85653136473900437 5.3662677311003071 3.0001935576438141 3.5528652805388923 1.7970088767945986 3.3151378855564952 2.2975022677449042 4.222544419282487 6.5849783229893504 11.814872432497788 6.561745395703297 6.73104592746152 22.002692842318055 12.61508263882352 2.1384663233305341 4.8154923918634358 8.9518463585732899 9.2756580480830646 17.321464133193508 13.154442621402612 4.8940297794708325 14.93180553579656 13.662818544094803 6.919857583304136 -2.9225397899351866 2.1081462148699575 -0.75472585050395569 -0.47256597023634833 4.4830076571083843 6.6415128821408835 4.3431051901625848 5.9816425871009624 9.5825449937516201 3.2030746398107932 4.0875466310162354 4.5939717377359131 5.6867670223154976 3.85485922635515 4.5238104618098802 11.384118175560461 29.864162116192087 2.4319148112460915 1.4737346070200976 1.688161674952696 6.5334360386397599 0.80578282049991012 7.5619698730264595 0.54474869293307493 5.2069970247010948 4.6722362215954503 13.185832717529406 15.904475683187947 6.1177936668274988 7.6832915184983506 -4.9227021034160128 -1.2024560159593667 -0.67140273939210504 0.87308641102376328 -0.23414759755877432 4.0630516014254496 10.377223208104503 2.0769276760285056 2.3039494372976073 4.0639738216948702 2.9668041406860142 2.1314937124484863 -0.43773361775145053 7.8155876434745863 12.781221178296654 10.664972907199207 14.784694205724529 8.4471171131363505 -0.63853804880704768 -0.28863076516759023 4.03784562675341 10.722766675682793 7.657690400778737 16.54780987982959 9.5247342999134901 11.397194841431647 12.246768197521865 14.575113192372624 7.3227043386691237 8.1095824310712477 17.450457992789634 2.658616420119071 2.8862045119580699 0.52437638232688477 -0.78123831455180592 8.6769709594020252 7.6452985743398365 -0.17405833252614455 2.9430739465985964 3.0246544691423329 1.082449123390228 18.440950996872598 18.567719575014049 9.7506954251794316 16.03811295783078 12.41765569277441 8.7488823765261667 7.2214879412654929 7.0623134740980902 9.1488074807982951 16.619998613869271 14.94926449597048 13.766115710125522 13.581983478892681 -1.4400042650919325 -0.9073174145459012 3.1051120593598953 3.9681769561624898 5.5194372599994797 3.7842821889742719 3.3633449297260132 -0.81175734290059764 1.9971476485852362 7.0403019242781246 2.3797678783171423 2.7252631696356961 7.6376309553434538 16.476035727280237 0.90511463490956445 3.8088213721308217 0.56367672382721412 3.7504292370598833 4.6317556489442406 13.559526258150004 3.771441105941685
leaf_weight=196 7994 58 38 811 70 391 1924 1104 26 116 76 240 283 191 165 233 175 395 1413 117 409 112 457 100 21 867 358 1410 1559 1437 10711 357 289 384 48 1948 3429 67 117 731 578 2730 76 141 23 115 316 124 213 190 112 480 473 429 40 154 209 3080 6361 398 227 1438 27 244 61 123 1112 33 45 178 444 218 545 330 42 42 363 479 28 79 148 506 345 4832 1282 243 4695 10126 56 87 21 80 1048 54 129 69 47 134 51 406 380 48 789 86 1575 205 110 1577 303 30 122 446 42 214 952 69 72 444293 136 419 476 1883 423 182 180 210 229 586 217 3104 128 61 128 327 470 180 457 91 20 9323 20 3080 288 22 494 581 37 24 20 335 52 1033 457 190 35 262 21 118 232 529 21 186 28 238 392 34 130 26 43 33 277 308 32 79 160 46 379 442 227 24 191 22 27 220 910 368 54 37 29 24 247 20 78 26 23058 436 2231 190 20 22 36 24 33 65 21 28 334 116 108 30 52 1196 961 21 59 273 24 516 22 307 20 35 103 118 30237 4099 1356 261 735 196 26 193 22 38 35 301 147 22 109 180 28 27 590 311 25 319 26 40 30 63 370 664 56 24 37 147 96 29 8797 105 22 1274 575 122 27 53 51 47 20 326 194 25 33 22 37 49 21 135 15398 5382 923 109 60 93 21 485 111 34 633 275 58 22 596 32 585 375 105 32 27
leaf_count=196 7994 58 38 811 70 391 1924 1104 26 116 76 240 283 191 165 233 175 395 1413 117 409 112 457 100 21 867 358 1410 1559 1437 10711 357 289 384 48 1948 3429 67 117 731 578 2730 76 141 23 115 316 124 213 190 112 480 473 429 40 154 209 3080 6361 398 227 1438 27 244 61 123 1112 33 45 178 444 218 545 330 42 42 363 479 28 79 148 506 345 4832 1282 243 4695 10126 56 87 21 80 1048 54 129 69 47 134 51 406 380 48 789 86 1575 205 110 1577 303 30 122 446 42 214 952 69 72 444293 136 419 476 1883 423 182 180 210 229 586 217 3104 128 61 128 327 470 180 457 91 20 9323 20 3080 288 22 494 581 37 24 20 335 52 1033 457 190 35 262 21 118 232 529 21 186 28 238 392 34 130 26 43 33 277 308 32 79 160 46 379 442 227 24 191 22 27 220 910 368 54 37 29 24 247 20 78 26 23058 436 2231 190 20 22 36 24 33 65 21 28 334 116 108 30 52 1196 961 21 59 273 24 516 22 307 20 35 103 118 30237 4099 1356 261 735 196 26 193 22 38 35 301 147 22 109 180 28 27 590 311 25 319 26 40 30 63 370 664 56 24 37 147 96 29 8797 105 22 1274 575 122 27 53 51 47 20 326 194 25 33 22 37 49 21 135 15398 5382 923 109 60 93 21 485 111 34 633 275 58 22 596 32 585 375 105 32 27
internal_value=0 0.33213 -0.0389188 0.0188645 0.274741 0.311148 0.301529 -0.0449846 0.611185 0.169732 0.313361 0.201193 0.324705 0.238723 -0.0166255 0.214901 0.270959 -0.0397988 0.207132 0.127389 0.303663 0.214789 0.660155 0.50993 0.203738 0.335476 0.0931058 0.291936 0.371998 0.671899 -0.0217497 0.171848 0.577011 0.0961326 0.525472 0.353157 0.171138 0.208346 -0.0486933 -0.0354816 0.0404092 -0.0112657 0.00923373 0.105004 0.23507 0.16722 0.181327 0.0586324 0.00295367 0.134481 0.483587 0.265368 0.175042 0.423574 0.15185 0.400326 0.134874 0.641418 0.254113 0.609263 0.237797 0.0380093 0.453261 0.0925041 0.440537 0.0834512 0.71216 0.277068 0.150865 0.165339 0.298921 0.118756 0.0526261 0.0945544 0.196305 0.225583 0.317904 0.368194 0.297716 0.259938 0.0790237 0.087514 0.1375 0.302358 0.221155 -0.0198349 -0.0227954 -0.0323169 0.286496 0.25203 0.320744 0.10583 0.05 0.22335 0.224892 0.339646 0.431013 0.357062 0.367897 0.287273 0.689681 0.378439 0.202922 0.321324 -0.00582405 0.0184375 0.568845 0.390476 0.0382838 0.0869637 0.160526 0.29767 0.355405 0.0715805 0.00407406 0.180337 0.251324 -0.0494776 -0.0418555 -0.000113391 0.237733 0.0370656 0.0681917 0.66831 0.519552 0.127069 0.173235 0.107625 0.510606 0.2402 0.158791 0.340476 0.313296 0.039852 0.266916 0.362886 0.138609 0.0595698 0.0679057 -0.0266763 0.216667 0.326804 0.332006 0.272581 0.0613307 0.178053 0.207991 0.252326 0.211 0.0662047 0.369277 0.295644 0.349446 0.0423787 0.103017 0.146165 0.44409 0.535075 0.396602 0.259453 0.300144 0.168901 0.161921 0.387084 0.42076 0.229101 0.283333 0.178485 0.283333 0.452347 0.0663392 0.229167 0.130272 0.366107 0.144444 0.204335 0.104104 0.297866 0.314583 0.294828 0.311244 0.145652 0.52783 0.489157 0.055428 0.0907186 0.480822 0.230093 0.316667 0.421698 0.302321 0.56706 0.654082 0.0361522 -0.0479201 0.0869565 -0.0305864 0.0209571 0.404545 0.521429 0.14145 0.432587 0.375926 0.345349 0.189716 0.225444 0.193059 0.182832 0.232805 0.583158 0.747251 0.144533 0.078909 0.0941484 0.2 0.0366834 0.106 0.0555608 0.357767 0.193119 0.516372 0.476882 0.376464 0.380784 -0.0478134 -0.0370119 -0.01909 0.0198198 0.0095084 0.207634 0.728846 0.139078 0.0802325 0.373077 0.471739 0.0934108 0.0138686 0.431343 0.424926 0.384783 0.27 0.553774 -0.00135847 0.0253176 0.06875 0.38299 0.579317 0.582733 0.578133 0.487634 0.585489 0.576692 0.33587 0.315169 0.42541 0.0897163 0.0740876 0.158 -0.0180912 0.413768 0.0878327 0.0142331 0.156731 0.222727 0.0960177 0.553064 0.56203 0.550977 0.427612 0.566088 0.511086 0.398276 0.548234 0.440909 0.507692 0.578866 0.475581 0.444382 -0.0435569 -0.034529 0.215602 0.260753 0.223723 0.331215 0.256818 -0.0123359 0.10625 0.087931 0.141143 0.184323 0.182759 0.478662 0.0556655 0.244118 -0.0232219 0.129563 0.284286 0.312691 0.221028
internal_weight=0 61609 618197 58724 51090 34127 32956 559473 10519 16435 31156 16963 28782 6233 64725 15526 5014 42289 14922 10202 19872 14173 7090 3429 12505 2448 5744 16816 8910 6698 60601 4458 1171 1800 3223 6526 6192 2566 494748 27689 3900 30441 5941 1219 6313 623 4194 4124 13634 2909 1578 8423 2374 2384 4585 604 714 3717 6920 1048 1852 2984 450 1214 1955 2534 2981 123 1618 1695 1668 1107 1437 505 3508 1661 8393 3056 187 6440 1885 1768 942 5693 1619 2957 16807 30160 1581 788 793 436 2835 5257 1607 734 158 2577 2168 540 1817 528 941 126 10843 1590 1645 1628 596 293 152 5278 111 329 2015 257 141 467059 22766 882 1441 2791 908 497 637 1416 439 977 396 3286 182 315 267 463 934 541 666 2477 1241 20034 90 3673 3390 310 749 1505 209 172 490 459 415 1056 2700 433 686 329 423 335 412 1005 337 1847 1661 2853 684 756 237 815 129 213 957 350 294 149 180 519 597 529 576 464 418 46 1050 332 1427 491 292 206 90 53 474 551 98 936 23789 680 2524 293 121 42 259 402 162 86 1327 609 1971 1529 442 1333 1164 1573 1429 1041 80 388 115 1061 206 436 113 93 2169 2066 36348 6111 2012 656 1546 252 208 3644 215 107 69 377 264 392 339 230 50 53 1131 541 230 776 1303 1277 1237 93 1144 1034 184 1503 61 695 548 125 14077 138 516 2849 718 143 103 718 665 614 67 547 221 58 453 55 312 97 215 178 21884 6486 1378 455 274 181 88 1437 166 145 1311 303 116 157 1102 68 9382 1008 165 1442 107
internal_count=679806 61609 618197 58724 51090 34127 32956 559473 10519 16435 31156 16963 28782 6233 64725 15526 5014 42289 14922 10202 19872 14173 7090 3429 12505 2448 5744 16816 8910 6698 60601 4458 1171 1800 3223 6526 6192 2566 494748 27689 3900 30441 5941 1219 6313 623 4194 4124 13634 2909 1578 8423 2374 2384 4585 604 714 3717 6920 1048 1852 2984 450 1214 1955 2534 2981 123 1618 1695 1668 1107 1437 505 3508 1661 8393 3056 187 6440 1885 1768 942 5693 1619 2957 16807 30160 1581 788 793 436 2835 5257 1607 734 158 2577 2168 540 1817 528 941 126 10843 1590 1645 1628 596 293 152 5278 111 329 2015 257 141 467059 22766 882 1441 2791 908 497 637 1416 439 977 396 3286 182 315 267 463 934 541 666 2477 1241 20034 90 3673 3390 310 749 1505 209 172 490 459 415 1056 2700 433 686 329 423 335 412 1005 337 1847 1661 2853 684 756 237 815 129 213 957 350 294 149 180 519 597 529 576 464 418 46 1050 332 1427 491 292 206 90 53 474 551 98 936 23789 680 2524 293 121 42 259 402 162 86 1327 609 1971 1529 442 1333 1164 1573 1429 1041 80 388 115 1061 206 436 113 93 2169 2066 36348 6111 2012 656 1546 252 208 3644 215 107 69 377 264 392 339 230 50 53 1131 541 230 776 1303 1277 1237 93 1144 1034 184 1503 61 695 548 125 14077 138 516 2849 718 143 103 718 665 614 67 547 221 58 453 55 312 97 215 178 21884 6486 1378 455 274 181 88 1437 166 145 1311 303 116 157 1102 68 9382 1008 165 1442 107
cat_boundaries=0 2 4 5 7 8 10 11 12 14 15 17 18 20 21 22 23 24 25 26 27 28 29 30 31 33 34 35 36 37 38 39 40 41 42 43 44 45 46 47 48 49 50 51 52 53 54 55 56 57 58 59 60 61 62 63 64 65 66 67 68 69 70 71 72 73 74 75 76 77 78 79 80 81 82 83 84 85 86 87 89 90 91 92 93 94 95 96 97 98 99 100 101 102 103 104 105 106 107 108 109 110 111 112 113 114 115 116
cat_threshold=67109376 32784 17302530 8194 20 0 16 64 524288 8192 524290 67109376 0 32768 65 0 16 41 2048 4096 64 64 64 4 41 40 41 64 64 67109376 48 16777218 2 41 40 41 1 40 16 43 20 8 45 16 53 524288 65 16 64 8 117336 40 64 2 32 64 6 19780 572 68 75928 132 2 65552 68353 42 67635 48 11 2 41 32 3112 87649 36230 16 1467 32 26901 42 17033 1024 80 113708 48451 8 85020 0 8194 33190 40 65803 1518 1024 70914 40 49801 36652 1 9 2 103308 2147500032 40 40 2048 108620 11 36914 32 8 8 32 2 6806 6
shrinkage=0.1


Tree=3
num_leaves=300
num_cat=144
split_feature=20 2 19 16 2 19 16 16 20 2 16 16 2 19 2 2 16 19 16 20 20 20 2 2 20 2 19 16 16 2 20 2 20 5 20 16 14 16 11 16 2 4 2 4 2 20 16 2 4 5 4 16 2 16 20 4 4 11 4 16 2 16 11 4 14 16 2 4 16 4 11 4 4 14 4 16 4 4 4 4 16 14 2 4 16 2 5 16 4 20 16 19 16 2 4 4 20 5 14 4 16 4 14 4 20 4 4 4 4 19 4 4 4 11 4 11 2 5 4 11 16 16 5 16 19 4 11 14 11 16 14 14 4 4 16 20 4 16 16 11 14 11 14 5 2 4 4 4 4 14 4 4 19 5 11 4 5 14 11 11 11 16 11 11 4 14 11 14 16 4 4 16 14 2 5 14 19 4 14 11 4 14 5 11 16 11 2 4 11 16 14 16 11 11 11 5 11 14 14 4 11 14 16 16 16 16 11 16 19 4 16 14 11 16 2 4 16 2 16 4 11 11 11 19 11 16 16 11 4 14 16 16 4 4 11 19 14 16 16 14 4 4 14 4 19 20 4 20 4 11 14 14 16 5 11 11 11 11 4 19 11 14 4 14 16 19 14 5 14 11 14 5 11 16 11 4 11 16 11 4 11 14 14 14 16 14 16 19 16 11 4 14 11 16 11 14 4 16 11
split_gain=1058.47 531.302 476.941 542.843 291.352 199.519 68.5967 61.7211 61.5463 77.4467 61.2968 47.5177 46.6297 34.6637 32.5223 28.3296 38.8233 35.3951 25.2539 18.4415 17.7625 16.083 17.4835 15.744 19.445 14.4842 12.6273 12.0237 11.9054 11.9027 11.7363 12.0786 11.5725 10.6225 10.0294 9.7009 6.61705 6.538 6.47642 6.4349 6.00498 5.57598 5.39908 5.56067 5.37445 5.32264 5.30102 5.17803 5.13924 5.03334 4.74724 4.72719 4.39034 4.32192 4.28159 4.13213 4.04637 3.9146 3.78838 3.72811 3.65881 3.53917 3.53098 3.46702 3.43476 3.42123 3.38771 3.20837 3.08867 3.08552 3.06823 3.04431 2.9549 3.45098 2.92489 3.09405 2.91907 2.8557 2.83723 2.7634 2.74656 2.73424 2.68594 3.09477 2.61958 2.58839 5.14596 2.81865 2.46821 2.44289 9.86234 11.8104 2.79164 2.44139 2.42178 2.39126 2.36735 2.19027 2.12552 2.07243 2.04753 2.11643 2.00106 1.98681 1.96684 2.61942 1.96123 1.94519 1.88755 1.87085 1.86691 1.86432 1.84827 1.84566 1.80453 1.83461 1.804 1.79572 1.77113 1.75997 1.74534 1.73878 1.69555 1.67649 2.00982 1.67495 2.1414 2.25647 1.67106 1.64534 1.64279 1.60774 1.58988 1.57945 1.56075 1.5425 1.52364 1.50036 1.49465 3.53591 1.47776 1.63661 1.62759 1.47066 1.79916 1.77537 1.5791 1.48012 1.45622 1.45443 1.4693 1.43947 1.42788 1.42194 1.39559 1.39432 1.82744 1.38971 1.38376 1.35734 1.34694 1.34029 1.61305 1.33744 1.65211 1.33301 1.56493 1.32555 1.31987 1.31867 1.31855 1.31829 1.3135 1.31051 1.30192 1.29067 1.27999 1.27428 1.43737 1.26367 1.68433 1.2596 1.24276 1.46091 1.24264 1.21874 1.20828 1.69746 1.20758 1.44551 1.56164 1.36041 1.20739 1.20687 1.17885 1.17702 1.17532 1.17477 1.16661 1.15879 1.15741 1.15262 1.13491 1.1292 1.128 1.12794 1.12559 1.11885 1.62626 1.11808 1.10906 1.10684 1.52049 1.54275 1.10598 2.0547 1.0974 1.09564 1.09395 1.08455 1.08396 1.07349 1.06975 1.063 1.06267 1.05267 1.05131 1.04794 1.0469 1.241 1.40522 1.04444 1.03983 1.03967 1.03523 1.44919 2.09042 1.22307 1.20118 1.44014 1.53953 1.18217 1.05624 1.226 1.0341 1.03283 1.15983 1.08883 1.08778 1.03071 1.02984 1.028 1.02586 1.0146 1.013 1.00833 1.36582 1.00247 0.995733 0.99493 1.09462 1.35129 0.994168 0.99254 1.1122 0.988128 0.982683 0.980208 1.1852 0.975874 0.973913 0.973186 1.6859 0.97086 0.968706 0.964643 0.963666 0.960317 1.34127 0.956207 0.954608 0.952827 0.94355 1.24293 0.938775 0.913885 1.10278 0.913372 0.897428 0.89232 1.04264 0.889979 1.26152 0.888158 0.886865 0.88658 0.882674 0.874278 0.867867
threshold=0 1 2 39.500000000000007 3 4 49.500000000000007 16.500000000000004 5 6 21.500000000000004 68.500000000000014 7 8 9 10 45.500000000000007 11 37.500000000000007 12 13 14 15 16 17 18 19 15.500000000000002 63.500000000000007 20 21 22 23 24 25 11.500000000000002 15.500000000000002 53.500000000000007 21.500000000000004 17.500000000000004 26 27 28 29 30 31 87.500000000000014 32 33 34 35 75.500000000000014 36 6.5000000000000009 37 38 39 37.500000000000007 40 96.500000000000014 41 43.500000000000007 16.500000000000004 42 1.5000000000000002 89.500000000000014 43 44 1.5000000000000002 45 34.500000000000007 46 47 31.500000000000004 48 1.0000000180025095e-35 49 50 51 52 14.500000000000002 1.0000000180025095e-35 53 54 31.500000000000004 55 56 70.500000000000014 57 58 62.500000000000007 59 88.500000000000014 60 61 62 63 64 57.500000000000007 65 8.5000000000000018 66 38.500000000000007 67 68 69 70 71 72 73 74 75 76 1.5000000000000002 77 6.5000000000000009 78 79 80 8.5000000000000018 9.5000000000000018 45.500000000000007 81 54.500000000000007 82 83 53.500000000000007 1.5000000000000002 42.500000000000007 69.500000000000014 10.500000000000002 19.500000000000004 84 85 5.5000000000000009 86 87 4.5000000000000009 17.500000000000004 15.500000000000002 80.500000000000014 7.5000000000000009 67.500000000000014 88 89 90 91 92 93 7.5000000000000009 94 95 96 97 2.5000000000000004 98 99 64.500000000000014 82.500000000000014 8.5000000000000018 20.500000000000004 64.500000000000014 9.5000000000000018 69.500000000000014 100 88.500000000000014 6.5000000000000009 81.500000000000014 69.500000000000014 101 102 85.500000000000014 5.5000000000000009 103 104 34.500000000000007 105 106 55.500000000000007 10.500000000000002 107 63.500000000000007 108 2.5000000000000004 81.500000000000014 82.500000000000014 109 110 7.5000000000000009 48.500000000000007 5.5000000000000009 46.500000000000007 40.500000000000007 6.5000000000000009 1.5000000000000002 111 6.5000000000000009 7.5000000000000009 5.5000000000000009 112 45.500000000000007 2.5000000000000004 1.0000000180025095e-35 1.5000000000000002 32.500000000000007 98.500000000000014 20.500000000000004 17.500000000000004 113 114 3.5000000000000004 61.500000000000007 3.5000000000000004 5.5000000000000009 115 116 1.5000000000000002 117 98.500000000000014 118 10.500000000000002 1.5000000000000002 41.500000000000007 119 9.5000000000000018 6.5000000000000009 10.500000000000002 15.500000000000002 120 11.500000000000002 9.5000000000000018 3.5000000000000004 121 122 4.5000000000000009 123 7.5000000000000009 35.500000000000007 20.500000000000004 39.500000000000007 124 125 58.500000000000007 126 127 128 129 130 131 3.5000000000000004 1.5000000000000002 1.5000000000000002 3.5000000000000004 132 1.5000000000000002 59.500000000000007 83.500000000000014 16.500000000000004 133 134 8.5000000000000018 84.500000000000014 135 1.5000000000000002 65.500000000000014 136 46.500000000000007 137 33.500000000000007 51.500000000000007 9.5000000000000018 138 2.5000000000000004 96.500000000000014 4.5000000000000009 139 4.5000000000000009 87.500000000000014 6.5000000000000009 140 6.5000000000000009 17.500000000000004 7.5000000000000009 4.5000000000000009 3.5000000000000004 8.5000000000000018 86.500000000000014 141 70.500000000000014 96.500000000000014 142 5.5000000000000009 5.5000000000000009 4.5000000000000009 98.500000000000014 18.500000000000004 143 14.500000000000002 3.5000000000000004
decision_type=9 1 1 10 1 1 10 10 9 1 10 10 1 1 1 1 10 1 10 9 9 9 1 1 9 1 1 10 10 1 9 1 9 1 9 10 10 10 10 10 1 1 1 1 1 9 10 1 1 1 1 10 1 10 9 1 1 10 1 10 1 10 10 1 8 10 1 1 10 1 10 1 1 10 1 10 1 1 1 1 10 10 1 1 10 1 1 10 1 9 10 1 10 1 1 1 9 1 10 1 10 1 10 1 9 1 1 1 1 1 1 1 1 10 1 8 1 1 1 10 10 10 1 10 1 1 8 10 10 10 10 10 1 1 10 9 1 10 8 10 8 8 10 1 1 1 1 1 1 10 1 1 1 1 8 1 1 10 10 10 10 10 10 10 1 10 10 10 10 1 1 10 10 1 1 10 1 1 8 10 1 10 1 10 10 10 1 1 10 10 8 10 10 8 10 1 10 10 10 1 10 10 10 10 10 10 10 10 1 1 10 10 8 10 1 1 8 1 10 1 8 10 10 1 10 8 10 8 1 8 8 10 1 1 10 1 10 10 10 8 1 1 8 1 1 9 1 9 1 8 10 8 10 1 8 10 10 8 1 1 10 10 1 10 10 1 10 1 10 10 10 1 8 10 8 1 8 10 8 1 8 8 10 10 8 8 10 1 10 8 1 10 8 10 10 8 1 8 10
left_child=4 2 6 8 13 7 21 47 40 35 14 42 46 28 74 16 26 -18 33 100 77 53 39 24 184 85 96 134 -1 59 55 108 -26 52 81 36 38 63 93 -23 56 97 43 61 111 122 271 58 109 80 117 136 70 169 79 282 138 69 68 99 129 -5 72 -9 -43 135 253 234 130 211 98 -54 -49 -74 140 -76 -38 165 -64 196 209 118 83 -29 -85 86 168 -88 287 90 207 -92 244 133 -61 -82 -3 263 -15 291 101 181 -60 -84 105 249 182 217 171 192 -41 -35 -55 153 115 -31 227 173 128 172 219 220 -25 155 179 126 127 -102 -28 276 163 176 -75 -10 -22 262 -34 167 139 293 141 142 225 147 145 -145 -146 -116 -95 -113 226 -45 -105 -48 -99 -106 -157 -104 -77 -97 216 162 -66 164 -6 166 275 252 295 -2 -126 -32 279 197 251 294 -73 178 -122 180 -125 222 183 250 -19 -143 187 -103 189 191 -191 -63 -42 198 -183 -101 -33 -44 -123 204 -162 -190 -166 -202 284 -96 224 -17 -209 -36 245 -16 -213 -214 215 -195 -142 273 -62 -50 -119 -148 -11 -221 -175 -7 -151 -65 -59 230 -230 -135 -216 -136 238 -236 241 -238 242 240 -240 -237 243 -37 -93 246 -51 248 -247 -52 -47 -117 -71 -30 -53 -194 -257 -179 -212 260 261 -78 -56 264 -39 -189 -114 268 -140 -130 -192 -13 -273 -67 -152 -21 -12 278 -266 -70 -251 -231 283 -8 -83 -131 -287 -40 -149 290 -111 -14 -293 -4 -80 -20 -219 -120 -255
right_child=1 15 3 11 5 10 30 37 9 19 60 12 29 18 57 89 17 23 25 20 27 22 -24 45 32 -27 34 82 66 114 31 54 51 44 49 67 76 41 88 110 48 64 50 151 -46 106 113 62 120 210 104 254 71 112 65 -57 -58 228 102 94 218 188 78 116 161 107 -68 -69 119 137 -72 131 73 132 75 158 259 -79 175 -81 95 199 103 84 -86 -87 87 -89 -90 -91 91 92 -94 148 205 159 -98 154 -100 195 125 186 157 152 123 -107 -108 -109 -110 289 -112 149 266 -115 143 174 -118 121 297 -121 177 193 -124 124 170 -127 -128 -129 269 285 -132 -133 -134 231 233 -137 -138 -139 267 -141 160 185 -144 144 146 -147 221 288 -150 150 274 -153 -154 -155 -156 156 -158 -159 -160 -161 200 -163 -164 -165 202 -167 -168 -169 -170 -171 -172 -173 -174 206 -176 -177 -178 257 -180 -181 -182 194 -184 -185 -186 -187 -188 265 201 190 270 -193 255 214 -196 -197 -198 -199 -200 -201 203 -203 -204 -205 -206 -207 -208 208 -210 -211 258 212 213 -215 232 -217 -218 296 -220 223 -222 -223 -224 -225 -226 -227 -228 -229 229 281 -232 -233 -234 -235 235 236 237 -239 239 -241 -242 -243 -244 -245 -246 247 -248 -249 -250 280 -252 -253 -254 298 -256 256 -258 -259 -260 -261 -262 -263 -264 -265 277 -267 -268 -269 -270 -271 -272 272 -274 -275 -276 -277 -278 -279 -280 -281 -282 -283 -284 -285 -286 286 -288 -289 -290 -291 -292 292 -294 -295 -296 -297 -298 -299 -300
leaf_value=-1.6765598280644338 0.97531381579973342 -1.6267467500898194 4.8081242314452188 1.2035784874814768 2.0723097422491668 13.445379413381724 7.5018347856888656 7.1264342628831914 1.6264128189217404 1.7812878713007814 24.192860843221062 3.4353852327227048 11.423144849022151 2.4213628166360892 12.253619497039555 -1.9652860090451545 -0.73088879195974366 -0.71056645206072311 9.5453998267764089 2.0786149774184834 -0.77740443496037515 -1.1482707120703448 -2.5601208636186721 13.720159644601367 1.8415993918414355 -4.7589265947970141 3.2342678006112617 0.36341785794520542 3.3351857763128452 5.8743234204593815 2.658607959734514 2.4776132462246685 3.3425741890031384 0.17661488159571587 0.058255449344494371 4.9637400881740614 3.4641385271669694 11.733313134058299 3.9147335130157672 1.2826841593138978 6.3406232568158281 21.584623301195375 7.805911780695066 0.77296243526806308 -5.4339839152111544 5.3388520143419766 4.9044606904528596 2.8282548264859706 3.6554455491436162 1.2131207389597827 7.9652547506161255 5.8445933954784319 -0.42773130539844639 0.7223285488550194 -0.31759887855708346 4.9042534599454539 5.8755566916110986 14.027716162378724 3.5354691322305536 14.54095606627949 26.041312833376594 1.6655973815632785 5.887754855998697 7.0703130810121753 7.9059281360390532 1.3267114174251164 -5.5006624244221936 3.3691935798309154 5.7635077818508096 12.210434939655103 3.4323611640995155 0.38393367332332651 3.7452328400408308 7.0262007195572069 13.06405393325544 14.709619199788854 4.2648248184083659 0.70688378905385074 3.8047464868075722 1.2273760177180399 -0.39023336092740202 7.2994982893055056 -0.3641938478005205 0.60152077611372612 1.4391260300979611 8.7151249066767029 7.399882029636105 11.195625241741851 2.5721944952533615 -3.7729044542175245 -1.0512564560147299 0.89712735183273473 3.3918829781555146 -0.19882977423285991 12.475940892476727 2.9906444532509835 -3.1248137423191547 14.10822964279461 3.700608956990096 10.557938790385156 4.9054364345418273 0.46174472729163951 6.5040115572759989 1.2875795529968821 6.0862538875694492 9.3752545485338281 -0.21001058165179121 -0.011617272320526319 2.2106363481622284 1.8096122991428374 -0.14550972103390328 1.5370575154999608 2.1548401848375898 3.6153204828592109 5.7930975300243475 23.3217104130681 10.956454866630311 2.4249318829092932 -1.8014534755634757 5.6952911607016929 7.6817304044713728 8.9686217098168761 9.3142205993596878 8.3465973245505065 3.0895788176955343 2.5543717630118823 3.7229144256103526 2.1908485101080943 6.2331686294680129 31.568176123452481 5.159530235758278 4.1361388477515879 5.5084715997576801 1.8834726960818129 0.021640994721666355 -0.7884821983488699 3.6640192215309946 15.247033140235875 6.0047116921151069 9.2561601543944807 11.860868364012848 14.012851273375464 17.790419907855831 10.613923123478115 3.5134441439053519 5.9333214744402163 5.7145407445062508 15.04276755289723 0.72737348403691304 0.78855827154216396 3.9520786200962101 1.8134528969643793 0.6953704326059954 4.7042744211405543 16.287077438471641 6.0667405266637635 2.5907809272904547 4.5816657006416399 17.182877434675074 0.53669698831041823 19.260402589916069 16.197246083776019 18.826594277608343 5.5052413553771267 5.2046967208510235 3.0112067309484853 2.099284679144521 16.217659703286618 11.424403692510831 -0.3127137879187174 5.7784601265090307 4.7027622908041256 6.2337044267677726 9.4612839803950024 6.9621473336352029 8.9785932809883793 2.3662683498562282 8.2174762915942221 12.559355205228481 4.7790800571846495 5.217744314015837 3.0693876551303454 2.7523301025956202 2.3600646814562523 0.72050187330532345 17.063077530682047 0.69268673611456588 2.7281132605419511 2.9212605885063798 1.9741993829793167 2.9027606273162001 1.4143328852039911 9.7441251273009382 5.075167411755988 3.1494948860700185 9.5746804040284879 0.33449500815566258 3.2286128610665106 6.3408386181975009 -1.9176775527437109 13.347333655429395 3.1276970303032785 0.16300727488708891 11.381269383177894 10.295612575002549 15.336582631786232 11.237305747140692 -2.2310187319333585 0.31393357986267745 -0.62794074071034844 0.050387278206910524 5.4322880943512324 14.32790618934456 18.057805927529813 5.8371264883450618 10.090501570672675 13.521103665217005 0.94074350856292011 40.903149491222848 0.068451239071639067 6.037616041102428 7.2578430855961109 2.541213468226891 5.0614465944728479 9.2337589356113359 11.295100779966695 6.5474291323366574 8.7469687744683657 18.581769819615214 17.382398682738401 14.081169125037077 2.8209898215985669 3.2070388376622625 -0.40069301121761208 4.8313639527694834 6.2756658435995121 6.20413885002562 12.755275933691625 5.9812181663890147 5.1422175961835164 3.2810140852479281 4.9567413647466276 3.2460917447103075 4.055004499428807 2.4703318434989692 1.1550288448903545 -1.3306000951026411 -2.3176498278266102 -1.4625802726411834 15.554367673735729 16.023751890531621 11.171954168221371 9.1641384180492107 3.751962371623784 5.0266673386433469 6.209071099564202 6.9508216257971158 4.9664050848441725 -0.93436715385943436 2.769019167276122 -1.7417169908797154 1.7809801526805735 2.0005829707348828 15.937078440473655 16.388336259920443 1.9949372133168586 2.7917206594591963 6.7045068208499892 10.095797541235576 5.3460680757346912 3.2229286057418371 4.0788758290682052 3.193889685285793 1.4899859438562042 2.3713750724134939 0.89758640175420679 24.543135261340925 22.181535191883977 20.79454121681859 3.7312768844354425 11.804889935462628 16.037687445951612 5.8299399147429032 5.712292954985684 0.9774225115395867 36.002387544103939 34.944772259173277 2.9355069835514369 10.225454876104227 6.5299707758843368 5.7743994312082778 6.0351399476215137 12.684334022057044 7.7957982209633387 6.8379610605784507 10.114656247762436 -0.085602247960276892 2.4605222140376131 0.26885755774633874
leaf_weight=4968 1248 4321 108 62 229 48 275 204 12710 606 38 317 2084 323 1542 9666 3416 240 22 345 23056 58661 58582 74 212 128 790 328 146 294 2674 193 100 609 3845 112 4321 23 1129 1671 616 49 200 102 706 30 188 1324 862 469 22 39 203 606 322 640 576 325 1618 314 857 31 604 99 113 154 100 3657 103 1784 96 119 2658 217 857 661 109 3450 973 662 216 74 581 228 137 237 141 105 6702 288168 540 124 160 2016 219 210 32271 45 60 1278 50 326 165 130 968 311 839 818 6407 108 3254 977 884 39 344 20 381 121 203 170 62 226 188 498 365 681 116 54 37 88 242 90 422 11141 2062 3885 394 520 138 47 35 537 31 219 231 344 503 25 2212 195 42 333 434 167 291 511 698 202 27 94 45 362 25 114 316 72 729 129 44 3766 510 1077 172 938 403 20 276 86 53 94 475 88 261 23 147 22 2906 101 44 49 138 26 48 261 30 1343 40 76 107 840 89 42 35 46 24 180 27 601 536 3755 1537 44 134 23 210 464 548 103 29 118 230 196 150 1397 197 114 29 157 92 21 117 3532 224 3366 579 220 207 21 104 322 175 269 411 428 205 577 959 13026 984 28 22 172 80 202 339 51 29 185 1941 8135 27 37 400 80 21 366 88 164 34 227 42 47 227 81 239 882 350 63 42 114 178 599 31 34 508 70 78 3194 419 329 365 51 120 120 24 20 146 1003 43
leaf_count=4968 1248 4321 108 62 229 48 275 204 12710 606 38 317 2084 323 1542 9666 3416 240 22 345 23056 58661 58582 74 212 128 790 328 146 294 2674 193 100 609 3845 112 4321 23 1129 1671 616 49 200 102 706 30 188 1324 862 469 22 39 203 606 322 640 576 325 1618 314 857 31 604 99 113 154 100 3657 103 1784 96 119 2658 217 857 661 109 3450 973 662 216 74 581 228 137 237 141 105 6702 288168 540 124 160 2016 219 210 32271 45 60 1278 50 326 165 130 968 311 839 818 6407 108 3254 977 884 39 344 20 381 121 203 170 62 226 188 498 365 681 116 54 37 88 242 90 422 11141 2062 3885 394 520 138 47 35 537 31 219 231 344 503 25 2212 195 42 333 434 167 291 511 698 202 27 94 45 362 25 114 316 72 729 129 44 3766 510 1077 172 938 403 20 276 86 53 94 475 88 261 23 147 22 2906 101 44 49 138 26 48 261 30 1343 40 76 107 840 89 42 35 46 24 180 27 601 536 3755 1537 44 134 23 210 464 548 103 29 118 230 196 150 1397 197 114 29 157 92 21 117 3532 224 3366 579 220 207 21 104 322 175 269 411 428 205 577 959 13026 984 28 22 172 80 202 339 51 29 185 1941 8135 27 37 400 80 21 366 88 164 34 227 42 47 227 81 239 882 350 63 42 114 178 599 31 34 508 70 78 3194 419 329 365 51 120 120 24 20 146 1003 43
internal_value=0 -0.0200674 0.0134085 0.0582477 0.166834 0.232296 -0.0254383 0.143249 0.0312327 0.0257224 0.336236 0.216332 0.26445 0.0266535 0.303483 -0.0445584 -0.0270557 0.0478811 0.0899058 -0.0078166 -0.0160849 -0.033512 -0.0361063 0.128718 0.201519 0.265638 -0.0340379 -0.0255539 -0.0274182 0.240284 0.032488 0.0262727 0.270384 0.0592331 -0.0192777 0.0481305 0.0438388 0.305499 0.0378835 -0.0246132 0.134254 0.355745 0.163102 0.240671 0.0257955 0.0533172 0.472111 0.110769 0.116126 -0.0258354 0.154114 0.322449 0.139374 0.0146016 -0.0063399 0.138384 0.198538 0.254889 0.14212 0.269075 0.522185 0.325 0.0929143 0.238942 0.263953 -0.016126 0.121079 0.0846656 0.181561 0.241353 0.212781 0.0839541 0.0789764 0.0949955 0.387296 0.342604 0.0639441 0.0362791 0.13322 0.0577348 -0.00492612 0.029521 0.0528292 0.101494 0.164667 0.330829 0.401754 0.340244 0.0587528 -0.0488884 -0.0346732 0.0588435 0.169439 0.0306048 0.337097 0.0653846 -0.0466532 0.432609 0.177154 0.25968 0.0461889 0.0376886 0.111654 0.0222944 0.132412 0.193169 0.0238397 0.0291091 0.0481019 0.163046 0.0101015 0.0511423 0.0602661 0.566751 0.188836 0.233092 0.275348 0.184427 0.0513274 0.241592 0.0893797 0.164324 0.179779 0.124013 0.145675 0.0898446 0.165217 0.276923 0.081109 0.423975 0.14765 0.126768 0.161268 0.0340543 -0.0306207 -0.0289451 0.261741 0.266488 0.258374 0.317273 0.430328 0.464628 0.385233 0.170646 0.152947 0.200436 0.120745 0.206345 0.00816422 0.0703083 0.114356 0.151124 0.0641115 0.589437 0.491667 0.10526 0.0800246 0.178883 0.394767 0.120382 0.402163 0.244 0.160145 0.122911 0.103448 0.0660451 0.0614519 0.255068 0.624419 0.000259262 0.105367 0.0660595 0.204499 0.211474 0.267647 0.097517 0.101899 0.152073 0.242 0.176091 0.188438 0.0817873 0.0872832 0.203333 0.00667505 0.492039 0.0269749 0.061457 0.369355 0.338112 0.373581 0.195614 0.202653 0.179223 0.178814 0.234112 0.149588 0.13007 0.232282 -0.00435686 0.477778 0.473256 0.145291 0.431481 0.0287338 0.398655 0.22773 -0.0436129 -0.0139402 -0.00973685 -0.0345586 0.202424 0.273383 0.319427 0.163978 0.190136 0.378816 0.0785425 0.580022 0.0795751 0.100997 0.145346 0.0677249 0.0959016 0.22489 0.345062 0.0461538 0.184962 0.307019 0.333194 0.270574 0.0411598 0.113288 -0.0153648 0.110077 0.131327 0.162517 0.24386 0.0930412 0.128037 0.075448 0.127914 0.0709253 0.1 0.120213 -0.0380737 -0.0121002 -0.0405803 -0.0153087 0.279832 0.296154 0.335417 0.248283 0.160723 0.410317 0.29375 0.225 0.101246 -0.0183726 0.052729 0.127596 0.169178 0.0135246 0.364847 0.413087 0.0998952 0.0869654 0.217857 0.165116 0.150758 0.416667 0.417005 0.373358 0.127551 0.16134 0.0396495 0.390722 0.45 0.537302 0.152765 0.314078 0.359677 0.228571 0.218608 0.0204467 0.49661 0.544595 0.0775098 0.248458 0.124261 0.0979915 0.287086 0.219006 0.265789 0.0934303 0.497619 0.0291506 0.0244243 0.12551
